34 300
33 0.16472462 -0.088425994 -0.11194512 -0.15940642 0.004823461 -0.14405718 -0.15679277 0.0011832861 0.2013857 0.39386508 -0.15204586 0.11597882 0.21949157 0.22276507 0.24873465 -0.25046834 -0.018312214 -0.05537287 0.1776338 0.1933216 -0.28299683 -0.10461214 0.043429457 -0.36280084 0.021931358 0.044823777 0.17804837 0.30976707 -0.0016337581 -0.00043120197 -0.20655254 0.34030613 -0.0015592291 -0.087184526 -0.32043532 0.12521002 -0.24132755 -0.18748248 -0.17472713 -0.019065477 -0.17486808 0.16708308 0.10891327 0.03227913 -0.023990065 -0.07482522 -0.05219672 0.0135012735 0.032277066 -0.105340295 -0.02681052 -0.26426324 -0.00861118 -0.10979158 0.061493963 -0.21618593 0.011436362 0.12642705 0.07031927 0.25169504 -0.04871254 -0.08353486 0.061424576 0.19626725 0.05189192 0.20499758 0.28942767 -0.17594473 0.131543 0.043040663 -0.036775365 -0.20505479 0.034860343 -0.34069645 -0.06791823 0.17952052 0.10705827 0.019018343 0.23956364 0.05757553 -0.018409487 -0.13875349 0.007510834 0.045427352 -0.16041052 0.13885377 -0.2619099 -0.05861899 -0.25513777 -0.11101648 -0.00013227579 -0.074939355 -0.17117779 -0.37074098 -0.16574988 0.07477642 -0.0026938096 -0.054373406 -0.009920405 -0.04448953 -0.12345239 -0.004180727 -0.037328314 0.03864252 0.19866358 0.12716508 -0.056184784 -0.04256658 -0.013239958 0.0905122 0.116881624 0.12294861 -0.23183005 -0.24690142 0.10022722 0.088600434 0.27510792 -0.11067289 0.17677607 0.086378336 0.17445643 0.14259894 -0.03690379 0.02769876 -0.023755785 0.05694904 -0.2335182 -0.1590333 0.07070972 -0.1849345 -0.17904396 0.12506302 0.042480674 -0.20295188 -0.026077082 -0.041518465 0.15758747 -0.089006834 0.18126103 0.004767939 0.019923728 -0.09582452 -0.203193 0.14926997 0.049642574 -0.22349295 -0.18999957 -0.079942 -0.05960762 -0.20591569 -0.30679652 0.08188491 0.11422363 0.15425403 0.28618395 -0.33769092 0.19305064 0.08384322 0.19551103 -0.08100828 0.16169947 0.2351935 -0.31881434 -0.1560509 0.2059326 0.09172109 0.20985849 -0.24291822 0.05315677 0.1364135 0.0029479242 0.18309218 -0.18435173 0.18347244 -0.070534475 0.32838166 0.10826268 -0.07623481 0.06948868 -0.10491494 0.093314655 0.24221723 -0.26234776 0.02394705 -0.043362595 -0.2218956 -0.20053355 0.19182841 0.06519213 -0.03052839 -0.09821418 0.17601629 0.0944843 -0.2626538 -0.066591434 -0.054382175 -0.09830487 -0.043367658 0.016335893 0.041388374 -0.050446372 0.10416024 0.10971153 -0.17628741 -0.1264005 -0.21926731 -0.0433164 0.25845224 0.102919266 0.015485507 0.13240053 -0.032347478 -0.08051893 -0.08584525 -0.064523816 0.19325165 -0.089686364 0.10055263 -0.034171805 -0.13334762 0.121684365 0.0049133985 -0.1590388 -0.03125097 -0.16849789 -0.15395734 0.0020451064 0.09426626 -0.076746054 0.13173668 -0.30922425 0.023161208 -0.03182815 -0.26627845 0.13671076 0.101249866 -0.014660405 -0.34622326 -0.04254707 0.15779077 0.12232895 0.06810927 -0.1947575 -0.09681898 0.21386085 -0.053444885 0.072728194 0.009923412 0.043885287 0.027812412 0.10228322 -0.1492665 -0.16298415 -0.0689482 0.02558261 -0.06500683 0.051046863 -0.14571021 -0.026098127 0.12415667 -0.10806996 -0.2369213 -0.0379894 0.17784159 0.0407147 -0.16090737 -0.07975982 0.00056463946 0.048764527 0.16879034 0.12028892 0.17166457 -0.13757005 0.3356688 0.029467901 0.0033532854 0.2615491 -0.1963975 -0.042517103 0.048472665 -0.09888954 -0.15587762 0.07714791 -0.062358983 0.0010225477 0.053691905 0.010416201 0.061598927 -0.044545367 -0.031111747 -0.08112937 0.21802495 -0.13381328 0.039147288 -0.28315762 0.058039837 0.01443723 0.27331495 0.09941517 -0.12526093
0 0.01623683 0.06788879 0.0842996 0.18413965 -0.0816896 -0.04247716 0.10718758 0.10364617 -0.19297579 -0.28827637 0.1968102 -0.24294004 -0.3818515 -0.2911795 -0.27812666 0.26490083 -0.16253652 -0.27549025 0.018887518 -0.25286156 0.20913741 -0.015381898 0.33837977 0.21905202 -0.04162487 -0.34487984 -0.30210674 -0.1571478 0.043638363 0.13130814 0.0014229688 -0.25086018 0.15299882 0.1727241 0.26049408 0.0028433953 0.22255008 0.4414454 0.16971502 -0.12417877 0.070005715 -0.30871907 0.025617015 0.2041807 0.07258909 0.089606516 0.14529777 0.0505819 0.090765946 -0.20850313 0.03146869 0.29870576 -0.042148788 0.027017025 -0.033751823 0.24122027 -0.08300382 -0.24636328 -0.13203093 -0.21151097 -0.07919227 0.25433242 0.050492674 -0.026223341 0.1260185 0.025210524 -0.4477946 0.04428082 -0.15423594 0.021814564 -0.0876779 0.20289482 -0.009270087 0.20699777 -0.070709676 -0.33022088 0.09723893 -0.22913185 -0.2346266 -0.2035797 0.12109043 0.017080326 0.0867348 -0.04691751 0.14851087 -0.1977817 0.2111255 0.0021249168 0.36193696 -0.037214015 0.23441331 0.05991707 0.1731579 0.23452306 0.25241348 -0.14790685 -0.052306123 -0.08340926 -0.03614957 -0.15768777 0.111215375 -0.08001653 0.012295548 0.026046168 -0.25947297 -0.07281161 0.063183784 0.091129206 -0.0967074 -0.107683234 -0.16676082 -0.17910597 0.3070979 0.047417153 0.045680206 0.023390174 -0.2117039 0.068937935 0.07097264 -0.14174739 -0.35116175 -0.2517149 0.115743995 -0.29411843 -0.058516026 -0.08219697 0.36076412 0.1522745 -0.114685066 0.16487798 0.051393483 -0.1753799 -0.09944256 0.25752828 -0.03705858 0.1507404 -0.08689126 -0.115505025 -0.3656883 -0.22932027 -0.0929013 -0.15023276 0.38600206 0.15598273 0.26366562 0.048681512 0.1938718 0.109208435 0.0852053 0.1328999 0.23798592 -0.14483015 -0.124629155 -0.10925092 -0.23756318 0.1671812 -0.10774553 -0.1168706 -0.27315798 0.17816246 -0.073881574 -0.1640932 0.22912882 0.09526272 0.06589892 -0.24839549 -0.29337916 0.28254807 -0.019871943 0.041637808 -0.022901949 -0.18731332 0.14676343 0.029246813 0.22727074 -0.2542423 -0.21484505 0.05291711 -0.06646143 0.082132146 0.050027747 -0.07831793 0.24547738 -0.19626398 0.035691805 0.1273137 0.45509544 -0.2535053 -0.013545835 0.17118661 -0.15741147 -0.36933276 -0.0631432 0.10414115 0.23906599 0.13249767 -0.12181992 -0.05377571 0.028006129 0.067088 0.11617807 -0.21586646 -0.15254714 0.15610968 -0.08453994 0.10297846 -0.09039646 -0.16667704 -0.101748526 -0.026769826 -0.20034893 -0.0826938 0.15011169 0.06484324 -0.17345133 -0.07182184 0.19617946 -0.24645686 0.27001113 0.17059666 -0.14382316 -0.018225934 0.3252576 0.1060661 -0.042732798 0.08582908 0.04239809 -0.1143734 -0.117497 0.052648477 0.349249 -0.06796117 -0.0061855153 0.23584463 0.08241929 -0.035130356 -0.023036044 0.24729915 0.21243043 0.030388953 -0.107743904 -0.07490567 0.007514023 -0.0657593 -0.11288798 0.1915665 0.012986128 -0.023442304 0.1137002 -0.0066925935 -0.13104232 -0.008199409 0.24372798 0.28870666 -0.13075458 0.04547916 -0.0961334 -0.17863488 0.2689158 0.04429427 0.028850427 0.19330552 0.13490947 -0.26644737 -0.20238498 0.21766794 0.13672264 0.027444026 -0.0453973 -0.23192868 -0.119418934 -0.095666416 0.038820736 -0.3611079 0.09012818 -0.07484984 -0.28842038 0.010623351 0.008376913 -0.11602904 0.23634017 0.071968995 -0.06641177 -0.0873861 -0.10246408 -0.14210452 -0.024588866 -0.13342118 -0.2957613 0.0139321955 0.049605932 -0.20609139 0.16797005 -0.16508487 0.35019594 0.0052418886 -0.15385677 -0.17538273 0.054534145 0.019806234
32 0.113946006 -0.14162023 -0.20677489 -0.21021478 0.078299135 -0.2067663 -0.25018245 -0.011084107 0.23373073 0.4195583 -0.16644783 0.1300106 0.31288785 0.3858621 0.28786555 -0.24876192 -0.045107182 -0.014636278 0.15955955 0.19085741 -0.2832685 -0.11598995 -0.020913485 -0.44765395 0.048838522 0.12456001 0.22611961 0.38835594 -0.0006262658 -0.03594704 -0.17497195 0.41886333 -0.04520714 -0.11492145 -0.39490196 0.19413957 -0.3161653 -0.2046521 -0.19154693 -0.005873401 -0.20775396 0.2771187 0.10168953 0.016070869 -0.11883977 -0.07846241 -0.057375357 -0.041519582 0.022029737 -0.18027991 0.004119104 -0.36188203 0.03528693 -0.10958412 0.062207635 -0.23659083 0.026759697 0.23967625 0.18941864 0.32550526 -0.0018634656 -0.09326211 0.009835558 0.13601555 0.06925763 0.24714494 0.37665448 -0.13481942 0.18202491 0.02381756 -0.018954461 -0.24832854 0.10216612 -0.35661498 -0.02921229 0.18956675 0.16193108 0.037107818 0.28527787 0.088323824 -0.03780605 -0.18941511 -0.03814032 0.10354346 -0.23681007 0.1768179 -0.36689308 -0.030934004 -0.32281885 -0.11917949 0.056966294 -0.0641151 -0.17843574 -0.408823 -0.20205882 0.06818786 -0.03887775 -0.07790749 0.04069039 0.010843349 -0.15210935 0.026870536 -0.050130688 -0.030239534 0.24810429 0.23293132 -0.035777226 -0.02642994 0.037856556 0.09912885 0.09942395 0.18515813 -0.22155525 -0.24865411 0.18486278 0.12522039 0.3733089 -0.15357848 0.15426587 0.08101285 0.24983098 0.21099147 0.031378098 0.09503235 -0.057971846 0.058642466 -0.22384855 -0.20156023 0.05873295 -0.15587753 -0.15993416 0.24098474 0.12194659 -0.2409832 -0.044693485 -0.052622847 0.2358273 -0.19539905 0.21516123 0.026945746 0.008022977 -0.11951103 -0.26490468 0.16102254 0.080552444 -0.14023127 -0.18046898 -0.09647774 -0.023832845 -0.28233558 -0.31886175 0.082108505 0.18377669 0.14695692 0.37512687 -0.4301814 0.23699848 0.018312372 0.28997162 -0.15013833 0.1768846 0.28187984 -0.42342722 -0.22330159 0.2834357 0.16310212 0.2744975 -0.18044384 0.0559096 0.1406597 0.004136701 0.23046291 -0.3232555 0.1885339 -0.05432477 0.42305005 0.08573744 0.050171293 0.07441486 -0.08329614 0.080874704 0.23580724 -0.3523601 0.06514329 -0.07398688 -0.26166344 -0.35191458 0.25892282 0.019544542 0.056631498 -0.11413468 0.19219194 0.107351206 -0.3556708 -0.080626056 -0.043211732 -0.08448451 -0.14007905 0.124543436 0.14867379 -0.0030689198 0.090704165 0.1267 -0.2635788 -0.11466776 -0.20878172 -0.08074951 0.2385827 0.08834121 0.07804103 0.15119639 -0.10207126 -0.07288404 -0.10039507 -0.026889022 0.1858925 -0.11452931 0.15867448 -0.091199756 -0.098441094 0.13565606 0.021887122 -0.25670177 -0.034255907 -0.20762207 -0.13854113 -0.06461526 0.09072029 -0.09067829 0.1598899 -0.40791073 0.04473077 -0.011296539 -0.32278794 0.09285082 0.083101675 -0.039734453 -0.40108085 -0.11402367 0.19282182 0.13563617 0.08055472 -0.22555703 -0.061253317 0.19112563 -0.08589788 0.11308481 0.028307026 -0.00062372885 0.082263194 0.058184855 -0.17609718 -0.2737637 -0.075611904 0.0016836369 -0.0535561 0.099641226 -0.14669046 -0.085603066 0.06595182 -0.076208584 -0.23094954 -0.0008542333 0.18602632 0.0148211885 -0.18902072 -0.17881992 -0.08725369 0.11367822 0.12337743 0.10162075 0.13105668 -0.07020244 0.3858486 -0.040584832 0.07932564 0.2466954 -0.16124049 -0.047332175 0.0850311 -0.10588436 -0.19795083 0.1941748 -0.039758403 0.043793734 0.068926275 0.07836731 0.09562908 -0.10685636 0.05027254 -0.03828321 0.35530505 -0.12515478 0.10167339 -0.392634 0.023072852 0.018280035 0.31717366 0.062051516 -0.121502474
2 -0.04160883 0.124797 0.120304264 0.07514972 -0.27705956 0.047694 0.07369057 -0.040695183 -0.0025762757 0.21584967 -0.10540851 -0.10700207 0.07052782 -0.02866763 -0.10347613 0.0007596473 -0.037690997 0.1599334 0.056891505 0.21899794 -0.16573316 -0.028520752 0.1288791 0.02682855 0.037850194 -0.022362443 -0.003153721 -0.11624075 -0.21299048 -0.0857154 -0.1344226 -0.023903973 0.2921568 -0.025990572 0.0041242028 0.008335916 -0.051715758 -0.13352682 -0.0707751 -0.041286886 0.07618566 0.0065490827 -0.13873728 -0.061317034 0.09987813 -0.032108966 -0.031000396 -0.078090504 0.16004539 0.022406338 -0.11256185 0.044255752 0.16470818 0.09103806 0.097098485 -0.06328617 0.061780315 -0.14116701 -0.09388449 -0.033602104 0.019566935 -0.06708157 0.14323486 0.111855745 -0.0012918921 0.06676824 0.098814584 -0.008549574 -0.02660438 0.040067475 -0.017065544 0.07261262 0.17044835 0.12822728 0.021227937 0.055553745 -0.24565466 0.0063674464 0.024466034 0.028083958 0.01678438 0.038442567 -0.08624581 -0.054758478 0.097702645 0.07525578 0.20200181 -0.16839553 0.060195036 0.032003358 -0.11752237 0.041644305 -0.11329896 -0.21578008 0.1338991 -0.20984946 -0.055072635 0.059873026 -0.1531173 -0.019969359 0.08583814 0.007927513 0.012591985 0.18202431 0.059229262 -0.09824284 -0.032779444 -0.09568564 -0.10159224 0.07736691 0.1251737 -0.033720035 -0.112791255 -0.21683018 0.06407651 -0.11373921 -0.091021135 0.17522109 -0.031203995 0.100558855 -0.06545599 -0.15812461 0.0898849 0.075200625 -0.037026737 0.015915282 -0.051199507 0.08753099 -0.01644079 -0.1959656 0.028914627 -0.2612327 -0.105615996 0.13017581 -0.10757889 -0.028386828 0.022881627 0.13214253 -0.045989934 0.0486298 0.097065285 -0.13819407 -0.21507984 -0.006834623 -0.053272422 -0.09096625 -0.112323165 -0.017477227 -0.1513149 -0.022752399 0.067905754 0.2578893 -0.13232791 0.17548384 -0.16975969 -0.10015103 0.031541713 0.16362618 -0.11675161 0.007935825 -0.1270547 -0.2930708 0.15951484 0.27629474 -0.21408732 -0.05170619 -0.10968577 -0.1975997 -0.025818055 0.06629578 -0.038100224 -0.1241305 0.14889084 0.09191475 -0.031531274 0.2240446 0.17459334 0.0069409865 0.0763754 0.05353657 0.020194815 0.055311274 0.036774375 -0.03001817 -0.09260572 0.14021833 0.12542374 0.057097424 0.03206599 -0.2029641 -0.073029146 -0.018628348 0.05485411 0.08729678 0.012214657 -0.17206544 -0.11464353 0.19041787 -0.08353536 -0.16465318 -0.056038994 0.10096533 -0.047171444 0.20553964 -0.17225547 -0.12441262 -0.039570637 -0.042037092 0.124099195 -0.24875546 0.06396437 0.053928703 0.10189698 -0.03612436 0.12462097 -0.085269235 0.07542463 -0.15024757 -0.075291 0.05711643 0.01779399 0.025395716 0.2538045 -0.115191676 -0.0996084 0.08198945 -0.09415975 -0.016412955 -0.19433157 0.09926522 0.11504916 0.061457597 -0.12308303 0.11548746 0.10692277 -0.0657281 0.09176596 -0.17187092 0.13278024 -0.20412548 -0.082223035 0.11820413 0.12586968 -0.038014535 -0.09632635 0.13398845 0.17263925 -0.04562657 0.078768745 0.064765215 -0.03434322 0.13191828 0.12983477 0.011135592 0.024652064 -0.16536155 0.010983473 -0.010722885 0.09895443 0.18835871 0.085072994 -0.07397366 0.068595335 0.0026206237 0.04801739 -0.12130998 0.044595174 0.04445216 -0.047768727 -0.06985565 0.016792495 0.19575958 -0.11929018 0.29965758 0.06461192 -0.15763278 0.21447095 -0.15450709 0.048149977 0.018465884 0.12994803 -0.033327922 -0.16107011 -0.068734996 -0.10256255 -0.08641029 0.35531914 -0.12987444 0.12214436 -0.09405379 0.05193178 -0.18309587 0.14211799 -0.01499117 0.17707221 -0.16531445 0.13441357 -0.00044637898 0.05562679 -0.1148186
1 -0.015721519 0.07407127 0.13290337 0.18885697 -0.11922375 -0.09475483 0.207071 0.036188867 -0.12663446 0.0020732135 0.097413175 -0.20219256 -0.24827398 -0.15122649 -0.28606927 0.1754537 0.11580656 -0.19920233 0.14637479 -0.048129886 -0.005022346 -0.004484473 0.29835135 0.04667111 0.19190474 -0.26522124 -0.28380254 -0.34137186 0.014936986 0.07558715 -0.11495229 -0.22421207 0.21983789 0.012434431 -0.09221591 0.12630798 0.24492651 0.3065577 -0.05893535 -0.2557701 0.004650989 -0.33863097 -0.07485258 0.043421917 0.07597203 0.01636154 -0.060699776 -0.1401495 0.16217145 -0.18117759 0.085232146 0.1280056 0.08639736 0.054285873 -0.004319309 0.23075631 -0.14013034 -0.4238271 -0.27643967 -0.29370302 0.018671274 0.19184978 0.07312242 0.06739358 0.28697655 -0.0074928496 -0.24458577 0.045397025 -0.26423517 0.01921698 -0.008030747 0.24303228 0.15773596 0.12190076 -0.25591177 -0.4679308 -0.15944225 -0.046193685 -0.05119085 -0.11933014 0.12848744 -0.02647691 -0.08237059 -0.15571503 0.08503749 -0.06798164 0.27493566 -0.0666988 0.23623355 -0.054932456 0.1337543 0.19739181 -0.09998111 -0.024728209 0.37933657 -0.37904602 -0.18697071 0.10260222 -0.2022774 -0.1318772 0.22927605 0.017197153 0.14068687 0.19855483 -0.20161493 0.0052141254 0.041710977 0.18014723 0.106710844 -0.025336737 -0.01701844 -0.0886409 0.111323416 0.010149355 0.107285164 -0.20922893 -0.17264265 0.11404158 -0.08348969 0.057660915 -0.40171415 -0.32643658 0.2929974 -0.24415444 -0.008361516 0.042697474 0.22751771 -0.01798209 -0.15949856 0.04595337 -0.01624655 -0.14448118 -0.15475021 0.03983111 0.018758286 0.040868085 0.21991406 0.081791274 -0.2742211 -0.020466045 -0.19560502 -0.15993933 0.14135349 0.1558165 0.27133867 0.050293438 0.10504099 0.0063259713 0.07087999 0.14843999 0.12964948 -0.005270409 -0.11400942 0.13223118 -0.36976713 0.12743326 0.108656086 -0.09723197 -0.5019101 0.21369329 -0.21322593 -0.30337572 0.19741996 0.15200798 0.06759058 -0.16843592 -0.21404463 0.09809322 -0.08520911 0.108403526 -0.19429316 -0.032038264 0.36013308 0.19747573 0.079414025 -0.0291344 0.020484617 0.06853471 0.060132947 0.19250871 0.15522842 -0.07053185 0.31730038 -0.18918915 0.1402306 -0.016191559 0.22975782 -0.18828131 0.010386744 -0.022320472 -0.18842283 -0.16088688 -0.03946821 0.3009825 0.03681963 0.06186495 -0.20798756 -0.045130476 -0.034491844 -0.060353443 0.31133905 -0.17258598 -0.10392264 0.056732636 -0.22540171 0.02254135 -0.08343423 -0.0074666413 0.17584 -0.2097134 -0.03397075 -0.023810092 0.0013965162 0.10173985 -0.1276051 -0.13648716 0.27303195 -0.16200493 0.16300844 0.067902334 -0.10634675 -0.06780425 0.45572633 -0.017163498 -0.21007662 0.121719465 0.035295457 -0.12981348 0.0057002082 0.0550617 0.09418477 0.12864618 0.10922895 0.4177514 0.12737292 0.04960511 0.14574036 -0.0021565577 0.25797665 -0.20169061 -0.18883751 0.12678637 -0.13191253 -0.034619074 -0.015865382 0.07594416 0.03918707 0.16252887 0.20394713 -0.08047042 -0.06799917 0.23419333 0.15717632 0.17285092 -0.19036233 0.0642159 -0.28932992 0.12163379 0.23826149 0.19578645 0.20459881 0.04103315 -0.038856205 -0.31762585 -0.16107129 -0.1386074 0.007097586 0.080164574 -0.05557887 -0.18347883 -0.052429676 0.143251 -0.106614836 0.012253392 0.0363982 -0.09822516 0.048834853 -0.08162152 0.05520889 -0.08802696 0.31993082 0.07205507 -0.19002745 -0.13943839 -0.09140187 -0.23906371 0.114780396 -0.07861867 -0.14867064 -0.1848648 0.14967303 -0.16123518 0.30908448 0.064570576 0.10609847 -0.15272681 0.101847805 -0.20970541 0.065616205 -0.11622473
31 -0.12765741 -0.07374715 0.1338627 -0.088866375 -0.16509956 -0.12724833 -0.31176078 0.046276562 -0.014420697 0.27357757 -0.13468707 0.14409973 0.182646 0.19143552 -0.060587727 0.083429575 -0.01471353 0.2333851 -0.05662983 0.086618535 -0.045525264 -0.039866105 -0.05790313 0.07371018 -0.25565386 0.23057027 0.2672224 0.13603568 -0.050196312 -0.0068285614 -0.1348058 0.00978937 -0.08075454 0.2770572 0.15266801 -0.38786113 -0.11155203 -0.4747904 -0.15798345 0.036037065 0.26581746 0.14741518 0.11211409 -0.3882002 0.10427092 0.07024337 -0.15271276 0.16719963 0.14830421 -0.12943211 -0.15395635 -0.005970215 0.13135147 0.04732687 0.11897406 -0.45566896 -0.1151713 -0.005634441 -0.0017108845 0.10607785 -0.041278232 -0.27254754 -0.012442406 0.017449338 -0.16882017 0.046366166 0.050131828 0.043370318 0.15831225 0.11688251 -0.08249132 -0.12745574 -0.2988493 0.0195752 0.08603395 0.31869215 -0.26265937 0.21994786 0.47473818 -0.060403585 0.21745144 0.09226672 -0.04235682 -0.0710324 0.00067336694 0.18761238 -0.18221301 -0.15082832 -0.0036930263 -0.0047911596 0.14314632 -0.15382546 0.1921062 -0.20232277 -0.019370915 0.19616455 0.13210075 -0.08980791 -0.11104276 0.11512015 -0.051836442 -0.0693408 -0.054056697 -0.10497302 0.1532675 0.19804811 0.11179048 -0.17349067 0.0060216817 0.087938935 0.08177328 0.19537154 -0.2827527 0.16100796 0.034592796 0.20556937 -0.11305051 -0.22865899 0.1342193 -0.104989536 0.27637953 0.18283525 -0.1202496 -0.14399406 -0.16026872 -0.062906004 0.22281076 0.09783169 -0.09330826 0.07705177 -0.16978155 -0.14871149 0.40532982 -0.11002763 -0.2594402 -0.20967008 -0.20896359 0.10272315 0.11947124 -0.1023798 0.12775563 0.053091448 -0.2886975 -0.16302295 -0.49582437 -0.047305584 -0.01853568 -0.15501034 0.050540216 0.09389526 0.06440304 -0.07572861 0.016976368 0.061762802 0.11144602 -0.12437336 0.23205395 -0.034695636 0.21450043 -0.2624113 0.17657268 0.22318561 -0.11639307 0.23488659 -0.26875654 0.39786112 -0.0038214016 -0.12094037 -0.17890069 -0.06295213 0.16785277 0.0055533927 -0.18193197 -0.13113408 0.30250624 0.044293106 0.18882239 -0.056134716 0.12659518 -0.1415631 -0.037574954 -0.02790447 -0.3293674 0.35288376 -0.12787156 0.16295955 -0.17936574 -0.31988442 -0.33279482 -0.21829286 0.22251816 -0.07509964 -0.1262323 -0.11245015 0.15564017 -0.10499395 -0.05383689 0.0240791 0.17609507 -0.11020172 -0.2942624 0.113903195 0.22154775 0.04657098 -0.11746304 -0.023909502 -0.054155085 -0.08736039 -0.101027526 -0.058876004 -0.10597357 -0.011035285 -0.20961064 -0.09500408 0.38928372 -0.16991849 0.018465469 -0.09568392 -0.3437954 0.15162757 -0.14748754 0.086805016 -0.18393004 -0.16777986 0.29861778 -0.20738137 -0.15770568 -0.089194715 -0.045170266 -0.021357547 0.045352306 -0.025766106 -0.40313357 -0.009692259 0.24156459 -0.35979527 0.06366705 -0.0633605 -0.22785884 -0.10364938 0.45023707 -0.20962913 0.41405043 0.050180916 0.09724264 -0.23508362 -0.00613564 0.16775958 -0.06338355 -0.16654305 -0.028549442 -0.26787966 -0.08260765 -0.056385476 0.27701297 -0.028412389 0.28730047 -0.30768177 -0.28609318 0.13048781 -0.060609054 -0.07145887 -0.034225583 0.32390812 -0.061843082 -0.11910761 0.1650807 -0.059999447 0.14164694 0.134983 0.051518638 -0.077551916 -0.13378279 -0.296736 -0.32316706 0.026661541 0.32731712 0.03396491 -0.034737803 0.04518167 0.08982196 -0.10188851 0.41025436 0.051072866 -0.020189317 0.29938534 0.4058008 0.1324303 -0.0032614109 -0.084815755 0.020246863 -0.10792207 0.07784324 0.056769855 -0.15030617 -0.1925246 -0.084903456 0.28962833 0.050062023 -0.21944512
3 -0.042465497 0.18085235 0.12596554 0.16433428 -0.3033 0.005969567 0.24432282 -0.026753787 -0.08015252 -0.053871278 0.08178548 -0.29816756 -0.14890057 -0.2019023 -0.32586077 0.16982837 -0.046010494 0.013812839 0.075530194 0.011497893 0.0697207 -0.060091425 0.27349547 0.14446512 0.11061451 -0.14409383 -0.19753113 -0.30847138 -0.17256172 -0.029801553 -0.0702781 -0.22846496 0.38376242 0.033901922 0.07994248 0.082014315 0.09629461 0.19174121 -0.00030236496 -0.11217971 0.049550433 -0.10805461 -0.20434958 0.07397853 0.034222387 0.06268007 0.044676352 -0.1615245 0.1209937 -0.068010055 -0.00088272785 0.17906687 0.1738482 0.13338001 0.0063625397 0.25464445 0.04700854 -0.32654455 -0.15501492 -0.2026186 0.077288665 0.13938658 0.083638705 -0.0073408666 0.13593383 0.0048769484 -0.15846612 0.06323682 -0.18458527 0.027304307 -0.052652538 0.28502434 0.2573452 0.3157326 0.024545372 -0.26992095 -0.22331083 -0.11481218 -0.24715087 -0.07196051 0.005866571 0.04826671 -0.062257204 -0.07132487 0.20836781 -0.058090106 0.39052507 -0.11753844 0.23686141 0.010952868 -0.0035237183 0.15179202 -0.055689525 0.0009133948 0.3514677 -0.39198676 -0.10369454 0.03947382 -0.18019561 -0.079964854 0.153212 -0.0058837165 0.02794634 0.15996988 -0.101773426 -0.16186856 -0.0011767813 0.01399191 -0.05938514 0.019350661 0.06080971 -0.1851751 0.15935755 -0.14625235 0.11554399 -0.18532713 -0.25281143 0.26047403 -0.1445036 0.08830229 -0.34699818 -0.39498526 0.24219806 -0.023049448 -0.027040074 -0.0034033298 0.14047657 0.110043146 -0.07992748 -0.1279835 0.1066991 -0.2991792 -0.24213655 0.32304132 -0.07805941 0.12127666 0.09014199 0.05963863 -0.2602286 0.028914446 0.012015668 -0.20573954 0.03160192 0.068270646 0.20066805 0.03299209 0.014693446 0.06268151 -0.06832025 0.019426744 0.21143654 0.1804006 -0.20226581 0.050397366 -0.4557348 0.07168402 -0.06164629 0.027436052 -0.40605363 0.16622789 -0.2835499 -0.46063274 0.3329022 0.3126782 -0.15077792 -0.23030512 -0.29910332 0.05675392 0.0040184553 0.12432121 -0.1780403 -0.18296444 0.29991373 0.10657865 -0.02028687 0.07456121 0.016611932 0.11683289 0.0640362 0.18008417 0.012805775 -0.09480253 0.27251315 -0.22684702 0.010012498 0.17363864 0.33295235 -0.026230495 0.04430621 -0.05052432 -0.15680428 -0.20470084 -0.011385296 0.19391486 0.053972602 -0.067163825 -0.16951883 0.117638685 -0.099648416 -0.087158434 0.19237182 -0.0396973 -0.20458807 0.22244826 -0.20752427 -0.017424516 -0.120913506 -0.098807015 0.093244866 -0.2739293 0.0069904453 0.010267955 0.24256432 -0.02950779 0.008190616 -0.12943892 0.19650674 -0.22341195 0.07002478 0.17826746 -0.019159991 -0.012241184 0.49022472 -0.025682809 -0.19354744 0.20972987 -0.112383485 -0.0423048 -0.18348558 0.13525279 0.28813106 0.0046325247 0.023630816 0.30897227 0.06247114 -0.020139901 0.09193379 -0.033154648 0.27690387 -0.25314295 -0.29447556 0.17118347 0.03921912 -0.043164425 -0.21359363 0.22516686 0.19920781 -0.02182935 0.20516612 0.09476464 -0.13013776 0.31152168 0.21850432 0.15946212 -0.110585436 -0.1206333 -0.06902666 0.06246476 0.27278453 0.14666013 0.16072571 0.092127234 0.14424756 -0.24779321 -0.08243039 -0.015885983 0.03063569 0.06540505 -0.11679033 -0.27649912 -0.07714655 0.1735077 -0.052742153 0.16408984 0.13164221 -0.13563326 0.0060202535 -0.14464916 0.05371299 -0.08736781 0.29316047 -0.017761318 -0.2599822 -0.10848163 -0.094394885 -0.26655406 0.29739773 -0.22512083 -0.058114085 -0.091403715 0.15824825 -0.22062528 0.25913027 -0.026392147 0.33667833 -0.24775593 0.118436866 -0.1728705 -0.0387218 0.0024310788
23 0.10889905 -0.026974527 0.033181693 -0.256467 -0.06997886 -0.29857117 -0.24887891 0.0032547212 0.21546802 0.4438726 -0.17480378 0.24127027 0.22066902 0.2523555 0.13337371 0.010991071 0.18301842 0.20043059 0.060531266 0.15111385 -0.23516856 -0.0070961067 -0.24493578 -0.21310815 -0.16699685 0.33690542 0.34683737 0.25188708 0.08664615 0.07395836 -0.13973525 0.31024337 -0.22313966 0.12717804 -0.11116307 -0.4491918 -0.36752045 -0.6237978 -0.28897256 0.215201 0.08544277 0.33189148 0.16739912 -0.28275323 0.11781099 -0.058738142 -0.21719536 0.21161869 0.045311384 -0.0719543 -0.050103795 -0.35286382 -0.027334435 -0.06583729 0.106913194 -0.49403745 -0.09730796 0.06813198 0.024247456 0.09126817 -0.09859409 -0.24246545 0.009052808 0.08534983 -0.29835504 0.016505767 0.2083176 -0.068259545 0.10415229 0.06780877 -0.17042862 -0.25694346 -0.41726276 -0.12678559 -0.065483764 0.3743939 -0.2526609 0.29684067 0.42545268 0.04879104 0.11846322 -0.06113139 0.10559001 -0.10375944 -0.12678154 0.21657382 -0.39111814 0.06761332 -0.14595437 -0.068467245 0.08991411 -0.12410318 0.13945708 -0.5275904 -0.10255147 0.15544578 0.14911403 0.006974076 0.032976147 -0.02358834 -0.0608283 -0.12303138 -0.1624452 0.033352092 0.24597058 0.108771265 0.010399398 -0.23311915 -0.0895009 0.09893769 0.059822567 0.18079068 -0.55476975 0.022899557 -0.07363467 0.13936107 0.070918076 -0.09048605 0.16770564 -0.03626537 0.34597325 0.35081413 -0.23849012 -0.28063455 -0.0057851155 -0.0147976875 -0.07296742 -0.1336029 -0.1935077 -0.16481456 -0.26983726 0.07647955 0.2317608 -0.30061913 -0.3125076 -0.25322595 -0.12721637 0.16044283 0.4589778 0.01761319 0.10858887 0.13392 -0.2771096 -0.0009520034 -0.39924738 -0.16543302 -0.10115369 -0.18576124 -0.23520856 -0.040305603 -0.1635027 0.0056116744 0.038399458 0.13858454 0.17783736 -0.21554972 0.20744276 0.08740056 0.3540222 -0.058446623 0.25462466 0.65065217 -0.43110165 0.049519695 0.009896582 0.41054338 0.05125209 -0.29778215 -0.023447508 0.12919559 0.06321821 0.17002039 -0.12003933 -0.082889 0.060925905 -0.020231985 0.25483087 -0.1980005 0.020483831 -0.10614464 -0.03882328 0.009252296 -0.42397523 0.3283273 -0.0811029 -0.13925602 -0.26016945 -0.05966142 -0.13107805 -0.28049973 0.06335328 0.15720041 0.017238058 -0.22202614 -0.06944314 -0.08802381 0.051242385 0.06641207 0.042504504 -0.10081114 -0.27688673 0.076418 0.20153676 -0.2516477 -0.052115444 -0.06607193 -0.17051978 0.11628243 -0.06478889 -0.19130768 0.042407714 0.124625325 -0.3800538 -0.07512548 0.29219288 0.052756757 -0.047021404 0.17054266 -0.25159007 0.020624526 -0.16203658 0.08703953 -0.30919975 -0.11236134 0.11572584 -0.39309317 -0.19661348 0.08527751 0.13467263 -0.03417617 -0.18933383 -0.016658092 -0.20105094 -0.2773065 0.21898466 -0.16692565 0.011541166 -0.26973513 -0.08543152 0.093087524 0.5097276 -0.09745994 0.24227668 -0.16815114 0.2726362 -0.24858238 -0.119830504 0.13474414 -0.051207423 -0.29130614 0.24831513 -0.10496172 -0.28372866 -0.12739334 0.25123793 -0.21300346 0.064988844 -0.2117593 -0.18130302 0.20026623 -0.0086037805 -0.25482085 -0.28051066 0.4288063 -0.025092816 -0.17797533 -0.011866167 0.15974183 0.20010811 0.552528 0.17054957 0.0939704 -0.2592958 0.0078227855 -0.21217294 0.14821629 0.44209006 -0.09756889 -0.026455257 -0.032719344 -0.16622269 -0.10302878 0.2919201 0.08353465 0.15674438 0.2812546 0.16525227 0.11425646 0.0417054 -0.22821935 -0.042361494 0.076812334 -0.12109656 0.23677364 -0.48994058 0.0006285231 -0.07822694 0.43617138 0.07284257 -0.29060408
13 -0.021978762 0.10334838 0.058033984 0.0628652 -0.22438768 0.016153572 0.11234894 -0.05314606 -0.01576053 0.03913556 0.033345003 -0.19591115 -0.014486051 -0.0867819 -0.17314224 0.098708786 -0.032285463 0.00038065223 0.069957666 -0.007675132 0.026035693 -0.05666322 0.14906412 0.021034958 0.10578869 -0.07109525 -0.13487683 -0.15947561 -0.08962693 -0.041347124 -0.05732432 -0.07636039 0.25011426 -0.04899009 -0.030537521 0.118040875 0.0047238064 0.117087565 -0.033534337 -0.08402586 -0.018689761 -0.047665488 -0.17059197 0.07304677 -0.020633899 -0.014282167 -0.015716968 -0.1176299 0.03860622 -0.08130073 0.017144026 0.026370104 0.13561888 0.07759695 0.042888638 0.16893022 0.111586355 -0.17260501 -0.04696309 -0.06271856 0.054012895 0.096209794 0.07783428 0.021365868 0.1320799 0.04316784 -0.026080176 0.003864617 -0.09140351 0.01137981 -0.03753384 0.15212624 0.24125594 0.14454941 0.00033452516 -0.14572759 -0.113021575 -0.049690776 -0.13369556 0.05752446 0.013396869 0.03904472 -0.080438174 -0.034601852 0.092198186 0.017654516 0.1972048 -0.064905964 0.06681861 0.008949326 -0.02064532 0.13543396 -0.053912945 -0.069024235 0.23162302 -0.2846377 -0.105381526 0.06877613 -0.0573242 -0.041057326 0.051821258 0.031448398 0.007241231 0.1097196 -0.055656463 -0.06660678 0.03581581 0.0824949 -0.04527671 0.073381245 0.06291067 -0.11123995 0.089360625 -0.13661623 0.06534537 -0.15128386 -0.061665304 0.19121331 -0.1324801 0.054645337 -0.1730702 -0.26779926 0.17811161 0.04459511 -0.020771049 0.0036589273 -0.012421893 0.041700333 -0.04797751 -0.10234074 0.033603787 -0.12608972 -0.19795585 0.18362659 -0.07350574 0.07158334 0.14978331 0.0064595495 -0.14183787 0.056123506 0.014090381 -0.1684089 -0.0472344 0.07215263 0.174736 0.0215574 -0.033356056 0.048424482 -0.06740032 -0.030821832 0.08092717 0.16926235 -0.1202596 0.081318736 -0.23859909 -0.02409964 -0.044439636 0.014722288 -0.26193845 0.1247386 -0.19648036 -0.3294365 0.12154418 0.1563995 -0.07062505 -0.122320674 -0.14371137 -0.002595008 0.045333438 0.08219295 -0.13552994 -0.10541379 0.14898452 0.08253005 -0.037549555 0.14424866 0.044710077 0.09105298 0.06321371 0.09532748 -0.0018347452 -0.0013271642 0.12706994 -0.14273046 -0.009777298 0.08024782 0.15945837 0.09892143 0.052154627 -0.0074225436 -0.1094246 -0.07732328 0.02250154 0.0819239 0.010908234 -0.03646134 -0.07964319 0.07343984 -0.07926242 -0.03402808 0.17755328 -0.023203978 -0.11170174 0.14492983 -0.14379449 -0.004059253 -0.09323288 -0.036640834 0.11367158 -0.22074892 0.023220778 0.006574034 0.12949593 -0.0045595537 -0.02050202 -0.07711257 0.12691773 -0.09609988 0.03832186 0.11132411 0.017445749 0.024452506 0.29116288 -0.015995162 -0.1649138 0.1430714 -0.09158375 -0.032932233 -0.13246787 0.106632784 0.13304134 0.03124833 0.07036293 0.17114338 0.010997348 0.04556151 0.10233211 -0.079357706 0.17620914 -0.14265367 -0.21051447 0.19814709 -0.049007986 -0.034466166 -0.1656029 0.17211302 0.1715158 -0.083096094 0.15220965 0.13161798 -0.11259729 0.22874515 0.099480845 0.061115433 -0.08472886 -0.08537851 -0.031988148 0.06759637 0.21517015 0.09552283 0.12785606 0.034121662 0.10856793 -0.15267688 -0.032604914 -0.039710633 -0.040316902 0.04190807 -0.058215145 -0.2038457 -0.03527208 0.1718383 0.0106676435 0.23662058 0.09881465 -0.099563316 0.017547347 -0.0863763 0.059241965 -0.045031514 0.13765064 -0.049455423 -0.16955864 -0.110487856 -0.038100056 -0.1560063 0.26228273 -0.15257111 -0.017359592 -0.0065520974 0.1168433 -0.082757525 0.1872194 0.023681162 0.1986834 -0.16576669 0.1652455 -0.10493364 -0.036618326 -0.016302802
8 0.009800476 -0.033652928 -0.039457034 -0.061528202 -0.05820892 -0.05167424 -0.13041963 -0.08276629 0.013827229 0.16507685 -0.027713284 -0.026979344 0.12376407 0.14153795 0.025065357 -0.015075206 -0.04693087 -0.03878679 0.061991088 -0.019725464 -0.06948321 -0.08498634 0.041285414 -0.17486894 0.07081277 -0.016992647 -0.013125281 0.11145579 0.02723715 -0.025373483 -0.06176613 0.1482639 0.02821054 -0.07231356 -0.1676223 0.16124153 -0.14209692 -0.005138825 -0.08213759 -0.038043458 -0.08173348 0.015723985 -0.051746733 0.04112705 -0.06910776 -0.09098741 -0.05922461 -0.053206366 0.04887331 -0.1814022 0.01770418 -0.10294344 0.03799212 -0.048516832 0.097842135 -0.013131695 0.092602 0.093472965 0.06655143 0.14354317 0.002927463 0.02533203 0.018022493 0.027288256 0.15560822 0.15247564 0.11542895 -0.068006024 0.022533711 0.01928212 -0.037521157 -0.06498653 0.14470471 -0.103310175 -0.04845309 -0.0007042053 0.10775302 -0.027190924 0.09735869 0.15629598 0.030019892 -0.014231861 -0.05400617 0.051896688 -0.08194683 0.05255544 -0.11726892 -0.038276456 -0.15168221 -0.026911737 0.039458353 0.06922129 -0.036240134 -0.1269539 0.038067788 -0.07302035 -0.10374171 -0.007744328 0.060985744 0.030611223 -0.09279916 0.040461216 -0.017777834 0.020562695 -0.00223918 0.11813889 0.110189386 0.105099194 0.032684293 0.09307364 -0.01873643 0.07220025 -0.008030294 -0.07477499 0.07855528 0.032814138 0.1744013 0.023956215 -0.025166523 -0.023611393 0.066757075 -0.04607028 0.13952318 0.06749232 -0.031335007 -0.033182416 -0.07898948 -0.07368333 -0.022436293 -0.017004786 -0.12802652 0.11356154 -0.020875236 -0.059184633 -0.08205128 -0.012778974 0.16642962 -0.1337421 -0.0049848696 0.030690173 -0.004120499 -0.12680219 -0.09840229 0.0777101 0.13616396 0.026375769 -0.067225724 0.013102379 -0.0044308924 -0.09895802 -0.072889775 0.076537654 0.044142265 0.034357093 0.13616829 -0.19213681 0.057315182 -0.0573793 -0.005979497 0.004686865 0.0027689536 -0.0453125 -0.18943061 -0.072925754 0.1180383 0.017542468 0.059849102 -0.0404571 0.018705737 0.05314469 -0.009713923 0.011602732 -0.12337338 0.09009341 0.05125776 0.24058077 0.014940765 0.06539401 0.09436363 -0.034296885 -0.010407623 0.15576822 -0.11570843 0.0011805763 -0.036124542 -0.05233885 -0.05695884 0.1356738 0.028197814 0.088755384 -0.058305293 0.014841135 0.06095583 -0.1411392 0.00741918 0.036650598 -0.034168463 -0.079694524 0.09058304 0.09765315 0.12774622 -0.014301164 0.07247745 -0.022052243 -0.112368636 -0.057191726 -0.047854617 0.059744302 0.091498405 -0.07144384 0.03508783 -0.032748394 -0.042558398 -0.03975666 -0.04312188 -0.0031949212 0.061639592 0.015984705 0.0194087 0.020146662 0.050674856 0.014644522 0.009602956 0.0033610405 -0.08932202 0.057519883 -0.042550813 -0.051800177 -0.051362704 0.071927436 -0.12053312 0.024198025 0.08455486 -0.03765001 -0.05575613 0.07288461 0.026707282 -0.13176836 -0.006517786 0.06302826 0.018173954 0.12313512 -0.1044671 -0.030306866 -0.024346543 0.056674637 0.08255394 -0.07019166 0.06823539 0.14330445 -0.07387452 -0.03856944 -0.05331884 -0.04323204 -0.013386299 -0.0011493992 -0.0037993963 -0.06277195 0.057817463 0.043423373 0.04257474 -0.054817107 0.037138924 0.0015351158 -0.0011684763 -0.07451155 -0.1344609 -0.026382636 0.065110296 -0.08044863 -0.006097067 0.12260571 0.047609545 0.2023747 -0.025039474 -0.021538835 0.016345453 0.0057519316 -0.010743317 0.027339803 -0.005748698 -0.09840406 0.04345759 -0.07968082 -0.009389096 0.029211516 0.19003208 -0.013590469 -0.098608844 0.081078045 0.06055247 0.1510876 0.056995273 0.029297663 -0.08472599 -0.036925368 0.10577027 0.06176664 0.006805071 -0.060136385
5 0.1323177 -0.03901451 -0.19139424 0.08245773 -0.13539672 0.119133726 -0.1899554 0.13176501 -0.18208921 -0.72454304 0.2710569 -0.36207297 -0.49314746 -0.4689959 -0.1229458 0.47399285 -0.46363187 -0.29727668 -0.24901792 -0.77463424 0.7166781 0.116440475 0.25990105 0.4507026 -0.49866226 -0.41089976 -0.42193863 0.25526318 0.1523249 0.21012378 0.16881178 -0.14925878 -0.11041865 0.35348123 0.8112897 -0.3470372 0.11438091 0.5472869 0.3945896 0.111692086 0.17841506 -0.19335584 0.043413937 0.566121 -0.13567787 0.252395 0.329444 0.5002393 -0.21382794 -0.32451445 0.021455359 0.36600092 -0.15042712 0.17578965 -0.022472598 0.19559322 0.15467872 0.09868399 0.17053223 0.035342842 -0.13079762 0.38258272 0.070842646 -0.22974725 -0.14199223 -0.04215724 -0.6494454 0.012294423 0.024959184 -0.048467245 -0.18309377 0.021883124 -0.18382086 0.3527876 0.19758485 -0.01583867 0.478419 -0.3475233 -0.49185565 -0.20642951 0.06808319 -0.068420105 0.3860199 0.08117809 0.22378205 -0.23391624 -0.11319309 0.2536975 0.47898513 -0.15833548 0.4127881 -0.20021784 0.56907815 0.5216368 -0.052228298 0.12766324 0.2223559 -0.34767133 0.25769246 -0.14314772 -0.14048217 -0.28218377 -0.28050882 -0.36172718 -0.21181433 -0.080583915 -0.016493693 -0.0040417053 -0.41557407 -0.1345785 -0.4445477 -0.22784452 0.5743444 0.12575397 -0.1972427 0.41914308 -0.18427034 0.026400728 0.3014575 -0.51762825 -0.07906238 -0.07094028 -0.105332345 -0.4153541 -0.12623085 -0.063034065 0.37171826 0.44338655 -0.035940394 0.20300111 0.24266173 -0.15466301 -0.13826752 0.5712396 -0.07518553 0.17590187 -0.4483997 -0.5007618 -0.40684184 -0.40813515 -0.010929662 0.016162891 0.69450897 0.3058394 0.29925296 0.061856825 0.1554535 0.115851305 -0.037846092 0.12566799 0.41918272 -0.3418882 -0.060066327 -0.52587175 0.010710894 0.18938373 -0.5608219 -0.15869442 0.15366736 0.18134111 0.17500885 0.09974293 0.11408285 -0.08033285 0.13911031 -0.24977061 -0.31586877 0.45162192 0.32733858 0.11257496 0.2059689 -0.31852216 -0.15086138 -0.26752475 0.27962446 -0.71576446 -0.6634599 -0.040176757 -0.37515283 -0.20279172 -0.1495145 -0.124596074 0.014107213 -0.27350014 -0.11082615 0.28715086 0.7154778 -0.24646476 -0.05035682 0.47626436 -0.11308339 -0.66073227 -0.106308855 -0.2174779 0.41380247 0.25529996 0.023620928 -0.01163777 -0.006962787 0.25426278 -0.1306971 -0.37072873 -0.17560561 0.14681317 0.09472824 0.22780725 -0.27181494 -0.3364846 -0.5093604 0.10544313 -0.33825526 -0.022135371 0.42534402 -0.10097318 -0.23837055 0.07482553 0.118184894 -0.18227454 0.24120508 0.3175063 -0.25173286 0.15882127 0.0042175073 0.29630017 0.28029835 -0.11837676 0.07188661 -0.097898774 -0.30212796 0.1484008 0.62920904 -0.4264961 -0.0065639582 -0.35149524 0.072829135 0.00770775 -0.314613 0.4787285 0.08524011 0.36459053 -0.07743106 -0.22679907 0.16878271 0.020012831 -0.24541274 0.38147262 0.008868896 -0.41377553 0.028330682 0.07534099 -0.21981479 -0.22172578 0.17545761 0.35251018 -0.017202677 -0.17739132 0.31377587 -0.5583865 0.33801705 -0.25625125 -0.21743383 0.3977848 0.32466358 -0.106858075 -0.30137745 0.8037096 0.3299143 -0.12388499 0.0030577304 -0.22836414 -0.11828692 -0.36812153 0.145098 -0.81818646 0.30704272 0.07587244 -0.8179046 0.11930545 -0.072619155 -0.1444213 -0.061369803 -0.042585004 0.18213698 -0.14059803 0.0511866 0.01929 -0.2223965 -0.19901834 -0.52187157 0.36042005 0.0014291202 -0.20689255 -0.09275525 -0.22906256 0.5814931 0.41233185 -0.3187489 -0.10045045 0.005885062 0.2051217
6 0.20661932 -0.069328934 -0.22727062 0.07033014 -0.07246739 0.063657135 -0.12871006 0.21658956 -0.10620056 -0.6750326 0.24918215 -0.28327203 -0.57844776 -0.49218768 -0.0833338 0.37516707 -0.51239645 -0.4051504 -0.13918899 -0.65096384 0.6800793 0.222421 0.25006646 0.34796298 -0.4713483 -0.46195835 -0.5403465 0.29599944 0.14071697 0.22901732 0.05787825 -0.19050038 -0.07708722 0.41936412 0.8150221 -0.3060423 0.12637699 0.5405059 0.32709154 0.06665275 0.21738628 -0.2419103 0.08229245 0.6284045 -0.18420173 0.30796316 0.3520974 0.507768 -0.14387615 -0.31033194 0.030234229 0.4027721 -0.1002736 0.20865904 -0.044422135 0.15592133 0.06870913 0.08829021 0.09670371 0.023197327 -0.12118928 0.32776105 0.10183822 -0.20279038 -0.08502529 0.005019139 -0.61736774 -0.019278526 -0.03829673 -0.055630516 -0.1860309 0.015034284 -0.18525362 0.3632984 0.122779265 0.0071591064 0.55773026 -0.40456903 -0.50406724 -0.2509206 -0.07737235 -0.15355188 0.43808877 0.123238616 0.16200228 -0.22912222 -0.100169405 0.17764038 0.5439152 -0.20225744 0.46586168 -0.23675025 0.45614606 0.47250205 -0.16294529 0.13221265 0.1434512 -0.42671296 0.16358635 -0.17711245 -0.11027603 -0.30403045 -0.25942335 -0.355664 -0.1338871 -0.021937301 -0.16127592 -0.089511454 -0.31609988 -0.15772605 -0.46025848 -0.3102959 0.6261102 0.14716542 -0.18416569 0.4623905 -0.22443281 -0.030108824 0.4885631 -0.48745143 -0.1021417 -0.043045666 -0.14693384 -0.4620386 -0.103074715 -0.018068876 0.33310732 0.43503678 0.052312028 0.16981196 0.3177971 -0.21673371 -0.10631618 0.57271606 0.076450594 0.088772886 -0.38765904 -0.5428894 -0.34798235 -0.41420606 -0.1456334 0.08945736 0.7363568 0.3952991 0.41970274 0.020932265 0.1530599 0.028698834 0.016112177 0.1645619 0.35817164 -0.34662062 -0.004183919 -0.5997681 -0.014011648 0.11309029 -0.43216634 -0.09539878 0.10709888 0.20452397 0.21227711 0.08061855 0.16005139 -0.085995235 0.1842289 -0.25152072 -0.27999997 0.39702114 0.33566752 0.15241475 0.23758565 -0.3207629 -0.08052489 -0.12297102 0.16499785 -0.74422115 -0.6780466 -0.11390274 -0.3995353 -0.27221787 -0.035444044 -0.06911337 0.01918968 -0.3017069 -0.1262173 0.27436197 0.69713527 -0.38092923 0.04967481 0.43339515 -0.1590182 -0.6546401 -0.057094153 -0.10976348 0.39647 0.26872352 -0.05498757 0.0749644 -0.038418043 0.24947743 -0.17015411 -0.32281125 -0.12594536 0.109904885 -0.058479358 0.20437317 -0.32465768 -0.1818801 -0.4796947 0.16563497 -0.27073064 0.003238284 0.4984551 -0.17537116 -0.35250387 0.15318103 0.047303732 -0.2139782 0.2136178 0.2676719 -0.26648042 0.020395111 0.05479628 0.3544887 0.2327684 -0.115782045 0.201139 -0.06889774 -0.2827979 0.1539993 0.48896715 -0.51298046 -0.0068193595 -0.36398822 0.1507672 0.07345273 -0.32411835 0.3917235 0.13352703 0.40659705 -0.07937981 -0.34149897 0.122032285 0.010971275 -0.113457195 0.35410964 -0.06497955 -0.31789112 0.05227721 0.00074616284 -0.17564434 -0.3244719 0.19399948 0.36410207 -0.03966652 -0.23065528 0.2787501 -0.5261213 0.35292104 -0.30027273 -0.35442322 0.38853374 0.26888785 -0.19526877 -0.3355578 0.7475568 0.40404385 -0.18207161 -0.049100205 -0.18819343 -0.067692764 -0.45639956 -0.020040754 -0.73510647 0.31174225 0.124090545 -0.7798539 0.059851754 -0.1447858 -0.19465466 0.002273137 0.020456571 0.15654004 -0.0841509 0.048672065 -0.004537292 -0.4282777 -0.11558978 -0.53471565 0.27325347 -0.008078094 -0.34187806 -0.15787072 -0.2187092 0.49892384 0.47960067 -0.3663133 -0.07486303 -0.010751197 0.15591438
29 0.37447885 0.032676794 -0.039263412 -0.34871283 -0.035292625 -0.21695442 -0.18955497 -0.11528731 0.27598825 0.3714463 -0.07037572 0.21524304 0.21559638 0.129143 0.26822722 -0.0665965 0.2218759 -0.101391666 0.1160839 -0.0752552 -0.05334582 -0.14964005 -0.29057962 -0.42403728 -0.012430277 0.26073685 0.2903758 0.38982156 0.21638885 0.1654073 -0.062926136 0.39102247 -0.3250978 -0.039479274 -0.35586682 -0.25097477 -0.46179706 -0.50245976 -0.2990165 0.2031295 -0.19834754 0.34030387 0.0879365 0.026821889 0.0887954 -0.16409461 -0.21088049 0.23471428 -0.13691242 -0.020150503 0.10125538 -0.36927393 -0.22957672 -0.18759114 0.04886184 -0.2701392 0.1261075 0.045095902 0.026142724 0.27155575 -0.12239115 -0.028687835 -0.08986159 0.083748795 -0.07471953 0.1304629 0.20644371 -0.37614504 0.011874378 0.121643856 -0.24256638 -0.36515924 -0.31213647 -0.39051747 -0.12275591 0.27381468 0.04453365 0.1855823 0.14692172 0.24330755 -0.010182365 -0.011460566 0.22808194 -0.09768962 -0.13039812 0.1533935 -0.38524634 0.15734267 -0.43208113 -0.006454563 0.011917865 -0.06638707 0.056060046 -0.43528315 -0.039547477 0.16806103 0.12618582 0.02366398 0.19471523 -0.12275182 -0.35352868 -0.12045813 -0.21927446 0.03451566 0.1351448 0.0046326844 0.14308211 -0.03635214 -0.007916774 0.21991456 0.12819397 0.044168662 -0.3935451 -0.06617324 -0.27644253 0.08537546 0.19185679 0.02445697 0.021261102 -0.046816126 0.22132643 0.19805233 -0.23544748 -0.18563427 0.14188242 -0.17210872 -0.4016907 -0.2951009 -0.10906856 -0.27267823 -0.45841017 0.21121731 -0.0524989 -0.2034893 -0.2801331 -0.044094257 0.057296082 0.07130469 0.46043113 0.064451195 0.2312243 0.19607718 -0.05650701 0.22219968 -0.13028704 -0.296966 -0.18566725 -0.04090126 -0.29601398 -0.1449512 -0.48950878 0.028928263 -0.054162 0.07141647 0.13253741 -0.20590039 0.09912623 0.11967136 0.2328025 0.19548942 0.26076865 0.6195123 -0.68299735 -0.22691035 0.2288684 0.23374829 0.17972864 -0.35893908 0.1533995 0.304971 -0.022227347 0.18626584 -0.13538153 0.020839715 -0.0756242 0.08477095 0.14231043 -0.26991192 0.06169714 -0.1689217 -0.07956603 0.16189802 -0.39742765 0.052547075 0.093510166 -0.35256484 -0.16498394 0.21209945 0.22773898 -0.10128049 -0.0025588966 0.25511232 0.09893016 -0.38001353 -0.26587293 0.08139435 0.08949108 0.053128995 -0.16508314 0.025914995 0.03388556 0.11979175 0.21315181 -0.3255093 -0.016289668 -0.09878773 -0.15539236 0.36705047 0.0026924198 -0.1634733 0.08505258 0.28063622 -0.40362903 -0.24190608 -0.043914564 0.23428343 -0.04129497 0.27868658 0.007133421 -0.18299511 0.10688725 0.052848 -0.32197008 0.045364387 0.05359794 -0.32094634 -0.13206929 0.2568364 0.22154163 -0.05196462 -0.43248922 -0.184687 0.124819614 -0.43786088 0.05000624 0.17940266 0.011070087 -0.35757813 0.12536141 0.25673625 0.3531544 0.1595501 -0.09625381 -0.27465275 0.23329109 -0.19046465 -0.108646475 -0.09593619 0.14705952 -0.1932047 0.29937258 0.027201094 -0.2961275 -0.20061788 0.3229941 -0.1377071 0.0022713388 -0.10389323 0.13181186 0.15089549 -0.15414023 -0.271056 -0.30704135 0.33149448 0.011883634 -0.11834064 -0.18643573 0.2736696 0.14893173 0.52062434 0.114693664 0.37017784 -0.12908559 0.24674797 0.0009972225 0.15985304 0.31998393 -0.09590062 -0.103152856 -0.058303557 -0.3620708 -0.3178443 0.09034616 -0.06419377 0.2690247 0.2600454 -0.14901082 -0.012260222 -0.048598353 -0.23463605 -0.05061016 0.26834306 -0.35195267 0.11904296 -0.50380766 0.122467496 0.06216463 0.41351473 -0.03911541 -0.14247854
27 -0.0012425123 0.07029328 0.18099387 -0.13105805 -0.101548254 -0.25883722 -0.2036822 0.0016194364 0.0607265 0.3575661 -0.10840141 0.22984229 0.18734947 0.24899767 -0.06264962 0.10784791 0.11442289 0.14415324 0.022762973 0.17660628 -0.04314205 -0.077682056 -0.2174515 -0.115800604 -0.07842629 0.34173924 0.35576442 0.10243877 -0.069705166 0.07701749 -0.11674231 -0.021598225 -0.13167897 0.25921705 -0.05852793 -0.41507626 -0.22201124 -0.654066 -0.28744528 0.07985983 0.19342332 0.3047462 0.06505661 -0.39385915 0.20286164 0.017683554 -0.20470855 0.072041556 0.20872961 -0.029171355 -0.024361646 -0.021873865 0.07974081 0.015477454 0.061346315 -0.45736778 -0.14247511 -0.15806271 -0.10343926 0.079131246 -0.016471595 -0.26385275 -0.13702792 -0.007792892 -0.14874192 0.11976337 0.07826282 -0.08569935 0.008315035 0.19993804 -0.14993648 -0.1709658 -0.3296136 -0.025353214 -0.0004989588 0.22898492 -0.33457524 0.26114142 0.38334814 -0.04483016 0.10289423 0.09270861 0.012787948 -0.14032423 -0.011123993 0.17443399 -0.074197724 -0.16576454 -0.12421212 0.13317303 0.15043353 -0.09245655 0.10341762 -0.34145287 0.11598455 0.07577519 0.060945824 -0.054364596 -0.1492495 0.004945925 -0.11044514 -0.092932165 -0.042345032 -0.0014480362 0.16808368 0.13277163 0.1803813 -0.24090281 0.16209498 0.15345457 0.22605911 0.116595656 -0.40004587 0.13169411 -0.036077578 0.11102511 -0.20196916 -0.11958278 0.045971777 -0.01805466 0.115120366 0.15215576 -0.10294275 -0.1914533 -0.045214638 -0.22002527 0.12790938 -0.061408993 -0.17027807 -0.053778674 -0.27866188 -0.16535147 0.3558008 -0.06457593 -0.34029213 -0.17679861 -0.102501705 0.22806449 0.266005 -0.048699155 0.2520181 0.1837426 -0.24717344 -0.05704539 -0.51085037 -0.12797834 0.015004504 -0.14435449 -0.052247524 0.060116738 -0.14623651 0.0011950741 -0.13494317 0.13169087 -0.14864409 -0.13421601 0.39187923 0.06139155 0.13239525 -0.10967936 0.15875222 0.29607365 -0.259937 0.2347134 -0.22008301 0.4161596 -0.00036606437 -0.20795952 -0.18820041 0.1283347 0.059298787 0.01796725 -0.08957516 -0.014680299 0.22415051 0.14393914 0.29308084 -0.0025226215 0.20332718 -0.028059265 -0.019186975 -0.091714725 -0.33551103 0.28247294 -0.031247448 0.01274502 -0.24444798 -0.3069603 -0.13517036 -0.29703793 0.13247249 0.0208728 -0.054383676 -0.100114666 -0.059905436 -0.08658621 -0.08281824 0.060459863 0.08704056 -0.09239812 -0.14850202 0.21892601 0.24118814 -0.076712884 -0.15044281 -0.03232218 -0.12484471 0.063805066 -0.053608183 -0.10633017 -0.04203924 0.12741862 -0.31067878 -0.25356305 0.37067783 -0.14688614 0.03662476 -0.059994288 -0.284387 0.041547447 -0.035999812 0.0072660977 -0.14270419 -0.14716315 0.21829726 -0.16056404 -0.28904775 0.08587715 0.08645971 -0.08652257 -0.22756338 -0.08574737 -0.34366795 0.035274785 0.2339097 -0.32022932 0.10116366 -0.22966436 0.007661773 -0.14501761 0.4931571 -0.116884686 0.403442 -0.08781287 0.11128992 -0.35642216 -0.03199476 0.2591766 0.028887156 -0.31807145 0.106789365 -0.11757786 -0.1369578 -0.05799829 0.40472993 -0.047755163 0.13820308 -0.15407339 -0.12782389 0.19356048 -0.08073053 -0.11625632 -0.18106823 0.2522966 -0.08620535 -0.3040702 0.028981218 0.05051351 0.17771757 0.27168086 0.0070272675 0.11890471 -0.17627499 -0.08940561 -0.36511952 0.13387349 0.5003446 -0.00072526716 -0.10963776 0.011780683 0.090662174 -0.19486529 0.30291417 0.08790158 0.12807567 0.26769096 0.28620613 0.0871374 -0.032542575 -0.328919 0.06306658 -0.08015556 -0.029549992 0.07444622 -0.34518677 -0.30496714 -0.0457807 0.35230938 -0.054739676 -0.26776537
30 0.035607446 -0.06842716 -0.10280793 -0.09768405 -0.12023954 0.04974207 -0.09996794 -0.050593115 0.060862415 0.29871187 -0.09712833 -0.078841455 0.17999229 0.07588874 0.10690785 -0.0923536 0.036479387 -0.04222114 0.10783986 -0.08853869 -0.15980734 -0.11190248 0.087094255 -0.17011158 0.102980375 -0.04612801 -0.049128447 0.07303171 0.0074533364 -0.06897861 -0.03603778 0.21432142 0.05924085 -0.25087136 -0.26609173 0.23901865 -0.064452015 0.04334286 -0.12356575 -0.10326933 -0.18143089 -0.093518734 -0.052169144 0.057482187 -0.02268644 -0.14903423 -0.10283528 -0.0057662823 -0.063716464 -0.11770098 0.032234564 -0.24933372 0.055916935 -0.054062925 0.1048736 0.032861434 0.13217351 -0.0075759823 0.062129807 0.10119319 0.015456255 0.087916076 0.14628115 0.16382182 0.21785145 0.15799981 0.21678966 -0.05305438 0.07327254 -0.050352465 -0.020529043 -0.047613937 0.2611972 -0.2524108 -0.10274541 -0.009932624 0.07644245 0.038893946 0.13729131 0.16033559 0.11665568 0.003574754 -0.13572924 -0.025689892 -0.14109631 0.13430229 -0.10515577 0.027882433 -0.19955274 -0.09634176 -0.04757406 0.1150921 -0.14813685 -0.23086801 0.09713713 -0.09679651 -0.111192726 0.10666897 0.11574225 0.016253402 -0.010010145 0.063630745 -0.023825292 0.047317363 -0.014223297 0.07934072 0.007500526 0.25491992 -0.013116277 0.10508451 0.009763057 0.056051183 -0.061460026 -0.18758972 0.030325705 -0.12936153 0.27171847 0.07414748 -0.10015313 -0.00053983746 0.049608294 -0.09704794 0.12482808 0.10367589 -0.011799857 0.05534767 -0.23016295 -0.071999855 -0.0066310097 -0.06896401 -0.16564377 0.15068902 -0.09316867 -0.15936771 -0.0442458 0.05703 0.26930088 -0.07292648 0.0167818 0.11078002 -0.0081816055 -0.1614318 -0.1493003 0.090196036 0.1726209 -0.01255015 -0.17524324 0.019342707 -0.06636572 -0.061171964 -0.16116796 0.14241791 0.060704596 0.22817703 0.17047566 -0.11044049 0.00018665585 -0.020014752 -0.10450687 0.070089996 -0.06431807 -0.14666727 -0.15745293 -0.115652576 0.12904973 0.039666437 0.12449265 -0.13146146 0.0011896939 -0.0054166527 -0.05537256 0.05755084 -0.012553649 0.10321574 -0.02604929 0.27707505 0.094504416 -0.017416136 0.023354579 -0.046967167 0.054640982 0.20447443 -0.056701683 -0.026281908 -0.05208533 -0.13705656 -0.051735923 0.30863765 0.0019600708 0.045199472 -0.058339424 0.121211104 0.01653548 -0.104922295 -0.023215791 0.03733303 0.028642042 -0.025284708 -0.033889677 0.024452297 0.1731972 -0.07468614 -0.004962743 -0.06153401 -0.09576551 -0.0894834 0.008805844 0.05737327 0.1887028 -0.13279021 0.059203785 -0.016698765 -0.06011853 0.11012097 -0.10418174 0.048444014 0.012341676 0.063855104 0.01606617 -0.015873063 0.0913864 0.07979671 0.040838577 -0.033405617 -0.14207168 -0.0014329144 0.035154164 -0.027368927 -0.12637788 0.018986274 -0.08050009 0.21156222 0.19139524 -0.06758274 -0.063012116 0.20037653 0.1396642 -0.18999909 -0.009414515 -0.029632876 -0.12112716 0.24774767 -0.29648256 0.022599934 -0.014412318 0.10932729 0.13192946 -0.1368335 0.14339489 0.14244698 -0.043062147 0.06063729 -0.049055655 -0.016573034 -0.09227238 -0.014919257 -0.06262189 -0.013530542 0.06666872 0.14081573 0.11810886 -0.18521197 -0.010795057 0.036612056 0.0066908128 -0.079455756 -0.18094349 0.08618436 0.05502097 -0.09430321 -0.010917014 0.23949628 0.04415005 0.3589149 0.10923638 -0.03116526 0.13841528 -0.061756883 0.102824986 0.08970632 -0.059796683 -0.1454419 -0.037945505 -0.2208008 -0.052249197 -0.0287144 0.20047387 -0.052404243 0.013628041 0.103351206 0.09972062 0.16379191 0.11661191 0.10460926 -0.04088794 0.020506244 0.23707867 -0.012668191 0.06842023 -0.071536064
7 -0.04870771 0.12806877 0.07594125 0.13389838 -0.27533233 0.043030024 0.19003955 0.007079872 -0.048123486 -0.041840695 0.05759871 -0.2605067 -0.14496097 -0.18724579 -0.26633546 0.17550401 -0.057422776 -0.012465508 0.071044244 -0.020870354 0.091586046 0.015295753 0.21646422 0.13671637 0.07405643 -0.15869689 -0.2557943 -0.25197917 -0.12679352 -0.018657189 -0.08049404 -0.20571677 0.3322678 0.031632725 0.11285609 0.051522143 0.11583197 0.18429352 -0.011646062 -0.12708433 0.07803762 -0.14145015 -0.17825867 0.08746332 0.00927146 0.06519025 0.026260091 -0.114866175 0.0737749 -0.07235278 0.017570661 0.12847136 0.20987144 0.17747511 0.02528801 0.2031203 0.055948693 -0.30588388 -0.123237416 -0.17162414 0.08475917 0.10782046 0.116574526 0.0057010166 0.1335317 -0.0011502114 -0.13167661 0.058789916 -0.14937386 -0.0046534496 -0.029910615 0.23948124 0.24912934 0.28630567 -0.008974581 -0.21841976 -0.18983416 -0.07675468 -0.20815812 -0.056164343 0.0101698665 0.018158047 -0.070442006 -0.066966 0.14913349 -0.0019679377 0.31647128 -0.09555498 0.23006754 -0.012462805 0.030574696 0.13057595 -0.05708088 -0.029079054 0.27745023 -0.3680076 -0.1182647 0.039770328 -0.15070914 -0.06781559 0.15568492 0.011833989 0.048016723 0.122228585 -0.07566829 -0.08333521 -0.040381875 0.040669926 -0.042708896 0.02296147 0.042534538 -0.18658876 0.1599662 -0.116273604 0.08538522 -0.16689187 -0.21365023 0.20415588 -0.09088357 0.054755647 -0.284987 -0.3278929 0.19306523 -0.052388813 -0.026637727 0.04545421 0.10434817 0.13758397 -0.05474621 -0.09408412 0.14848198 -0.26354757 -0.21818335 0.27578303 -0.026216976 0.053027634 0.11865468 0.02682185 -0.22712554 0.017593624 -0.047731448 -0.14620695 0.027281906 0.099597804 0.19679743 0.035467047 0.0028773674 0.007640752 -0.053869013 0.068014935 0.19364968 0.1431301 -0.16331945 0.060794286 -0.38607585 0.0513722 -0.025006665 0.030087776 -0.35435438 0.16061251 -0.24185547 -0.4355653 0.29011595 0.26057264 -0.1463435 -0.14729412 -0.23501189 0.041387565 0.044806663 0.09966737 -0.15031657 -0.16658024 0.28421476 0.10826608 -0.037638076 0.023768999 0.006168338 0.09547745 0.014487495 0.12848242 0.03514801 -0.08956699 0.22382577 -0.18414353 -0.01878199 0.17167212 0.2743376 -0.058458187 0.029365977 -0.044077292 -0.13539842 -0.1812504 -0.011824682 0.23264499 0.056234296 -0.05000695 -0.13650885 0.12618399 -0.11877205 -0.09934766 0.14972714 -0.07374792 -0.17085338 0.21069743 -0.20786498 0.029872535 -0.14917287 -0.0826086 0.09857858 -0.24967712 -0.009455718 0.0063760355 0.22310089 -0.0007882295 -0.024246896 -0.118198104 0.15759286 -0.18175061 0.009462599 0.17703258 -0.060394846 0.004825937 0.42055276 0.003279783 -0.15715653 0.15483803 -0.07413533 -0.0735819 -0.16960672 0.11475965 0.2326163 0.025295597 0.03606366 0.2633673 0.10743208 0.009412341 0.11013555 -0.040209867 0.23813997 -0.24393594 -0.27730477 0.15103146 0.012193839 0.0018178159 -0.18200307 0.2099139 0.16853032 -0.04135535 0.17868793 0.051028576 -0.14415915 0.25896636 0.18134849 0.1412824 -0.12900966 -0.13193217 -0.038050886 0.07600935 0.26430714 0.100469455 0.13703646 0.104207575 0.12385951 -0.24823311 -0.108245336 -0.012522338 0.06266891 0.013173387 -0.11006718 -0.25561598 -0.046000227 0.113602035 -0.077939995 0.14813517 0.118448585 -0.113511704 0.0049234354 -0.11841819 0.07443121 -0.07412382 0.24808693 0.021236014 -0.21069518 -0.12143715 -0.060161024 -0.22289778 0.24432819 -0.16694802 -0.031294465 -0.047996476 0.15366317 -0.25655583 0.2559888 0.035762757 0.31307036 -0.17208351 0.14166513 -0.18187355 -0.033744037 -0.03720328
10 0.10604757 -0.079663396 -0.112845674 0.016761826 -0.15264215 0.08348907 -0.09241169 0.17236893 -0.14432383 -0.62443525 0.2688938 -0.2752085 -0.52061695 -0.46575695 -0.1407124 0.3493351 -0.3816014 -0.2887376 -0.119372144 -0.6241275 0.6203661 0.16197231 0.28102207 0.45809326 -0.4372284 -0.41816658 -0.48639992 0.13869119 0.1536691 0.1986974 0.017440533 -0.15502772 -0.007850741 0.33044806 0.737055 -0.27437395 0.18225753 0.53669626 0.30995044 -0.026813313 0.16130075 -0.26775566 0.092486516 0.4617171 -0.140644 0.30313098 0.32073885 0.3896152 -0.1634295 -0.35557893 0.022088075 0.35195372 -0.075980015 0.2122171 0.0026887667 0.19036144 0.05783996 0.020460559 0.06428906 -0.06037801 -0.101814 0.32586226 0.05901231 -0.17218305 -0.042523697 -0.09350508 -0.5457209 0.004021981 0.031731717 -0.050182775 -0.15466787 0.11283995 -0.16264518 0.3416432 0.11580038 -0.023347855 0.39975458 -0.31021282 -0.36073357 -0.23113473 0.03912974 -0.0744756 0.31833595 0.08425656 0.18984912 -0.15603593 -0.06933494 0.16479062 0.48923126 -0.21789141 0.3724121 -0.15769991 0.41268867 0.46480682 -0.10846972 0.100326635 0.17818499 -0.3253007 0.0759874 -0.12854096 -0.041783508 -0.20209861 -0.10837342 -0.2722247 -0.15664513 -0.00801596 -0.11564004 0.03672451 -0.2874585 -0.13681944 -0.36313552 -0.24716957 0.5524971 0.20886303 -0.061937615 0.3295306 -0.22240704 -0.07811959 0.34764975 -0.41750544 -0.09345326 -0.087259166 -0.08858481 -0.4259381 -0.12315969 0.035268117 0.36004552 0.43663517 0.041120622 0.23123941 0.24046281 -0.17201576 -0.08049404 0.43269002 0.034645874 0.07312736 -0.33972406 -0.38133195 -0.40712392 -0.39132264 -0.17937876 0.011012966 0.63066167 0.30140814 0.33436713 0.08356479 0.11158522 0.009040345 0.086451754 0.1771779 0.36405405 -0.3643088 0.024086924 -0.49353337 0.014004069 0.15641347 -0.35568646 -0.15729098 0.0017476823 0.14310993 0.14274453 0.018704789 0.20737019 -0.036841776 0.06095676 -0.22604814 -0.2286696 0.42969894 0.271409 0.027027674 0.18608558 -0.29667526 -0.02230411 -0.1589379 0.1406443 -0.66101414 -0.59134036 -0.12038441 -0.25737196 -0.19924548 -0.046618924 -0.113874614 0.05955707 -0.2244205 -0.10698023 0.26659405 0.5879859 -0.3897269 -0.09166407 0.3263891 -0.079062626 -0.5876803 -0.15405802 -0.07432736 0.40751606 0.23872752 -0.07680664 0.0390144 -0.028835613 0.11184869 -0.14616527 -0.28810668 -0.1110842 0.1394276 -0.056902472 0.23920828 -0.2777294 -0.16287276 -0.36001298 0.09487872 -0.249471 -0.103086494 0.35988525 -0.058322508 -0.25836018 0.11468518 0.10126631 -0.17214164 0.12972853 0.31103632 -0.26875237 0.07336617 0.072012894 0.30503583 0.2590266 -0.15126324 0.1718763 -0.1176981 -0.24579798 0.16300187 0.5110754 -0.38754553 0.010473275 -0.1853511 0.16683899 0.027894324 -0.2503843 0.40078554 0.11448707 0.28031743 -0.036378548 -0.281165 0.12960924 0.036548834 -0.12174768 0.32896557 -0.09989325 -0.26186758 0.042620573 0.008004693 -0.23144203 -0.27207723 0.21193206 0.33214244 -0.11040268 -0.13288769 0.28285363 -0.40443945 0.25398827 -0.24107753 -0.23872408 0.38014847 0.21924251 -0.14497776 -0.33016503 0.6424076 0.34407398 -0.13364981 -0.114524186 -0.17001832 -0.031225536 -0.41677865 -0.029262241 -0.7500394 0.213377 0.031690653 -0.6416405 0.09753295 -0.094485365 -0.2399027 0.032173946 0.081275135 0.19404867 -0.124805115 -0.00016914718 -0.045197874 -0.27411795 -0.050664686 -0.44270322 0.27588314 -0.044621676 -0.27910307 -0.035743553 -0.13092548 0.48470443 0.34263182 -0.26554418 -0.10605508 0.011318683 0.14931045
25 -0.011341619 -0.0005159834 0.19890836 -0.18754692 -0.03351614 -0.3849971 -0.38461328 0.11889041 0.03962276 0.3566353 -0.11318091 0.33746797 0.15679283 0.33563042 -0.05872604 0.17375153 0.06737644 0.15660334 -0.034677435 0.16455396 -0.025268294 -0.06475919 -0.25959572 -0.050423417 -0.292886 0.41802746 0.48907444 0.22133817 -0.023761472 0.15437038 -0.12330406 -0.049008656 -0.296028 0.49748823 0.1200675 -0.6826171 -0.21365131 -0.8085199 -0.29229006 0.16405584 0.35015735 0.3551632 0.25588778 -0.5432407 0.24941458 0.10929335 -0.20187375 0.24110088 0.25636116 -0.09493347 -0.072490156 -0.011982533 0.03414906 -0.008158548 0.06106153 -0.7070288 -0.28852558 -0.09448255 -0.06878694 0.090707175 -0.0845452 -0.37642616 -0.17936824 -0.019851856 -0.32579112 0.1217803 -0.018095309 -0.044499606 0.08673283 0.23491813 -0.2022238 -0.24531649 -0.6740865 -0.03729218 0.05429842 0.39127263 -0.34735134 0.30711445 0.58001906 -0.1868984 0.20966506 0.09641827 0.08624837 -0.15632178 -0.03739465 0.16484988 -0.24380097 -0.1846397 -0.041410185 0.106333874 0.3174044 -0.24088147 0.29664975 -0.33704847 0.0066155763 0.305513 0.18819663 -0.18081406 -0.15897347 0.028265238 -0.11826422 -0.17885898 -0.09101716 -0.13242905 0.21906905 0.24501216 0.19791248 -0.3815492 0.13784891 0.09665042 0.16134956 0.19313754 -0.5208662 0.27748287 -0.04580404 0.33282706 -0.27068636 -0.33333406 0.22733958 -0.13400389 0.26124442 0.3691073 -0.28787363 -0.41279697 -0.13234897 -0.26551932 0.33701226 0.00031573678 -0.21341267 0.07065996 -0.33627704 -0.17210262 0.6277883 -0.14151435 -0.44130433 -0.2667613 -0.31891394 0.21223772 0.33029407 -0.19788352 0.26645187 0.2812791 -0.22535047 -0.13669574 -0.7516277 -0.1335791 0.09127262 -0.21650326 0.021326631 0.119493976 -0.09066664 -0.21744747 -0.08082832 0.06389897 -0.03024009 -0.12429814 0.48403615 0.004448649 0.36720413 -0.24097222 0.35913992 0.62744844 -0.30862778 0.26976785 -0.24460822 0.62299603 -0.025427831 -0.14142285 -0.26782107 0.058257926 0.1826279 0.047618095 -0.23304792 -0.16441938 0.42170113 -0.05163611 0.29069316 -0.06445842 0.15788636 -0.13272148 -0.013091095 -0.14681241 -0.49243626 0.4739702 -0.10021035 0.07776988 -0.2923462 -0.56101966 -0.3384614 -0.31225353 0.24681441 -0.058399074 -0.1340806 -0.19432312 0.052535407 -0.07484337 -0.055952605 -0.012424783 0.25448972 -0.058758236 -0.40281066 0.1975143 0.3299005 -0.14184311 -0.11203941 0.019091412 -0.15846846 0.013649051 -0.2178561 -0.001586129 -0.1730959 0.09109313 -0.42574063 -0.2662342 0.5039048 -0.19268984 -0.0021504387 -0.11300335 -0.37427077 0.12065301 -0.19940393 0.058222406 -0.33033293 -0.17912371 0.4134743 -0.33747607 -0.32263368 0.052226253 0.11635695 -0.15136898 -0.16926548 -0.13561766 -0.5762808 -0.038435217 0.36627355 -0.54581976 0.02447561 -0.11719732 -0.16378747 -0.059507806 0.7944402 -0.38620594 0.62837267 -0.07522641 0.24143627 -0.5221322 -0.13832955 0.38891974 -0.06552637 -0.48548183 0.14334239 -0.39365724 -0.1955704 -0.014033604 0.5239465 -0.022378536 0.26374742 -0.41247782 -0.33048233 0.1828342 -0.19165817 -0.12368331 -0.22371702 0.43680552 -0.14925192 -0.23189943 0.17932424 0.0019498124 0.25446197 0.41095194 0.024173342 -0.10265962 -0.21887483 -0.48927483 -0.53592587 0.22049814 0.5274547 0.07147436 -0.13960801 0.010008618 0.10373977 -0.17921744 0.5794135 0.17403999 0.1427103 0.4583927 0.28393248 0.21594343 -0.12532333 -0.3542672 -0.00042625432 -0.11995634 -0.08765436 0.04697062 -0.45302996 -0.27978048 -0.24410957 0.5220669 -0.006983922 -0.3529796
4 0.06321087 -0.022924254 -0.088612385 0.07699256 -0.18450761 0.13855034 -0.10075244 0.066214666 -0.22082706 -0.6881898 0.29637107 -0.3806275 -0.4629269 -0.46325734 -0.17557377 0.41803175 -0.3579295 -0.23210812 -0.20691822 -0.7085763 0.6288583 0.05663155 0.324442 0.4945026 -0.39547208 -0.42459416 -0.41679388 0.09434667 0.15865819 0.17561717 0.12650928 -0.12290909 0.0017258639 0.23182175 0.6815036 -0.21272384 0.16072996 0.6161218 0.391258 0.013526559 0.09352832 -0.24308887 0.016638184 0.48078576 -0.114335306 0.21912165 0.31643575 0.33740035 -0.20711593 -0.3507675 0.015229442 0.34173962 -0.1416181 0.15503387 0.007445659 0.29513165 0.15909599 0.041217424 0.12328499 -0.040619843 -0.11434657 0.41209912 0.042872857 -0.19914973 -0.046925563 -0.10788128 -0.5850644 0.011911737 0.032613825 -0.04490661 -0.1415196 0.1241091 -0.08424805 0.32910556 0.16568917 -0.1086497 0.3768345 -0.3169429 -0.43893227 -0.16034351 0.11923064 -0.019756349 0.2831194 0.07032987 0.2566585 -0.21241607 -0.039820764 0.2299086 0.4225742 -0.16361515 0.2944893 -0.1028492 0.4734684 0.53035194 0.012037791 0.048324004 0.20300668 -0.24225575 0.17421734 -0.11950061 -0.08122184 -0.177253 -0.1397256 -0.24219006 -0.26011145 -0.09997001 0.031149017 0.11768361 -0.37848178 -0.12275612 -0.3690017 -0.19125777 0.55834174 0.1329174 -0.07795974 0.26833165 -0.16077088 0.036529593 0.15847036 -0.4206761 -0.13100387 -0.16156916 -0.0028607047 -0.3346549 -0.12549432 -0.01751742 0.35682988 0.40586945 -0.02760644 0.2271387 0.19228107 -0.112871766 -0.19481887 0.47500968 -0.06520802 0.18752284 -0.35212696 -0.38311744 -0.4892848 -0.3640794 -0.06326538 -0.09435284 0.6249394 0.25498676 0.322271 0.10528889 0.12313906 0.13007241 0.021298753 0.103225045 0.41472086 -0.31477675 -0.0419643 -0.44325584 0.013153911 0.20485331 -0.5152368 -0.19369909 0.009500751 0.1617988 0.07429113 -0.02227031 0.1675508 -0.057997786 0.08200287 -0.32302663 -0.27938727 0.46933082 0.28657046 0.03776053 0.13701944 -0.30318722 -0.06905494 -0.23496263 0.22364259 -0.58739704 -0.6021731 -0.02662984 -0.23877893 -0.11151159 -0.14846988 -0.121384814 0.10952694 -0.27701807 -0.055165257 0.25895718 0.65701944 -0.197932 -0.08526818 0.41053513 -0.09785921 -0.5944746 -0.13960226 -0.16023293 0.4001108 0.2269313 -0.019548967 -0.049132276 -0.0064517786 0.15329108 -0.0411376 -0.3350689 -0.18314628 0.19057833 0.08113357 0.22243267 -0.20994376 -0.29482436 -0.36672702 0.03886283 -0.2889377 -0.10868777 0.3444061 -0.0061297733 -0.22359172 0.057008214 0.18026468 -0.1529126 0.24306042 0.3139706 -0.21243414 0.16514608 0.08632888 0.26860815 0.22181094 -0.078766085 0.076242775 -0.13629828 -0.259451 0.17836536 0.6161492 -0.32794392 0.06155585 -0.17158252 0.04395395 0.024509404 -0.256716 0.46213824 0.11299831 0.27584803 -0.12020008 -0.13164505 0.1009427 0.02174012 -0.26064175 0.40326414 -0.003624221 -0.38267565 0.033706065 0.13546877 -0.2641118 -0.12937655 0.21334326 0.31276977 -0.117449515 -0.08685382 0.25397593 -0.40382147 0.31270453 -0.20536408 -0.10719652 0.39151764 0.30154434 -0.13066362 -0.26620713 0.69336855 0.25098637 -0.085221164 -0.07689762 -0.25612795 -0.08885411 -0.29625115 0.14340258 -0.7299508 0.2678778 -0.04583652 -0.7388574 0.12486685 -0.036694136 -0.1870865 -0.022785896 0.022859825 0.114021175 -0.1777482 -0.014200933 -0.06901403 -0.12181876 -0.1805544 -0.44110128 0.35990095 -0.033227533 -0.13843997 0.008178897 -0.18665835 0.59117424 0.30315232 -0.21557394 -0.16727823 0.025106853 0.22483645
24 -0.1052668 -0.013281447 0.21448989 -0.09849962 -0.09780059 -0.3787137 -0.27396187 0.15148507 0.062904686 0.40771323 -0.18410872 0.26407662 0.12643391 0.33318737 -0.10856393 0.14559849 0.04141774 0.3118347 -0.0017340664 0.36246032 -0.2749302 0.010553672 -0.11363073 0.010616299 -0.31607962 0.35569692 0.44023323 0.10782341 -0.09355934 0.08566391 -0.217416 0.02236329 -0.12972404 0.47664934 0.2006613 -0.6602693 -0.1765727 -0.73241085 -0.22687046 0.19430032 0.3968365 0.30182347 0.28635764 -0.59890676 0.26316035 0.118904606 -0.16229746 0.15254045 0.3339958 -0.060925063 -0.17877801 -0.08499307 0.11619141 0.02231991 0.10140145 -0.7185427 -0.35127008 -0.049638886 -0.047459025 -0.044026487 -0.079403244 -0.4437022 -0.013385842 0.062348615 -0.43608448 0.024772186 0.024752261 0.12106894 0.12586144 0.13409613 -0.121585816 -0.13828015 -0.6202139 0.10747102 0.07195554 0.39484814 -0.48739874 0.27303708 0.6051865 -0.25546384 0.24678259 0.010093448 0.022743106 -0.14899284 -0.0341869 0.15672442 -0.19340524 -0.19852355 0.12567386 0.02591764 0.23358643 -0.21129794 0.24765806 -0.4441267 -0.06993648 0.20578533 0.15867957 -0.13551757 -0.20838247 0.055396 0.10365859 -0.12836602 -0.057949837 0.007562864 0.24589151 0.18055552 0.0375904 -0.47193223 -0.04461255 -0.022420868 0.105442256 0.22262669 -0.6024825 0.13583381 0.11603315 0.3015786 -0.26296327 -0.28091425 0.31558713 -0.015027033 0.28565466 0.41248018 -0.28089708 -0.41897583 -0.15575111 -0.08529159 0.4005495 0.05483161 -0.23451214 0.015257128 -0.15503202 -0.21053761 0.56904703 -0.22755726 -0.3919956 -0.332846 -0.35965192 0.27103943 0.3129438 -0.1704211 0.12014528 0.1341384 -0.364645 -0.2230165 -0.730928 -0.12611406 0.04823138 -0.24837844 -0.06197391 0.08600778 0.09741517 -0.14416629 -0.023408592 0.15845312 0.039903663 -0.16847302 0.45385283 0.05878769 0.42149422 -0.31556952 0.2932118 0.6003757 -0.09058673 0.36698696 -0.29832667 0.5557124 -0.11394298 -0.16430286 -0.2648078 -0.017931724 0.16221902 0.088518396 -0.122999735 -0.16962694 0.37409225 -0.09202961 0.3300784 -0.074292235 0.0829111 -0.034922708 0.017913902 -0.14643355 -0.38603434 0.54650193 -0.19151151 0.14706092 -0.23407404 -0.5301326 -0.4254067 -0.3938285 0.19218932 -0.05283572 -0.090451844 -0.05676516 0.14155221 -0.2085328 -0.08267331 0.027842347 0.29554263 -0.18009436 -0.569432 0.107462086 0.2082007 -0.04366656 -0.13789098 -0.041725148 -0.14887778 -0.09819056 -0.1625336 -0.10501723 -0.13835457 -0.006775111 -0.34291896 -0.061051067 0.5747833 -0.19059081 -0.019927058 -0.14589867 -0.40412796 0.1937662 -0.33847252 0.074605115 -0.22680767 -0.2529727 0.27483416 -0.34075367 -0.317519 -0.054446824 0.042594213 -0.07124016 0.031102419 0.028500468 -0.65602916 0.037211705 0.43704554 -0.60664797 -0.011722091 -0.10337486 -0.22521561 -0.12559971 0.71380246 -0.4176417 0.6727651 -0.086941004 0.25386783 -0.38638783 -0.10548122 0.42133534 -0.17437036 -0.4416953 0.15790364 -0.34582195 -0.13310894 -0.01006187 0.32192686 -0.13401768 0.19735052 -0.42548674 -0.41668865 0.2367884 -0.039217554 -0.15786496 -0.18647778 0.452292 -0.094913326 -0.2346118 0.24740621 0.0120003885 0.18698785 0.44817284 0.087478586 -0.17866866 -0.31637162 -0.42735997 -0.49813297 0.08920852 0.5438155 -0.052207794 -0.001332351 0.0048298505 0.15689869 0.039208036 0.4791261 0.22175935 0.026051864 0.34691462 0.42849806 0.20428193 0.0059624678 -0.31457594 -0.038169723 -0.19717343 0.04598487 0.11076095 -0.3504247 -0.24613196 -0.31441963 0.46083093 0.14119087 -0.40947574
19 0.0038854356 -0.073641375 -0.041110612 -0.05150011 -0.2149528 0.0953293 -0.021963554 0.026015237 -0.025899962 -0.032534268 0.04311377 -0.17141141 -0.08222055 -0.17204462 -0.059905805 0.1369307 0.06823639 -0.06698426 0.031128086 -0.3204702 0.15578803 0.028938025 0.1642886 0.17579499 -0.086700924 -0.15528125 -0.21728356 -0.09356079 0.08566238 0.027704775 -0.05387575 0.015620648 0.040238105 -0.06329318 0.08400506 -0.05533433 0.14454907 0.20320973 -0.023586852 -0.16297874 -0.040365513 -0.24454963 -0.03946976 0.09872234 -0.034277014 0.039427906 -0.041560657 0.12777859 -0.13152444 -0.2095912 0.071831025 -0.063397735 0.06076676 0.108747676 0.06852008 0.12888046 0.058176562 -0.16406763 -0.042679273 -0.09813055 0.014108533 0.16920757 0.10950714 0.065595716 0.12430572 -0.10021291 -0.081754416 0.01675651 0.029184371 -0.058358543 -0.03133908 0.11197725 0.08412355 0.016160293 -0.1006741 -0.100431964 -0.021111012 0.04766771 0.04256026 -0.009537991 0.18467715 0.008255813 -0.041736472 -0.10374055 0.017465265 0.08342519 -0.026020566 0.09405373 0.093236916 -0.16984008 0.08416481 0.0778138 0.047959134 -0.0044855643 0.113071114 -0.12663837 0.023235917 0.06003752 0.0031438894 -0.035811454 0.07618974 -0.016237138 0.03696333 -0.016123526 -0.07777429 0.054382846 -0.05818914 0.26443437 -0.06677723 0.040167026 -0.053209547 -0.03952115 0.06583646 0.027197557 -0.012787632 -0.082713984 0.019191835 0.014567899 -0.04715294 -0.08982087 -0.028138522 -0.1554289 0.1020171 -0.16701645 -0.042141143 0.15018894 0.023423713 0.11392963 -0.049336474 0.050568506 -0.02433289 -0.006571948 -0.11476804 -0.029940367 -0.019783465 -0.0019628392 0.092430376 0.0002186396 -0.16062835 -0.020747455 -0.13397218 -0.08235956 0.0792675 0.11243817 0.15305947 0.06813638 -0.081835754 -0.031112814 -0.011236616 0.1269483 0.082249954 -0.046880346 0.017909061 0.0693436 -0.028754966 0.11831785 -0.096459106 -0.1286532 -0.23457363 0.13422298 -0.074270956 -0.13870579 0.06359438 0.007877303 0.00897999 0.009333184 -0.03715894 0.072915815 0.076401 -0.019063784 -0.070627086 -0.016906742 0.15198143 -0.043819327 -0.024873747 -0.1557017 -0.07009396 -0.10054691 -0.052075073 -0.028706823 0.04055377 -0.03368695 0.07183132 -0.06862948 -0.02082644 -2.279581e-05 0.14458477 -0.023046521 -0.14977688 0.019724011 -0.011471018 -0.091252215 -0.14700462 0.05546171 0.08489054 0.09005253 -0.028981581 0.032472618 -0.11696458 -0.07680499 0.115117855 -0.18887173 -0.06440256 -0.0028235423 -0.08435042 0.10959832 -0.111553326 -0.00732431 0.07392057 -0.17360276 -0.036075708 -0.021660611 -0.004690814 0.1311272 -0.07370103 0.0032359755 0.13254961 0.0073527177 -0.034952383 0.12595864 -0.106154956 0.10988734 0.124446176 0.027712543 0.025757857 -0.11174292 0.075833805 -0.11223306 -0.10387168 0.06674549 0.19100562 0.1040149 0.15463609 0.03975537 0.10758854 0.12731141 0.096446715 0.048803322 0.06352508 -0.08194197 -0.11062595 0.12887208 -0.121008135 0.058679912 -0.046329457 0.13694799 0.0220779 -0.08309723 0.15272146 -6.805452e-05 -0.10668926 0.102751575 0.051129658 0.09878482 -0.15305048 -0.020170344 0.005782087 -0.004015342 0.08943232 0.07182369 0.113513745 0.019653529 -0.016636448 -0.037945144 -0.14455107 0.1053437 0.015620788 0.07145936 -0.0452867 -0.064784616 0.032092527 0.07726357 -0.041838534 -0.08855839 0.118038215 -0.010593143 -0.021322688 -0.008374235 0.0815996 -0.06462826 0.014588125 -0.027221493 0.03972422 -0.22981465 -0.02015175 -0.084217176 0.10409323 -0.0051265582 -0.07266588 0.07741298 0.08633972 -0.037964992 0.18453808 0.168004 0.11784967 0.05803428 0.16688612 -0.11951718 0.06456957 -0.03612498
28 -0.04187582 0.07054391 0.13538787 -0.022607634 -0.04700791 -0.1971181 -0.11540134 -0.028729303 0.007080611 0.20641197 -0.048463885 0.09969812 0.16266349 0.27453503 -0.0879334 0.049666602 -0.08961422 0.08062376 0.033223893 0.2774997 -0.14366235 -0.1056904 -0.011382645 -0.1600122 -0.0070833936 0.1439522 0.27593407 0.090941116 -0.11475157 -0.0034150088 -0.1463217 0.008570547 0.06097786 0.180804 -0.083428174 -0.07729954 -0.21154107 -0.3312042 -0.10093506 0.039083667 0.10903884 0.23371519 -0.0015400393 -0.18661517 0.06651514 -0.032809377 -0.06351653 -0.09067856 0.26017293 -0.10631916 -0.0711234 0.035670068 0.067065 -0.07233847 0.061236776 -0.24452426 -0.06157295 0.055106916 -0.026390584 0.1347995 -0.02810748 -0.20716125 -0.10301407 0.018770965 -0.063634686 0.15335804 0.068322696 -0.06621882 0.02496288 0.15817505 -0.053117443 -0.066526204 -0.10909383 0.01450286 0.044547964 0.124614865 -0.13057406 0.013838364 0.21854761 0.021804135 0.026574858 0.048993394 -0.031098224 0.012351063 -0.004149764 0.014214835 -0.02085049 -0.22542314 -0.08198274 0.11951316 0.08827315 -0.015255618 0.07106505 -0.2032633 0.035753306 -0.013330151 -0.0215367 -0.09105387 -0.12458234 0.009812201 -0.10337128 -0.016266752 -0.0037498958 0.050226387 0.11131232 0.109225295 0.17860654 -0.2040999 0.05245266 0.111238435 0.14492129 0.07942981 -0.2395998 -0.07492772 0.13504186 0.15022852 -0.028301338 -0.064780824 0.054271184 0.04927592 0.08522776 0.059166774 0.033099435 0.014899218 -0.08192849 -0.1709944 0.10896011 -0.06529522 -0.06892533 -0.058071125 -0.14453867 -0.11249279 0.20606941 0.042475976 -0.23992224 -0.0950131 -0.03351362 0.017263131 0.07742912 -0.08551332 0.16804536 -0.1052007 -0.22937737 -0.07506127 -0.21638586 -0.045002203 0.046278186 -0.009527957 -0.0044415332 -0.124752946 -0.045792464 0.08397826 -0.09277427 0.06210097 -0.048174016 -0.24610417 0.25092813 0.006951933 0.12844412 -0.1523085 0.064812504 0.100561656 -0.14173503 0.18330503 -0.08433482 0.14248665 -0.056587815 -0.082954615 -0.10524365 0.086096674 0.0036133698 -0.014292236 -0.20669697 0.028477335 0.16890289 0.28720975 0.19062346 0.13701715 0.19511148 0.027126133 -0.016471444 0.035468966 -0.22522162 0.1493257 -0.09549372 0.07251464 -0.107096605 -0.10329675 -0.059369594 -0.08878309 0.007830073 -0.0025469945 0.05066946 -0.1571774 0.009408279 -0.10316238 -0.097929835 -0.043873396 0.18758532 0.05604662 -0.09515542 0.17349416 0.124477796 0.041366022 -0.09118147 -0.061857365 -0.05182214 0.044269167 -0.02358251 -0.036291745 -0.02225852 -0.015251512 -0.09293175 -0.17861146 0.22814174 -0.12539537 0.06679276 -0.14453743 -0.07370704 0.056997687 0.019427398 -0.011177151 -0.014465426 -0.10865275 -0.016574437 0.050098266 -0.23409238 -0.014662179 -0.043530874 0.07401065 -0.10000321 -0.0469526 -0.28542727 0.07953298 0.11069484 -0.2542791 0.008800991 -0.13051243 -0.015494983 0.022887716 0.2906609 -0.0770567 0.24597734 -0.12953068 -0.00080752023 -0.1344897 0.114419445 0.13537255 -0.0019304042 0.012124169 -0.018309856 -0.13155738 -0.041315727 -0.018523723 0.16484654 0.015753822 0.090348445 -0.16960545 -0.060796186 0.10773644 -0.033623725 -0.0244995 0.06693619 0.10222016 0.028677475 -0.18813933 -0.022567017 -0.07272277 0.11102108 0.042834453 0.014196022 0.089364596 0.010512287 0.053813398 -0.22879542 0.0065357327 0.19992204 -0.021351293 -0.08133638 0.029540593 0.121934205 -0.101700574 0.15094449 0.11684472 0.005687322 0.12677562 0.3107824 0.029905556 -0.087500595 -0.106691144 -0.010326401 0.037761107 0.0110308835 -0.077697895 -0.15004133 -0.25557727 -0.068235435 0.23730142 -0.0020078288 -0.16553624
16 0.1507481 -0.04075318 -0.2718835 0.110543095 -0.040427122 0.09034054 -0.24276784 0.19815613 -0.15126936 -0.7328526 0.24823675 -0.32193097 -0.5125387 -0.4777869 -0.07945579 0.45199484 -0.58762604 -0.3703121 -0.24375764 -0.7540689 0.75069755 0.16979013 0.22893745 0.3614828 -0.5212466 -0.4148334 -0.4840528 0.365459 0.15976866 0.18531771 0.20172934 -0.19192421 -0.14225589 0.44568866 0.8836933 -0.31546113 0.07451765 0.54728204 0.39664206 0.147947 0.25081828 -0.20164661 0.033997197 0.64684665 -0.18076533 0.26072326 0.36071676 0.5677301 -0.1584389 -0.29075414 0.0026780379 0.42313695 -0.13704765 0.16919324 -0.052816853 0.15881956 0.13804504 0.16302188 0.22147298 0.10945255 -0.1397098 0.3249619 0.09445576 -0.25885087 -0.16377817 0.05266151 -0.66735464 0.021074463 -0.018251393 -0.03921456 -0.21386091 -0.052652206 -0.19226292 0.39388117 0.21263227 0.044835553 0.6080697 -0.40955973 -0.57262444 -0.22144124 -0.055563472 -0.107546866 0.4529652 0.15471402 0.17785962 -0.2696024 -0.11699985 0.2275661 0.530396 -0.13675995 0.48435792 -0.26197723 0.5731952 0.5205194 -0.11838778 0.18879887 0.15063576 -0.42260194 0.32219842 -0.14664696 -0.1878295 -0.3388282 -0.3602748 -0.4507493 -0.18166368 -0.039878294 -0.04529775 -0.10026296 -0.38273895 -0.16551992 -0.5168424 -0.2812973 0.645242 0.11699262 -0.26513803 0.5291492 -0.20053983 0.021048227 0.4167941 -0.5541128 -0.04902142 -0.020929744 -0.1406889 -0.39709243 -0.1266531 -0.11780568 0.35829225 0.44829232 -0.0044490276 0.20329103 0.32030162 -0.19726731 -0.115752675 0.6506392 -0.026612872 0.14809904 -0.47401634 -0.62368125 -0.3602955 -0.41875538 -0.01101152 0.065090455 0.74754876 0.34206897 0.3573048 0.047966935 0.20334084 0.12197213 -0.027804995 0.1450751 0.4312304 -0.3145878 -0.061824385 -0.618313 0.026354881 0.14753056 -0.5716659 -0.12206817 0.21344489 0.1937419 0.24154507 0.100646056 0.10623432 -0.099829316 0.19047606 -0.24400432 -0.3315655 0.43514708 0.32897422 0.1421776 0.28018463 -0.36903343 -0.22042866 -0.2391875 0.29685712 -0.739946 -0.71818733 -0.030818498 -0.45585495 -0.27224854 -0.121575505 -0.05759648 -0.033887476 -0.27947024 -0.1279281 0.33096775 0.73387223 -0.28130963 0.04563667 0.54367864 -0.14930871 -0.70058346 -0.03778914 -0.21666996 0.4247781 0.26216444 0.02561707 0.03491031 0.0255376 0.34250966 -0.15854767 -0.36153236 -0.15379348 0.14867562 0.058598977 0.22294316 -0.3151022 -0.35246268 -0.5808878 0.20893857 -0.35804057 0.034778014 0.5259685 -0.18079579 -0.28854328 0.07279048 0.033366647 -0.23289637 0.2603511 0.27946773 -0.2697996 0.08542599 -0.012325027 0.33776736 0.26148447 -0.07018589 0.1198631 -0.07885033 -0.33694834 0.14039601 0.58445275 -0.5321618 -0.04575855 -0.43210718 0.060273618 0.013839775 -0.3467148 0.47108445 0.085975274 0.4433506 -0.10659968 -0.31857333 0.20350724 0.008326474 -0.20819198 0.39303792 0.010030544 -0.4199195 0.0015896192 0.08001036 -0.21069019 -0.31497192 0.16813397 0.37312493 0.029200913 -0.2258057 0.3243095 -0.62588096 0.35590693 -0.31665424 -0.33618027 0.40380493 0.369192 -0.15833256 -0.31901243 0.8637081 0.3785242 -0.19517367 0.049656253 -0.2572596 -0.16408658 -0.4692816 0.15125157 -0.78800124 0.31758627 0.15592095 -0.90461886 0.13783196 -0.13078079 -0.101806484 -0.036468003 -0.06676425 0.20678821 -0.05893846 0.042994075 0.085840166 -0.32134327 -0.1978932 -0.5641148 0.37073347 0.04311744 -0.29794955 -0.169917 -0.30537307 0.59343594 0.47831628 -0.39713255 -0.068575755 -0.032124285 0.19588931
26 0.3570011 0.033678424 -0.09647248 -0.33782235 -0.028015763 -0.24257803 -0.06784921 -0.10831321 0.3345486 0.324766 -0.063452885 0.15281187 0.18224166 0.1223326 0.266323 -0.10613745 0.25770435 -0.0193715 0.15910907 0.03552061 -0.10297143 -0.050428696 -0.25838572 -0.41358227 0.040670298 0.21087766 0.21488413 0.30352968 0.19734317 0.10757472 -0.124735534 0.42905426 -0.16408814 -0.13235085 -0.4102908 -0.15737167 -0.46954706 -0.38790226 -0.28694087 0.13948925 -0.22751552 0.3586513 0.020936565 0.12069831 -0.03876774 -0.14298981 -0.16353132 0.1412988 -0.17486 -0.091010146 0.10617611 -0.4441135 -0.15250702 -0.12170701 0.028438676 -0.14787273 0.12051718 0.06346998 0.0043062395 0.18493542 -0.085856065 -0.0028866495 -0.06726601 0.08364014 -0.08319265 0.004578472 0.27130994 -0.32474566 -0.014217201 0.06316488 -0.19316113 -0.25819623 -0.1745512 -0.2683624 -0.17371747 0.20246054 -0.029287573 0.18852922 0.066594444 0.2420284 -0.10852699 -0.14405276 0.21198286 -0.0462916 -0.10721682 0.1746403 -0.39154217 0.2161054 -0.32317963 -0.11771674 -0.021812234 -0.033901796 -0.030965276 -0.4946639 -0.092482805 0.002621187 0.13084228 0.07727139 0.08832046 -0.1732688 -0.23084117 -0.105580084 -0.16417725 0.098114215 0.22653191 0.0048211683 -0.014661484 -0.052287687 -0.06302722 0.20656031 0.11231971 0.0087077 -0.37649906 -0.14761782 -0.16563872 -0.024464168 0.2572589 0.075756565 0.017672174 0.044155754 0.20287739 0.1643909 -0.13473554 -0.15633601 0.13485359 0.01786843 -0.45195904 -0.3027307 -0.084350176 -0.3800181 -0.29586405 0.21343376 -0.17285089 -0.17362787 -0.17538658 -0.1060192 0.14432411 0.04113175 0.43947193 0.117549956 0.087627016 0.08037451 -0.073795475 0.29013982 0.04494993 -0.23036723 -0.18606217 -0.097415365 -0.31690544 -0.21382625 -0.40638393 0.12597471 0.007528665 0.0527436 0.07791531 -0.250953 0.03940139 0.12366159 0.15757082 0.22202274 0.16180277 0.55952007 -0.6221592 -0.18071553 0.30331665 0.11616256 0.13899715 -0.33256024 0.25700527 0.3682698 -0.12911889 0.2054426 -0.058942907 0.090718396 -0.30983126 0.078211576 0.12830435 -0.23477995 0.014580481 -0.08994006 -0.040025875 0.09883594 -0.3297208 -0.06050069 0.08993373 -0.36917216 -0.18033457 0.29881558 0.24899831 -0.13691282 -0.14557703 0.28476438 0.13101926 -0.3146502 -0.31365493 0.013456053 0.04769799 0.08375271 -0.23646948 0.0008267957 0.08528093 0.112120666 0.12778816 -0.38942698 -0.015297086 -0.07893123 -0.22997747 0.42676067 0.046474475 -0.21741876 0.22073698 0.21908206 -0.27769437 -0.20731577 -0.07101722 0.28366137 -0.01059631 0.36203715 -0.015432345 -0.15307875 0.06788058 0.03968145 -0.22034284 0.07404118 -0.14498317 -0.3399906 -0.09740957 0.2540934 0.19660586 0.1015074 -0.42072803 -0.16579734 0.21571067 -0.44564542 0.0986585 0.24300821 -0.0039090523 -0.4284798 0.19876263 0.28653377 0.20518455 0.20774755 -0.19984907 -0.28797823 0.2600834 -0.10112644 -0.07850312 -0.082576685 0.1393424 -0.13522243 0.2858802 0.18136454 -0.33850235 -0.15696998 0.12570776 -0.23214243 -0.055963427 0.06502321 0.17626631 0.12943706 -0.053977374 -0.22896148 -0.27106842 0.22987255 0.013505949 -0.12854983 -0.21686594 0.21626839 0.08836593 0.5335483 0.24686664 0.36793226 -0.21297671 0.42746893 0.10552616 0.155035 0.28940436 -0.19917023 -0.1098804 -0.1375081 -0.3381203 -0.23675527 0.010414593 -0.03883309 0.2731811 0.08557721 -0.19115385 0.003509106 -0.016857196 -0.21349141 -0.08459878 0.2831549 -0.30994567 0.24913737 -0.5222007 0.1457317 0.13082173 0.36618295 -0.04299372 -0.12653595
20 0.076005936 -0.06512768 -0.03616494 -0.18688515 -0.06625652 -0.118375026 -0.2602522 -0.13718078 0.10335867 0.43142492 -0.12039991 0.09184565 0.34676868 0.28163978 0.16919583 -0.13308315 0.020557027 -0.0058639874 0.112059005 0.035200067 -0.23605406 -0.1880806 -0.04772118 -0.36240128 0.08206002 0.1397232 0.18556337 0.25074756 0.0521879 -0.049349148 -0.089927256 0.34754646 -0.08638929 -0.16113365 -0.37832054 0.17595607 -0.31407434 -0.22056921 -0.2061268 0.026074132 -0.18388267 0.14668901 -0.01739683 -0.040990185 -0.0512138 -0.20418778 -0.17514893 -0.00721836 0.023718517 -0.17376305 -0.004944135 -0.29772693 -0.02921832 -0.17836024 0.15733294 -0.16009787 0.14631611 0.20561926 0.13123666 0.29281524 -0.049502168 -0.04762701 0.034290463 0.12892455 0.13020118 0.2513604 0.30351445 -0.1556105 0.11455863 0.054084986 -0.08087255 -0.2032788 0.09101572 -0.34348434 -0.060459953 0.17265616 0.1306363 0.076637655 0.30730784 0.29328987 0.08347004 0.025683045 -0.07719535 0.043129086 -0.18264659 0.14351426 -0.29059425 -0.033361897 -0.390428 -0.014420423 -0.030145742 0.060965545 -0.051262647 -0.3205636 -0.0066040712 0.045413826 -0.08374904 0.04787362 0.16545056 0.053724155 -0.21111536 0.043465126 -0.09715804 0.025469193 0.06904769 0.14707981 0.18683077 0.13405119 0.014124376 0.19594471 0.05453456 0.18980834 -0.2261737 -0.13083592 0.022205701 0.040520705 0.36157632 0.0029346328 -0.035762727 -0.0186643 0.24930467 0.052448876 0.06329677 0.14701687 -0.0315948 -0.07563808 -0.27265665 -0.1990255 -0.027611943 -0.0818775 -0.3427677 0.2547248 0.03916772 -0.23276256 -0.18935205 -0.026124155 0.20893955 -0.09407541 0.18294604 0.09870923 0.107631855 -0.13777445 -0.28491253 0.03348209 0.02449881 -0.068516426 -0.16946974 0.022005564 -0.07186382 -0.19786182 -0.27928957 0.13842052 0.09056733 0.1558952 0.33248514 -0.316686 0.096423395 -0.025523206 0.11424184 -0.038283397 0.088242844 0.13301392 -0.4338865 -0.1666383 0.16985634 0.14206667 0.1851489 -0.21200453 -0.012417638 0.03420877 0.014997961 0.11283075 -0.26002702 0.06868128 0.062765695 0.42901775 0.16669011 -0.0151544055 0.17262882 -0.12405387 -0.030391872 0.30256355 -0.2992714 0.11269373 -0.057614166 -0.18630138 -0.22200865 0.32503107 0.028484503 0.039290216 0.0013188223 0.18924221 0.09238702 -0.33586425 -0.048406012 0.020543132 0.033779077 -0.086674 0.11430203 0.11570611 0.1003244 0.07012716 0.17634425 -0.12345205 -0.09098393 -0.14338419 0.009055655 0.1510182 0.14147593 -0.10830614 0.085710764 0.011541929 -0.22470674 -0.03996947 0.0054963906 0.05593192 -0.0032737853 0.11388699 -0.0035034046 -0.070490785 0.13222931 0.059471503 -0.16027004 -0.06931013 -0.08270687 -0.021324532 -0.07742589 0.01637438 -0.022552043 0.039883982 -0.26030654 0.076869614 0.07471343 -0.1748206 -0.11188454 0.10534634 0.070170924 -0.2551195 -0.10239345 0.14776884 0.16821548 0.18343045 -0.15643197 -0.08866536 0.056257922 -0.025289033 0.09156024 -0.0953166 0.07194574 0.18183357 0.014787503 -0.09650614 -0.17307027 -0.16163023 0.09869495 0.0049020005 0.006892453 -0.124185 -0.028760344 0.12486396 0.017183362 -0.24164057 -0.043145943 0.20605437 0.10125467 -0.17462873 -0.23691517 0.072006196 0.15139125 0.0606006 0.031944487 0.25717404 0.08067653 0.36915496 -0.06310283 0.00214492 0.18552469 -0.0023931912 -0.009158051 0.082029894 -0.14819911 -0.22523674 0.10789029 -0.09295262 0.014256227 0.15598151 0.28066778 0.012600737 -0.036730282 0.06631384 0.024031812 0.329001 -0.019435128 0.051917877 -0.2804627 -0.045895744 0.16120058 0.22568892 0.035348892 -0.112701505
22 0.08627084 -0.09956732 -0.06207204 -0.23294833 -0.06440312 -0.10446215 -0.32535577 -0.12739475 0.120496556 0.44259644 -0.1370399 0.11948357 0.38410473 0.29880998 0.21349315 -0.12647142 0.031675793 0.0025499826 0.087015554 -0.014721223 -0.21225846 -0.18711764 -0.08273718 -0.35380402 0.024317369 0.17357762 0.22620459 0.30718178 0.077310674 -0.0434606 -0.079891816 0.37924528 -0.15277743 -0.15381718 -0.36202994 0.112498745 -0.3276173 -0.26898423 -0.215668 0.039310995 -0.17808674 0.1625409 0.006656542 -0.05399343 -0.057277415 -0.20560561 -0.19876195 0.062042177 -0.019265646 -0.18740211 -0.0021500294 -0.34310004 -0.04400203 -0.18586138 0.16405922 -0.21305002 0.15568113 0.23988041 0.16033266 0.33113205 -0.05957577 -0.06818608 0.027800143 0.13675387 0.092803486 0.23641561 0.3187323 -0.16408467 0.16449976 0.052506983 -0.08710395 -0.24646865 0.032228835 -0.39066958 -0.052906822 0.23808962 0.14073625 0.11789861 0.3670887 0.30239058 0.118715055 0.03550596 -0.07044546 0.032707926 -0.20790042 0.17143616 -0.36709508 -0.0057050963 -0.42220953 -0.031838495 -0.011562135 0.031099388 -0.006426196 -0.33309904 -0.047956023 0.11076928 -0.03962921 0.042300895 0.19866483 0.06603614 -0.24350746 0.028627397 -0.119966 -0.024335654 0.09416398 0.18104158 0.18709163 0.14839675 -0.000958637 0.21256974 0.051540356 0.21702652 -0.2706967 -0.10962417 -0.016432604 0.07775522 0.40072665 -0.04302096 -0.02378338 -0.05329825 0.32611465 0.10571911 0.013043478 0.1265748 -0.04325294 -0.06612138 -0.29372755 -0.19351476 -0.026255267 -0.066811234 -0.3738605 0.2853316 0.08311654 -0.2687866 -0.21197575 -0.044090033 0.18291982 -0.09899753 0.22012587 0.08628331 0.124115594 -0.10846537 -0.2986097 0.021194546 -0.034623995 -0.07094013 -0.18759999 0.009126398 -0.07703994 -0.18821335 -0.3031275 0.106365606 0.11070907 0.16238043 0.39170942 -0.30909923 0.08477675 -0.047407623 0.17377238 -0.058100678 0.13288428 0.20823818 -0.48785853 -0.1924681 0.17123453 0.21417822 0.21763569 -0.22328955 -0.0047909967 0.014143919 0.036309853 0.13878147 -0.31329077 0.012380176 0.07714434 0.39270768 0.17270927 -0.051298097 0.15009747 -0.16913909 -0.038760822 0.30203503 -0.36263824 0.15665917 -0.07758429 -0.19729958 -0.25741005 0.3281928 -0.021973945 0.041589968 0.04717586 0.20840523 0.062077537 -0.3862454 -0.048112232 0.031253386 0.07292286 -0.091113 0.11282107 0.12323665 0.06240341 0.06289536 0.19882135 -0.16009316 -0.052956942 -0.12154088 0.0056620366 0.1546933 0.11448946 -0.09299758 0.06746568 0.021342997 -0.26686737 -0.035739545 0.029112985 0.0635519 -0.022755582 0.14123969 -0.04257093 -0.06676204 0.1173677 0.09612333 -0.2421594 -0.07555464 -0.026368797 -0.08782596 -0.07628701 0.016315138 -0.019822039 0.022325508 -0.26211897 0.0822721 0.06387697 -0.23969626 -0.09570972 0.09773021 0.073431045 -0.23979428 -0.15524368 0.17728831 0.22418395 0.16791083 -0.14688958 -0.07344468 0.0753223 -0.05770494 0.08033917 -0.108455814 0.06376969 0.16315717 0.023152303 -0.13795625 -0.20919488 -0.17245202 0.12768544 0.013568283 0.055402588 -0.16333263 -0.07757462 0.11628734 -0.00179287 -0.25803193 -0.058246113 0.2760967 0.09842706 -0.14413987 -0.23063006 0.07140798 0.17889746 0.1069102 0.0490807 0.24730138 0.097048394 0.31170657 -0.07050027 0.03927364 0.19778845 0.017886003 -0.0047182795 0.097146675 -0.20213473 -0.25805587 0.17838185 -0.105569124 0.037717063 0.21375272 0.27582762 0.04372959 -0.033564676 0.09230353 0.010371108 0.3581364 -0.044748325 0.07742075 -0.3185546 -0.012608363 0.16237636 0.26145273 0.045426037 -0.12235256
15 0.11313192 -0.103042714 -0.0809459 -0.22308515 -0.040777232 -0.09352558 -0.30904114 -0.12568474 0.11515898 0.41891435 -0.1234483 0.104879655 0.34979522 0.26011422 0.22985679 -0.14765583 0.022648925 -0.04678043 0.098656215 -0.049296618 -0.21383815 -0.19102906 -0.06373161 -0.36645183 0.040828537 0.1312078 0.1796304 0.31371903 0.105995394 -0.03494561 -0.058488578 0.39348197 -0.15983818 -0.18170615 -0.36980754 0.16195142 -0.31410497 -0.19582008 -0.19401518 0.0424645 -0.2141676 0.12362069 0.017287455 -0.001278555 -0.06031805 -0.21766713 -0.17767072 0.069169186 -0.042141754 -0.17725745 0.005961788 -0.34077132 -0.08070286 -0.20647301 0.15672149 -0.16614984 0.16836554 0.2465255 0.16594392 0.3268206 -0.073932186 -0.02259129 0.04838643 0.14361471 0.12064983 0.25130102 0.3004146 -0.17402051 0.1484976 0.03555041 -0.09161393 -0.24751377 0.050026532 -0.41496542 -0.06882759 0.2063719 0.20629491 0.08154034 0.3144432 0.30669725 0.10489252 0.025312087 -0.050330073 0.04463358 -0.2145129 0.14444543 -0.3676044 0.024353296 -0.41917345 -0.044576883 -0.021414833 0.03769087 -0.019963259 -0.2999279 -0.048865113 0.121687084 -0.05426789 0.04283412 0.237661 0.053234063 -0.24359012 0.028997287 -0.13032582 -0.021135457 0.058392473 0.15580851 0.18048951 0.17638399 -0.0124742985 0.19100241 0.015210552 0.20138232 -0.22061568 -0.11686597 -0.034034755 0.070863985 0.4207377 -0.02296244 -0.01679562 -0.065009944 0.2992814 0.09160717 0.010245346 0.12533015 -0.023304176 -0.067123294 -0.31422168 -0.20361632 -0.016850363 -0.059391085 -0.3730727 0.31755325 0.038702376 -0.27578148 -0.17674927 -0.012841212 0.1894684 -0.12964047 0.20667015 0.087741986 0.10221658 -0.11088654 -0.24362032 0.047003493 0.032906488 -0.08109415 -0.18591079 0.03197738 -0.07860184 -0.18915531 -0.3133673 0.093432724 0.12357151 0.14272271 0.41987437 -0.29551655 0.04683414 -0.04240738 0.16456392 -0.024728807 0.13441896 0.20609112 -0.48873693 -0.24532609 0.22130024 0.15953436 0.22430544 -0.2111428 0.010925718 0.013409608 0.040919285 0.13733092 -0.29570967 0.031080198 0.06976698 0.36978704 0.13179988 -0.06721831 0.12672536 -0.17831361 -0.036272988 0.33237836 -0.32637048 0.1192144 -0.05633657 -0.222134 -0.21932408 0.3610688 0.024968913 0.08030602 0.0228149 0.2058554 0.08098811 -0.38430205 -0.041204676 0.05781977 0.08245103 -0.10118462 0.10057384 0.13995074 0.08679942 0.032714445 0.18579881 -0.16257216 -0.0465219 -0.13086334 0.021032033 0.1563699 0.1182081 -0.0777065 0.06517348 0.02154097 -0.25342745 -0.013470749 -0.037977856 0.0958229 -0.031011015 0.15535869 0.017941022 -0.0900667 0.12743448 0.0845753 -0.23381151 -0.048447914 -0.04740155 -0.07685483 -0.034998536 0.023192097 -0.012982371 0.012353005 -0.25892815 0.07537776 0.112021424 -0.26004443 -0.1306943 0.1500836 0.05841365 -0.22539358 -0.14221798 0.21059568 0.18159212 0.1795899 -0.20546958 -0.07836368 0.08174673 -0.02417597 0.063827835 -0.14037608 0.06706014 0.17932624 0.03083409 -0.13811255 -0.19699787 -0.16843827 0.103783846 0.016131112 0.01827845 -0.1653572 -0.042159256 0.10569043 -0.010974343 -0.26135898 -0.061512064 0.25045127 0.10242068 -0.10979435 -0.23636511 0.09069079 0.16598892 0.09396074 0.035399936 0.2405248 0.10557079 0.32069203 -0.028844204 0.025330415 0.14494121 0.019359054 -0.0019802724 0.093558244 -0.22178261 -0.24258272 0.13795695 -0.11876681 0.024831433 0.1957248 0.21141024 0.023791067 -0.045361653 0.108813055 0.0048449077 0.36670142 -0.061891206 0.05301972 -0.29392293 0.038839392 0.15304323 0.23528153 0.050433714 -0.09652885
14 0.07243669 -0.08190534 -0.05228316 -0.20172164 -0.06681737 -0.09603551 -0.2948535 -0.11706966 0.0957764 0.38612008 -0.11594767 0.09011523 0.3282194 0.2576038 0.17204869 -0.096844435 0.016411658 0.008234761 0.07071036 -0.028097844 -0.18436393 -0.16599981 -0.068673745 -0.30442968 0.01437856 0.14683911 0.18344608 0.27290443 0.073350705 -0.03642575 -0.05954059 0.3336702 -0.13379887 -0.12548256 -0.29544124 0.091559544 -0.29692674 -0.23386401 -0.18821514 0.052765574 -0.14425357 0.13574874 0.005527905 -0.047055483 -0.045926724 -0.18178846 -0.17232499 0.061636396 -0.0102861365 -0.17138608 -0.007836358 -0.29636404 -0.037712816 -0.1598277 0.15330197 -0.18775563 0.14231022 0.21439761 0.14728788 0.28705347 -0.05517439 -0.05380572 0.03702327 0.10931274 0.08129155 0.21930532 0.269375 -0.13383687 0.13643667 0.04193868 -0.089420125 -0.21764311 0.025458995 -0.32527265 -0.040074613 0.21102962 0.12842856 0.09282084 0.31073278 0.27119425 0.108647525 0.032866307 -0.05436391 0.033249732 -0.17943504 0.1438155 -0.32415417 0.0018542103 -0.3600812 -0.031834215 -0.0036370598 0.0279472 0.006657571 -0.28832665 -0.030388791 0.096546024 -0.040290337 0.028650641 0.19066405 0.06404107 -0.21094319 0.01978899 -0.12019793 -0.021272643 0.06844797 0.15383151 0.17475396 0.12544139 -0.010764634 0.17789991 0.018786171 0.19039527 -0.22518691 -0.09053094 -0.015826942 0.07775107 0.340951 -0.023804609 -0.020203324 -0.06515886 0.28609297 0.08971778 0.0127668455 0.10098657 -0.0374928 -0.070435435 -0.24402447 -0.15894417 -0.035713352 -0.05410091 -0.33059534 0.25213578 0.068286546 -0.23101683 -0.20115459 -0.03674232 0.14874706 -0.10116976 0.19035026 0.077256374 0.109137565 -0.09557019 -0.25310105 0.016480058 -0.0262002 -0.054137625 -0.16203575 0.010815835 -0.07669405 -0.15897878 -0.24276224 0.091809265 0.09731533 0.12608214 0.35018286 -0.27255315 0.062873155 -0.040383678 0.15928815 -0.0433364 0.118907526 0.18242306 -0.42560703 -0.16537388 0.14972252 0.18443994 0.174515 -0.19040065 -0.0039478345 0.013255359 0.04289559 0.105953954 -0.2704709 0.0055069807 0.09007814 0.33350474 0.13910617 -0.043570675 0.12431031 -0.1540838 -0.04695414 0.27209672 -0.3167514 0.14400414 -0.074521594 -0.15761615 -0.20198327 0.28282535 -0.017663512 0.046192326 0.04050312 0.16362707 0.06261284 -0.34027842 -0.026194755 0.033659432 0.06901106 -0.082561985 0.113081716 0.11139928 0.049242806 0.037829246 0.17546557 -0.12819098 -0.05934078 -0.108845755 -0.0019071565 0.11449556 0.09270015 -0.0976298 0.048308663 0.02372616 -0.23108381 -0.030551698 0.026107155 0.046663467 -0.015191333 0.11769838 -0.033148736 -0.040604096 0.08815604 0.087813705 -0.2028116 -0.061078124 -0.013760599 -0.06907057 -0.07224705 0.003621539 -0.021821983 0.013319972 -0.20795889 0.066462256 0.05955456 -0.21336687 -0.097410925 0.08127828 0.057676733 -0.20405303 -0.13914068 0.15514182 0.19590975 0.14375767 -0.11440888 -0.06612481 0.059065733 -0.03420021 0.069126025 -0.10995899 0.056552526 0.14640819 0.014704859 -0.12459488 -0.17819431 -0.15038721 0.11835332 -0.006754561 0.046880517 -0.16831549 -0.059820104 0.104072616 0.005167523 -0.22605859 -0.048959117 0.24464141 0.07898363 -0.11254072 -0.19954924 0.070423916 0.16411164 0.08464608 0.030758068 0.20903443 0.08178749 0.2631572 -0.06407722 0.027291426 0.1571908 0.023015488 -0.00096368813 0.08383579 -0.17216213 -0.22109579 0.1546738 -0.09531004 0.027497165 0.1953105 0.26239383 0.024180116 -0.040935792 0.088243656 0.022572236 0.30253252 -0.030410646 0.063475944 -0.26293448 -0.004846198 0.13652715 0.22884175 0.03736517 -0.10899785
