100 64
38 -0.80463195 -0.605016 -0.23211655 0.46520537 -0.09706737 0.12792799 -0.04485826 -0.108796306 0.34149256 -0.5583312 0.1708125 0.43210244 0.41613686 -0.19952747 0.038337607 -0.49782714 -0.25982755 -0.10347977 0.54577875 0.44614846 -0.5215376 -0.4742049 0.03875601 0.40295088 0.30234623 -0.41842023 0.018271448 0.12261183 -0.04603939 0.6271196 -0.13882759 -0.16208187 -0.04752555 0.016745754 0.24747564 0.589953 -0.17370433 -0.057438023 -0.42941123 0.13415584 -0.30251524 0.37637892 -0.16323876 -0.06820317 0.5458041 0.03444409 0.19813006 -0.48832086 0.006608566 0.12457973 0.15192918 0.21063682 -0.021860179 0.06489883 -0.55073035 -0.0869947 -0.03762239 -0.32786837 -0.17865838 -0.084908284 -0.02453553 -0.40535596 0.009739997 -0.35421097
4 -0.78737855 0.036444627 0.3282827 0.022636618 0.15410385 0.23447208 -0.2586786 -0.6603783 0.20306255 0.06861399 -1.0590408 -0.1910755 0.68676156 -0.117740236 0.5609774 -0.10666385 -0.04626853 -0.29153642 0.010207804 0.074902534 0.23724543 -0.14106388 -0.16526765 -0.0955835 0.39756012 -0.1270841 0.50311583 0.22506912 0.13392887 0.052971218 -0.18299966 -0.25995037 -0.44960296 0.4502093 0.123902075 -0.09841374 -0.061790824 0.2768843 -0.41199434 -0.06875197 -0.047167137 0.3162817 -0.28820777 0.3012232 -0.20316258 0.5610642 0.20960858 0.0650309 0.2664042 -0.26927233 -0.23890708 0.15003614 -0.0037288247 0.15852891 -0.050975684 -0.2395867 0.4751212 -0.03340326 -0.03899092 0.26057795 -0.105162896 0.16255882 -0.014668999 -0.29216534
96 -0.60249555 -0.30288276 -0.024448125 0.03028421 -0.222268 -0.048165537 -0.11640088 0.011504075 0.33370778 0.4295571 0.27747896 -0.25076723 -0.030269703 -0.2652041 -0.424059 -0.25755486 -0.09215285 0.23377247 0.30731824 0.2784394 -0.3565855 -0.09165157 -0.44966432 0.12982875 0.053204358 -0.1442257 -0.19799864 0.30378327 -0.81113917 0.44633362 0.23772345 -0.45485684 -0.23601411 -0.05868157 -0.46054435 0.070573546 -0.13227661 -0.46349746 0.08425374 -0.093042776 -0.043326918 0.35760617 -0.24550106 0.58825165 -0.24363476 0.45294264 0.2032368 -0.5354468 -0.0026071367 0.26176032 -0.0384268 -0.066244975 -0.10052908 -0.5339778 -0.15797177 0.30684358 0.39334258 0.33698577 0.4092329 -0.4433558 0.26686844 -0.5700034 0.23819067 -0.02493133
46 -0.5585846 -0.13051017 0.31367075 -0.36452076 0.38039395 -0.5043369 -0.07056666 0.32952896 -0.37731752 0.14896803 0.48244655 -0.04595299 0.16764612 -0.06315961 -0.24443156 -0.3254677 0.13710488 0.0668585 0.29786092 0.27432176 0.108010426 0.06810426 -0.52152956 -0.45015723 -0.51525515 0.3102159 -0.2516529 -0.09390659 0.36721325 0.4501259 -0.18715529 0.3786821 0.40186355 -0.02713273 0.19527487 -0.2738514 -0.5884066 -0.23528828 0.32094234 0.08367982 -0.05247416 -0.35562637 0.3596784 -0.66236424 0.3949396 0.08913868 -0.48809588 -0.07402004 -0.57111955 -0.058798086 0.3220546 0.08254532 0.19529395 0.5673542 -0.39351627 -0.090612434 -0.64114404 -0.080513455 -0.10784468 0.62768537 0.20057708 0.18365522 0.4719593 0.33882207
36 -0.28699937 0.28509796 -0.24657808 -0.15567549 0.36122 -0.119104244 -0.24275 -0.42769116 -0.19923644 -0.20521657 0.31796932 -0.72758824 0.3733828 -0.16631897 -0.2494117 -0.535777 -0.29359528 -0.037566304 -0.01192022 -0.0007692924 0.0020641717 0.1962195 -0.50957716 -0.19719093 0.19848463 0.28561792 0.17352648 0.56575817 -0.3730526 0.128241 0.0021328963 -0.26224843 -0.13537966 -0.14793588 0.35697007 0.3194964 -0.46355924 0.016619252 0.34559447 0.31315425 0.16245086 0.38054767 -0.29331446 -0.17377697 -0.16344652 0.16479784 -0.15125966 0.5520351 -0.45713094 -0.44789496 0.29191986 0.01952662 -0.32492313 -0.18294998 -0.11814008 -0.11884189 0.4473786 0.2913778 -0.30510652 0.10507523 0.80736136 -0.35800174 -0.14707294 -0.08723482
66 -0.2991317 -0.29292303 0.2305538 -0.14746174 0.39645287 0.7748713 0.01703177 0.17707095 -0.11573082 0.21493067 -0.26977426 0.33897611 0.15154071 -0.34607044 0.23412919 -0.8183483 -0.29425958 0.35632044 0.18514526 0.41088137 0.5594879 -0.26035964 -0.62127453 -0.19379185 0.08151604 0.10499518 0.51263124 0.729881 0.33493817 0.0068634786 -0.018947074 0.14498241 -0.28792688 0.426498 -0.5329265 -0.10088012 0.15884644 0.2980993 -0.44964883 0.1573789 -0.48815534 0.46979246 0.069060385 0.03519391 -0.611481 0.4087112 0.2845441 -0.56337994 -0.006478437 0.40448958 -0.49701947 0.033437423 0.17439438 0.3991248 -0.098171934 -0.35094735 -0.37205303 0.13950248 0.49974844 0.40709543 -0.25802588 0.39185053 0.009934167 -0.38778225
39 -0.8069983 0.1254929 0.06813138 -0.036578093 0.23257957 0.32734114 -0.0024995029 -0.4098119 -0.3839156 0.35260633 -0.46091816 -0.20626952 0.10475585 -0.018660245 -0.10447071 -0.50051624 0.048637174 0.3910227 -0.22402449 0.5260694 0.45219564 0.2530156 -0.42590582 -0.52661633 -0.117673494 -0.42132154 -0.01566575 -0.042791724 0.12923385 0.0005126109 0.025593346 0.32079348 -0.44469476 0.26102963 0.15559202 -0.08702722 -0.27252132 0.054630976 -0.20169461 0.21477555 0.048363373 -0.16018875 -0.5465353 0.033639364 -0.06597918 0.20210503 -0.24639994 -0.09751617 -0.0074261385 -0.25517878 -0.19037631 -0.27319357 0.2619826 0.21464615 0.35275027 0.05489542 -0.56722504 0.6199646 -0.054351527 0.19857718 0.41934773 0.09109399 0.18488818 -0.0925631
15 -0.35569698 0.1388279 0.0029185663 0.4582475 0.038256887 0.009016172 -0.05834306 -0.020460123 -0.19728152 -0.55150217 -0.16367953 -0.22016741 0.5164607 0.14942786 -0.32813835 -0.048385117 -0.30801556 -0.5140255 0.008797514 -0.3131055 0.05870289 -0.68151826 -0.26188356 -0.12794423 -0.17500061 0.07198264 0.06656353 -0.2814015 0.055780992 -0.07293918 -0.39466026 0.11014282 -0.2537027 0.3269581 0.07464742 0.1305883 -0.7960792 0.7232552 -0.065150656 -0.35472828 0.03541041 0.39068785 -0.58247 0.1968308 0.087317646 0.39887938 0.10798872 0.18657143 -0.38493988 -0.36841065 0.32987884 -0.14538077 0.14464416 0.31290734 0.3422119 0.13288477 0.16728774 0.61986685 -0.036145393 0.05028352 0.1393815 -0.39634642 0.21694839 -0.020183759
16 0.23333116 -0.0031269202 0.36828807 0.1531939 0.18514238 -0.6665646 -0.24532485 -0.17684454 -0.08196827 -0.28540647 0.012612976 -0.6861453 0.40258354 -0.09004579 0.018493041 -0.24123065 0.11753979 -0.21264023 -0.30716676 -0.44954902 0.21396346 -0.73330444 -0.5389066 0.07377072 0.09822847 0.31412977 0.16029935 0.07046375 0.024088977 0.29624203 0.3850376 0.17068768 0.3919397 0.08868065 0.00036671173 -0.40855432 -0.30422372 0.31126115 0.39999616 -0.43420425 -0.43188643 0.2237903 0.33691007 -0.037480213 0.26665664 0.3202817 0.11948003 -0.2404162 -0.74394864 -0.15130766 0.60009044 -0.34288597 -0.79291195 0.014479235 -0.04683431 0.2611657 -0.06439651 -0.119011685 -0.2561538 -0.12582761 -0.018419119 0.15236168 -0.05621735 0.06111049
55 -0.39173046 0.7684658 0.3652918 -0.22674786 -0.02064161 0.57411116 -0.6536496 -0.6497401 -0.19545045 -0.14697672 0.26764682 0.224648 0.20939599 0.19578892 0.3718906 -0.43295982 0.5323447 0.14902757 0.049970057 0.42108795 -0.094243854 -0.5337898 0.12476749 0.0035377531 -0.24643737 -0.13348901 0.31737986 0.25923103 0.16370061 -0.14710338 -0.08670347 0.5767147 0.33462363 0.3616007 0.16627859 -0.10635741 -0.30104434 0.086843394 0.0862527 0.0003565724 0.22667903 -0.45289263 -0.25269076 0.14479586 0.14272328 -0.11964427 -0.1684082 0.16742042 0.13591449 -0.46675494 -0.2125866 0.49045956 -0.57994527 0.22575645 -0.16965011 -0.27268872 -0.18603933 -0.40475473 0.5639742 0.47899446 0.24685203 0.10909008 -0.124369174 -0.32287312
77 -0.85049456 -0.6978824 -0.21272457 -0.5004916 0.30462322 -0.02207737 -0.30441564 -0.6163308 0.09424548 -0.53073597 0.62609047 -0.05433176 0.23797384 -0.41408452 -0.12086016 -0.26836094 -0.08493003 0.51503813 0.3422684 0.4109784 -0.23463759 -0.18417875 -0.44644445 0.0095217 0.10215545 0.0731733 0.08777296 0.072486654 0.0859854 0.6811458 0.23966488 -0.020165065 0.2581456 -0.21252425 -0.01651098 0.33254087 -0.14343418 0.38737583 0.1491676 0.45238653 0.31076992 -0.009661339 0.29221177 -0.30667344 0.08054785 -0.1292452 0.10048681 -0.2822761 -0.32484916 0.023434648 0.49507004 -0.07391443 0.15368575 0.39080593 -0.10066898 -0.49415305 -0.13295497 -0.09963026 -0.12596963 0.40910864 0.08120369 0.17475599 -0.017489199 -0.02366802
42 0.27077863 0.08468513 -0.13630207 -0.099007346 -0.071917996 0.049315486 -0.68769884 0.3931604 0.07099843 0.11044583 -0.3749009 0.59061706 0.3768014 -0.040638976 -0.04157273 -0.31896418 0.039400507 -0.60804045 0.17826846 0.43820047 -0.52242327 -0.3228498 0.13106558 0.38590983 -0.19682296 0.4222401 -0.19944206 -0.21735916 0.20839761 -0.12772976 -0.3470728 -0.21576487 0.0037633996 0.28194547 0.8162137 -0.10324685 0.15170427 -0.16157712 0.4514618 -0.17814599 -0.0733332 -0.26281446 -0.15637353 0.13828425 -0.59125674 -0.12957543 -0.02623306 0.0028327317 -0.3886815 -0.24904141 -0.4496518 0.8930494 -0.08849215 -0.016289039 -0.326683 -0.0420842 -0.3310478 -0.37189537 0.07683311 -0.059756726 0.13371001 -0.39406934 0.32155868 -0.32273367
19 0.0028649396 0.14543588 0.20042965 -0.030942744 -0.4175009 0.15676019 -0.22947226 -0.44785863 -0.026028542 0.055896737 0.35094377 -0.49744934 -0.37489665 -0.35338905 -0.07296141 -0.9487888 -0.0006782612 0.10548844 -0.07687103 -0.28357375 -0.36617085 -0.38191923 0.21542734 -0.13575166 0.20325023 -0.12508377 0.1388652 0.39937547 0.3924246 0.053162005 0.10831471 0.2580721 0.073220916 -0.00406834 0.6747926 0.42015857 -0.12790005 -0.2727975 0.1420867 0.08491415 -0.082962625 0.057550307 -0.44637576 -0.5268651 0.74518025 0.2931196 -0.7422419 -0.2757193 -0.70899487 -0.19253054 -0.45250815 0.3452161 0.24248895 -0.4870433 -0.037441567 0.62960374 -0.006161607 0.18546352 -0.1630031 0.2716331 0.6816381 -0.105310924 0.19455068 -0.14320105
0 -0.16122937 1.0396982 -0.35197785 0.03410998 -0.19113538 -0.3511294 -0.4508813 -0.19747724 -0.3729718 -0.33301142 -0.040234793 0.6235639 -0.20196587 0.22777466 0.5733908 -0.59200484 -0.12169448 0.11737101 -0.43875462 0.26057705 0.23569907 -0.2537252 0.047891643 -0.27715772 -0.15754308 -0.3636788 -0.019141233 -0.23053347 -0.35128078 -0.48634684 0.3610841 -0.19625139 0.34004903 0.21131475 -0.2953162 0.079747364 -0.4476969 -0.0721357 0.052336164 0.00012236179 0.60931134 -0.18571632 0.18880533 0.25711012 0.02674401 0.20465133 0.32147893 -0.032996718 -0.037786663 -0.058797885 0.120849624 -0.16903192 0.69925004 0.3162463 0.23747246 0.17391415 -0.30087307 -0.008224924 0.24189731 0.15550286 -0.21202546 -0.2679591 0.05206161 -0.13448182
81 -0.24636054 0.7697581 -0.18637243 -0.51413196 0.3828891 0.051498923 -0.337498 -0.42466864 -0.30116084 -0.45768976 0.2181646 0.110916056 0.20157994 -0.13718188 0.9620697 -0.12847944 -0.1516527 0.073166646 -0.2666642 0.2878295 -0.6621156 0.048304565 0.15984847 -0.42200506 0.052138753 -0.24948795 -0.19365685 -0.43313548 0.15181406 -0.29049808 -0.16852072 0.09989162 0.115060724 0.01583695 0.22947805 -0.22192298 -0.23657797 -0.14474835 0.2117436 -0.06885544 0.4201296 -0.25009292 0.51359916 0.5233849 -0.42705446 -0.18415955 -0.33362418 0.007982741 -0.34287652 -0.33440495 0.070999466 0.46191347 -0.31851465 0.121780045 0.16522545 -0.03426756 -0.7055122 0.4607313 -0.5017887 0.022348486 0.06661461 0.29837444 0.29355007 0.2566062
84 -0.9756352 -0.07252887 0.070293576 -0.18925714 -0.2777469 0.45286432 0.44863117 0.37333637 0.3247824 0.7259308 -0.8539678 0.44057402 -0.19957583 -0.23578575 0.4149938 0.038220786 0.13841966 0.2731031 -0.0352689 0.020807076 0.079197 -0.044722974 0.021705508 -0.36042455 0.07919237 -0.22957204 -0.07968863 -0.44167972 -0.28395084 0.55785084 -0.48329705 -0.025777774 -0.30420357 0.4599273 0.68442464 -0.42454746 -0.4390671 -0.5236187 -0.07999547 -0.1314145 -0.23254426 0.7222619 -0.2631911 -0.07427766 0.30549878 -0.09395597 -0.27908537 0.018057756 -0.38837478 -0.108551085 -0.20972063 0.07834922 0.37012264 0.07937607 -0.35386893 0.4910443 0.08215042 0.0023626182 -0.0874413 0.18899828 -0.17990224 0.14855713 0.18556051 0.12571299
37 0.46604574 -0.682354 0.13275951 -0.11337793 0.2917513 -0.13739227 0.06802258 0.050021134 0.06701189 -0.45082366 -0.47155538 0.77982527 0.29094988 -0.018606165 0.52041996 -0.13920107 -0.14776179 0.025770536 0.01758614 0.3429042 -0.10343188 -0.41634378 -0.46902776 -0.12353657 0.45136464 0.341425 0.04417676 0.1990464 0.34325945 0.11940071 0.18607111 0.058253396 -0.18905035 0.38431397 -0.015282789 -0.12804243 0.51977366 -0.007313574 0.33282143 0.1811681 -0.69296086 0.12487591 -0.096478306 0.5835418 -0.25569603 0.29799876 0.35767382 -0.54467875 -0.46511954 0.04026051 -0.109656475 0.09271391 -0.12939884 0.04971567 -0.24080393 -0.024253631 -0.28041008 0.035454452 -0.10678101 -0.2117799 -0.28169203 0.3426812 0.32839438 -0.12454782
24 -0.6528581 0.5060486 -0.078162484 0.040987372 0.27694884 0.18324018 0.26394364 -0.18428093 -0.3502501 -0.16232574 -0.26194304 0.074091315 0.38996044 0.22671051 0.21895218 -0.0140718045 -0.3481705 -0.10236614 0.56142795 0.25289926 -0.5968905 -0.013711813 -0.25935823 -0.44836208 -0.04142897 0.025611958 -0.4169042 0.15746234 0.15624645 0.01672597 0.28121886 -0.27978107 -0.5216683 0.69678444 0.08058253 -0.2114045 -0.08315228 -0.12652636 0.37303728 0.46284267 0.6789038 -0.06598897 0.395213 0.6924625 -0.25316256 -0.29637733 -0.030753152 -0.015786596 0.17771602 0.05172676 0.20237342 -0.08088756 -0.7654938 -0.20243646 0.17715357 -0.006225419 0.041064214 0.37226486 -0.25298694 -0.28139475 0.4131968 -0.25656897 -0.28861928 -0.120576926
2 -0.88482577 0.40933767 -0.6875603 -0.6321583 0.14705196 -0.44122836 0.0696057 0.39111778 0.7423544 0.18491878 0.10502094 0.03767919 -0.17304526 -0.09673072 -0.29747352 -0.063832566 -0.018013334 -0.25082153 0.29782656 0.35013807 -0.31163383 -0.4548066 -0.42732593 -0.16933213 0.06859571 0.25836715 -0.41584143 0.3132479 0.18039536 0.038399357 -0.39943647 -0.22682925 0.13934453 -0.4694691 0.5503656 0.2866487 -0.12000967 -0.22837892 0.64387625 0.2869108 0.50851184 -0.23082413 -0.037242588 -0.48195064 -0.2848215 -0.30837905 -0.22920185 0.48119298 -0.2825571 -0.1591922 -0.46923643 0.14057384 -0.09904387 0.16135193 -0.021629676 0.17375925 0.37110892 0.35515785 -0.08755775 0.49825183 0.27655578 -0.29654402 -0.1130201 -0.23098226
25 -0.5561299 0.32696158 -0.48162317 0.40949327 -0.38242522 -0.47969624 -0.036667485 -0.32658413 0.027144896 -0.21184303 -0.42383048 -0.18450211 0.21983567 0.2508241 0.4659768 -0.2061341 -0.6712313 0.16167262 0.2438091 -0.013834175 -0.14412245 0.16405724 0.09118086 -0.0932255 0.07430511 0.3464555 -0.46701992 0.35153264 0.011330089 -0.12745254 0.15886284 -1.0571252 -0.12016004 -0.3901246 -0.037394334 -0.3728358 -0.2188127 -0.20120266 0.052715793 0.42137405 0.38329297 -0.5772991 -0.26855078 0.5117693 -0.21899858 0.18313475 0.12475592 0.027378878 0.24617349 -0.24766347 0.18508689 -0.09163823 -0.16035269 0.15333448 0.33889732 -0.13946432 0.69297624 0.19642773 -0.21085538 -0.35482556 0.054431662 -0.1845971 0.091109805 0.46510163
60 -0.3202289 0.1367164 0.47135153 0.5533055 -0.11643473 -0.22469074 0.13632885 0.32711595 -0.7480316 0.4115471 -0.6039276 0.18828289 -0.19140786 -0.12954584 0.5618677 -0.6417305 -0.14365381 0.146948 0.02761244 0.13864344 0.27230245 -0.08325172 -0.2304066 -0.20425136 0.025105583 -0.3766681 -0.06483897 -0.08769107 0.04520305 0.1590147 0.34986335 0.14346483 -0.28077474 0.6554591 -0.8178265 0.017803336 -0.66647446 -0.7025548 -0.46216488 0.09554191 -0.5191514 0.17130336 -0.6270968 0.25061008 -0.02346662 0.87872046 -0.50140685 -0.00043254887 0.1437194 0.28455687 0.38567096 -0.40235758 0.11537674 -0.16810007 -0.8290341 0.54466426 -0.8666106 -0.16283672 0.25342384 0.21283074 0.17488931 -0.1595793 0.12179779 -0.13624378
7 -0.33188796 -0.29462913 0.06997477 -0.495016 0.31744915 -0.30312234 0.22667634 -0.07831615 -0.011350244 -0.3903372 0.019679906 -0.044106703 0.8912619 -0.07755429 0.44764817 -0.53727967 -0.058767483 0.4196727 0.032182455 -0.18042737 -0.2012685 -0.39421186 0.0020238468 -0.2471758 0.4429408 0.5906426 -0.09189765 0.5199817 0.75076514 -0.1712008 -0.25338402 0.072013624 -0.06387892 0.17085606 -0.13313338 0.070906565 0.2920072 -0.021432607 0.32631326 0.2314181 0.18171924 -0.3237126 -0.566926 0.39008 -0.0038773222 0.34788236 -0.48094043 0.44459367 -0.300567 0.10400133 -0.34689006 0.103743866 -0.46987477 0.11767642 -0.34126556 -0.39799148 0.2735499 0.17732154 -0.06474215 -0.21443829 0.8559533 -0.058193643 -0.31908292 -0.006953714
99 0.27751333 0.2731972 0.2645823 0.2886168 -0.051474735 0.25872535 -0.09842036 -0.12940538 -0.4268737 -0.3668818 -0.1776375 -0.12830266 -0.11306319 0.11140434 -0.3712534 -0.630238 -0.13008907 -0.5968472 0.29964116 0.41813987 0.2128934 -0.65343386 -0.2949943 -0.0121781165 -0.41236144 0.54274553 0.20898023 0.46200806 0.99885696 -0.357309 -0.031225601 0.1271018 -0.10750501 0.20519684 0.5031304 -0.27374944 0.26295656 0.7767251 0.22441511 0.1133513 -0.09356495 -0.35015023 -0.08209653 0.021993132 -0.030493543 0.114622034 0.23141855 -0.5940089 -0.26679584 -0.2135321 -0.2202963 -0.14612934 -0.41853228 0.040959243 0.6777064 0.27751896 -0.07070979 -0.08800679 0.2188621 -0.20000096 0.26733616 -0.18233295 0.14345229 -0.49633092
12 -0.6836393 -0.1485891 -0.5598447 -0.008802428 0.15018414 -0.59632283 0.3321208 0.1827797 0.24541241 -0.09165503 -0.034764476 0.3460707 -0.05513052 0.15237617 -0.42958036 0.15645301 -0.4594274 -0.4126893 0.5796067 0.4532996 -0.1377543 -0.08683374 -0.7839468 0.14167671 -0.11540484 0.4581901 -0.45249623 0.79676855 -0.15325558 0.3073838 0.20827493 -0.5570865 -0.32550117 0.20313378 -0.08852103 -0.2593537 -0.5385759 -0.36326602 0.41510737 0.46043316 -0.30632547 -0.463318 0.107952654 0.09082653 -0.2008385 -0.23455434 0.020940822 0.077485986 0.22820666 -0.22528183 0.041495964 -0.0959758 -0.2874698 0.18899629 0.060265325 -0.03666827 0.5022784 0.5106154 0.021337042 -0.18155822 0.0092102485 -0.14557599 0.18666023 -0.039615825
54 -0.100529864 -0.8123788 0.38856933 0.40625453 -0.2061278 -0.27226433 -0.3226487 -0.022458082 0.46476716 -0.164845 -0.023784047 0.25833994 0.25946566 -0.61119616 -0.29661182 -0.0286257 0.1900854 -0.013054674 -0.16452666 -0.09288232 -0.16278239 -0.97819877 -0.41054252 -0.106833234 0.32027543 -0.009474333 0.21744496 0.060587954 0.6361341 0.5340307 0.17749041 0.112062074 0.575322 0.39274886 -0.1797095 -0.14642434 0.39808995 0.44295764 0.42886934 -0.5543995 -0.5974382 0.35416138 0.39021695 -0.040816076 -0.0437107 0.3710172 0.33748323 -0.80646574 -0.5901061 0.28435 -0.058736898 -0.4403319 0.39956352 0.48060542 0.07142966 -0.11656881 -0.50332546 -0.12052301 -0.3517768 0.130562 -0.7671137 0.35435975 0.32283062 0.13634181
21 -0.04129865 -0.1254219 0.2563303 -0.31146553 0.0032192615 0.25255492 -0.34698683 -0.11794328 0.19961235 0.14128895 -0.046302326 -0.51553035 0.2782508 -0.26479718 -0.7956162 -0.22207193 0.6245006 0.41204014 0.07915939 0.08767857 -0.105708055 -0.35491997 0.0033223324 -0.3376497 -0.3041572 0.45696962 -0.019049127 0.45409697 0.487779 0.18334574 0.023947755 -0.03220801 -0.16289954 -0.2837955 -0.023390153 -0.45352888 0.21438193 0.347884 0.36398467 -0.27509138 0.50527674 0.16315717 -0.49060744 0.052464563 -0.9002692 0.3439729 -0.36211184 -0.21254787 -0.4645653 0.07516908 -0.0696826 -0.33168167 0.28455555 -0.044452105 0.6015637 -0.20017481 0.18353723 0.5667652 0.19671567 -0.14531745 0.31863385 0.09771771 0.3137344 -0.019440126
91 -0.60619277 0.0017343807 0.16712028 0.05045815 0.1751703 -0.6888551 -0.10342852 -0.27687547 0.76927507 -0.06509509 0.026884753 -0.5934054 0.5706151 -0.27437082 0.4405735 -0.030709196 0.6054952 -0.2262095 0.31057304 0.21845007 0.016356714 -0.6008973 -0.1152543 -0.5572027 0.6352416 -0.31995356 -0.6179863 -0.061189268 -0.14956574 0.0027617675 0.23931001 -0.16147599 0.1667362 -0.2614706 -0.07826957 -0.37647742 0.0026442076 -0.3880648 -0.34505823 0.29791847 -0.3419638 -0.012920278 -0.05370571 -0.06361336 0.098956265 0.61811715 0.1873198 -0.14389308 -0.11993113 -0.18037677 0.33736193 -0.24710137 -0.37026381 0.8251256 0.5919939 -0.6259032 0.13191065 -0.6193672 0.39620322 0.501108 0.2690861 -0.29820824 -0.08261207 0.8086684
74 0.28291285 0.018575067 0.051412866 0.4977724 0.25028375 0.098318316 0.33117676 0.36162698 0.86588085 0.24009284 -0.12642261 -0.045799762 0.3693853 -0.014065021 0.7510918 -0.38522753 0.17585006 -0.034197338 -0.048436992 -0.33242467 -0.06108369 -0.35451072 0.23935178 -0.32786167 0.67613626 -0.047690656 -0.7170267 0.090653196 -0.4697732 0.17310102 -0.10273935 -0.3867291 -0.39151117 0.2425152 0.19244616 -0.1555328 0.0566214 0.18063061 -0.26384473 0.1096225 -0.50842667 0.34462667 0.067869455 0.022590907 -0.074173115 -0.14264241 -0.15542056 -0.4042392 -0.8622818 0.059101988 0.32041982 0.37847817 -0.6621932 -0.23129901 0.39473304 0.26414678 0.3300235 0.3394845 -0.2259943 -0.48950684 0.1314735 0.030072734 0.39257917 0.76103103
1 -0.3775136 -0.33283323 -0.39660963 0.036601696 0.80368614 0.31303683 -0.121092685 -0.09957123 0.07431199 -0.18498991 0.02753161 0.2509583 -0.26068476 0.07645658 0.3381808 -0.26891154 -0.6968043 -0.044110984 -0.06293983 0.24537164 -0.28339663 -0.06654566 -0.45853955 -0.055304967 0.11913456 0.15672174 0.07520441 -0.03749161 -0.14592476 0.026487205 -0.5689155 -0.005128141 -0.028517462 0.36398384 0.32516363 0.5589703 -0.44280013 0.17412722 0.21963604 0.24105425 0.012763234 -0.31501928 0.13374934 -0.34810457 -0.049776778 -0.45786417 -0.13085842 0.14524497 -0.6530654 -0.37282905 -0.0728792 0.5190646 0.041734476 0.118751384 -0.15469202 0.18953724 -0.59458464 0.5959856 -0.2924085 0.028334968 -0.085158914 0.22462663 0.47220954 0.131894
88 -0.055479392 0.3092257 -0.1879496 -0.22860432 -0.14084527 0.13893901 -0.2658728 0.075006425 -0.19359921 0.35355657 0.75007683 0.15322989 -0.07195318 -0.52272856 -0.37108603 -0.3067638 0.07134954 0.30816564 0.4518949 0.35838157 0.24878897 -0.79541874 0.07888432 0.040018503 0.03131579 -0.3861063 -0.27879855 -0.1377382 0.2729137 0.19902515 0.34025797 0.7972445 0.067837045 -0.111774646 0.57046795 -0.116895415 -0.33539027 -0.05233039 0.43739417 0.667402 0.1862466 0.4368342 0.2710634 -0.40978578 0.06772668 0.43835026 -0.30822542 -0.5862612 -0.33536565 0.12697096 0.32864994 -0.025992554 -0.1990022 0.3221787 0.27766573 -0.17064641 -0.08182916 -0.023294562 -0.020951603 0.51523685 0.07670032 -0.41031757 -0.2885008 0.050073024
64 -0.4585858 0.3911284 0.16868702 0.14338969 -0.32302696 0.77311605 -0.17382026 -0.37003878 0.106727324 0.37824398 -0.36807898 0.2444991 -0.2702369 -0.186438 0.02811096 0.2858298 0.21694465 -0.38702324 -0.24776454 -0.05223564 0.1144229 -0.69944537 -0.44071305 0.08915385 -0.23170014 0.26784477 0.8282019 0.1549722 0.16321841 0.47384182 -0.45779 0.1545222 0.0574957 1.04754 0.2999243 -0.36816108 -0.40009305 0.15079495 0.48884815 -0.4796756 -0.09597095 0.15695062 0.09359892 0.42178234 -0.353911 -0.1837632 -0.056809764 0.4738258 0.08029514 -0.54833066 -0.27246997 -0.04630173 -0.45518354 -0.22400512 -0.3474846 0.2834984 -0.085289985 -0.10838287 0.12816533 -0.07533028 -0.38037226 0.49440432 0.015317902 -0.17065702
90 -0.32188985 -0.1432414 -0.08311352 -0.8026872 -0.09756897 0.086662605 -0.42874548 -0.28929478 0.37845904 -0.15467711 -0.40370312 0.9008658 0.023669453 -0.046656366 -0.041162606 -0.4868533 0.10986013 -0.14762025 -0.093983844 -0.041485123 0.06423271 -0.018174535 0.3373907 0.15188056 -0.41338536 0.38752505 0.447475 0.023574289 -0.22391848 -0.16363801 -0.03918124 -0.33113676 0.0007291623 0.27503064 0.6584811 -0.19533978 -0.46446875 -0.4879285 0.47920528 -0.1824121 0.3883795 0.19304374 0.656719 0.062854275 0.13296941 -0.3045121 0.27839494 -0.10740029 -0.12235503 -0.12919049 -0.6281751 0.53038305 0.761352 0.54692066 -0.045249425 -0.33970064 0.5881623 -0.10920851 0.35211954 -0.40843332 -0.20264083 0.097533494 0.22472616 -0.5291273
5 -0.5880435 0.47391805 -0.10891507 0.10289714 0.30571094 -0.39121765 -0.24585739 0.014843896 0.46310526 0.5845043 -0.6206888 -0.44529116 -0.07493726 -0.48144782 0.08541543 -0.4999795 0.048366304 0.015705677 -0.61961544 -0.26355064 0.21822956 0.035189725 -0.29092807 0.3252485 0.22415693 -0.031303696 -0.5949467 -0.10500742 -0.81824124 -0.14007773 -0.08747983 -0.13720797 -0.105697915 -0.46637163 0.39551648 0.27961546 -1.2443901 -0.3269664 -0.4176849 -0.24403496 0.2906171 0.45386928 -0.5031771 -0.7635267 -0.25531274 0.29179028 -0.48090634 0.29600456 -0.5164712 -0.2016126 0.2257556 -0.34541622 0.12517078 0.03403808 0.03942946 0.3279582 -0.44640988 0.1543645 0.08485339 0.32673046 0.47847113 0.1872085 -0.06729925 0.042183746
95 0.29203004 -0.4908074 0.31910017 0.16097231 0.16643886 0.004267077 -0.31765097 0.40732527 -0.07961368 0.083627224 0.020304643 -0.13735014 0.9056947 0.62728053 0.2356118 -0.5037512 -0.024123436 -0.28523707 0.117778815 -0.014026256 0.79051626 -0.16713454 0.0688489 -0.64830416 -0.35259342 0.13653852 0.38097975 0.40527835 -0.7382412 0.08309325 0.14563785 -0.19095331 -0.33754063 -0.0958806 -0.28386992 -0.05596208 -0.24536923 -0.13486603 -0.04169972 -0.3868051 -0.19396542 0.6565891 -0.10546162 0.07191717 0.26741263 0.4076881 0.4192952 -0.1743574 -0.15436566 0.23832196 0.26564893 0.70145684 0.44391805 -0.06438147 -0.49668908 0.10472689 0.1699547 0.25618285 0.6959796 -0.5316572 -0.68252 -0.33423504 0.44285646 -0.3372199
13 -0.7518244 -0.59541154 0.17226954 -0.21122943 -0.31839475 0.27950636 0.1631333 -0.113319196 0.15370359 -0.470184 0.1516112 0.5127178 0.20355105 -0.029276634 0.4906611 0.09120313 0.19334203 0.4510994 -0.0855623 -0.118350975 -0.6498809 -0.92116433 -0.41126528 0.43006894 0.15577155 0.052097656 0.01427649 -0.027290126 0.30001038 0.55353886 -0.25177506 0.51088834 0.241588 0.2579051 -0.2871098 -0.22972746 -0.105094194 0.42739388 -0.22003844 -0.08261814 -0.3581114 -0.29201093 -0.69916445 0.63059586 0.42585358 0.1096426 0.0572823 -0.4580446 -0.27972478 -0.30234912 -0.16918102 0.12968251 -0.09276871 0.2876352 -0.41764697 -0.09763505 -0.0147429 0.057473224 0.55566907 0.13457 -0.071490645 -0.010992825 -0.06326991 0.08955513
44 -0.26017332 -0.6240818 0.17889076 -0.2824231 0.38008153 -0.43038777 -0.2851309 0.055071406 -0.28135535 -0.034989905 0.5204621 -0.69886863 -0.18826023 -0.31196785 -0.08724891 -0.5267589 -0.2219195 -0.5994685 -0.094371654 -0.10267584 -0.10940682 -0.16759752 -0.70735806 -0.011794274 -0.18924627 0.37918532 0.26375777 0.4543233 0.31140164 0.3381957 -0.13204648 -0.16805446 0.36284104 -1.0223063 -0.31151766 0.5946816 -0.29988715 0.042245466 0.35300598 -0.11760896 -0.25533748 0.14557163 -0.34505582 -0.16173196 -0.15673007 0.33696833 0.022852117 -0.10634128 -0.49636155 0.11615916 0.22526163 -0.006764749 0.045325577 -0.00070770987 -0.46335772 0.21442112 -0.54003835 0.17748776 0.59852743 0.20414276 -0.087666534 -0.32772812 0.106973834 -0.5712451
61 -1.042878 -0.0790772 0.1670263 -0.0038610285 0.06391798 0.36152574 -0.18743461 -0.83503497 0.7010334 0.12093679 -0.6311169 0.6723638 -0.40574282 -0.45550168 0.24455278 -0.46609548 0.07372646 -0.21338648 0.50940645 0.06542036 0.1529261 -0.6951255 0.06598032 0.49502322 -0.17199585 -0.15772809 0.34280097 -0.515904 0.34931222 0.36372054 -0.22783947 -0.053658605 -0.4567487 0.08203329 0.33809075 0.5950755 -0.21411352 -0.078187674 0.33171394 0.5587046 0.37565425 -0.08017291 0.34367713 -0.12689523 0.47009677 -0.35626757 0.27772522 -0.0064345007 0.5635215 0.10625167 -0.48435792 0.11020055 -0.21806166 -0.04949232 -0.19696712 0.5430169 -0.024373215 -0.55023646 0.44503155 -0.023486646 0.045992494 0.2560798 -0.44270015 -0.8154203
78 -0.95659626 0.18887095 0.13375469 0.25218096 0.10975848 0.75089407 0.31256813 -0.071124144 0.3415971 0.24442056 -0.45794743 1.0908153 -0.19269091 0.18943018 0.41744357 0.4537705 0.020608958 -0.33408394 0.2843534 0.43692282 0.39755854 -0.19739327 0.030911991 -0.21483585 0.1790859 -0.31589544 -0.2602234 -0.0053862035 0.07655054 0.16208787 -0.5681843 0.10742572 -0.5815294 0.36930874 0.4624676 0.3455475 -0.90553737 0.071652085 -0.28988513 0.12200954 0.071836025 0.31715587 -0.18560603 -0.1823521 0.013249217 -0.19526464 -0.15309484 -0.026730297 0.13856816 -0.42636192 0.2286635 0.043415334 -0.0005535558 0.07764302 -0.052510154 0.11653533 -0.3179142 0.68811035 -0.16818018 0.22071849 -0.5131536 0.4663341 0.37122357 -0.02224524
50 -0.22609974 -0.030712018 0.58007604 0.0026627667 -0.19082901 -0.012795982 -0.11074247 -0.040072337 0.28881052 -0.109353244 -0.5386173 1.0785664 0.24580842 0.16842078 -0.021218136 -0.37480015 -0.03965917 -0.3508478 0.51443076 0.0010345922 0.07701034 0.34272197 0.049989026 0.20245363 -0.5827467 0.7420633 -0.7222965 -0.08090064 -0.2820007 -0.32617894 -0.046657488 -0.73926234 -0.51667386 0.2767718 0.32823983 0.021537859 -0.54935706 -0.58531815 0.07801697 -0.08549676 0.4084315 -0.0057492265 0.46024582 -0.3544782 0.16997069 -0.038381875 -0.10696389 -0.5437116 -0.21866089 -0.29553744 -0.34710094 0.54641205 0.23079315 0.36770418 -0.5594382 -0.35218874 -0.257645 -0.16062152 0.41038004 0.076783374 0.111133404 0.023342319 0.52882785 -0.023245713
11 0.18978867 0.65216297 -0.058252078 0.1485416 0.44573233 -0.18917069 -0.46568272 0.115808226 0.7381238 0.2947963 -0.028420739 -0.09918994 0.4282379 0.7824814 0.07312098 -0.060639404 0.852722 -0.22027318 0.159382 0.47587052 0.065276936 -0.47970387 0.22745265 -0.70505965 -0.012027023 0.13149227 -0.6507911 0.27661726 -0.21958955 -0.5388837 0.033622853 -0.29779875 0.23472305 -0.40395933 0.13437897 -0.3787263 0.37188506 -0.36816132 0.52976996 -0.08056423 0.38440627 -0.4776239 -0.28264722 0.06389349 -0.7636776 -0.19248049 0.24120016 0.18497951 -0.4058607 0.059447795 -0.13974081 0.19750379 -0.4726662 0.34235942 0.90102637 -0.2916874 0.11593545 0.08565758 0.66092724 -0.33520767 -0.113795914 -0.08679089 0.21519753 0.4284719
57 -0.4374678 -0.1708534 -0.26020047 -0.07391619 0.3315418 -0.48585322 -0.2502925 0.5789575 -0.25521752 0.38546234 -0.5644954 -0.18993987 0.35347363 0.20039119 0.050516747 0.20184879 0.15265888 -0.24482536 0.17740528 0.17947671 -0.15960021 -0.11351399 0.21982613 -0.15064584 0.22137792 -0.032136165 -0.5848884 -0.4872648 0.6703717 0.4365098 -0.45251364 0.12513167 -0.018693516 -0.32386994 0.76158196 -0.39162126 -0.19743371 0.29254565 0.13592048 0.04590111 0.17076103 -0.23448543 -0.6434323 -0.16972129 -0.47186702 0.14945725 -0.26177678 0.30084732 -0.79916865 0.17886938 0.70952696 0.06674713 0.32285693 0.0056856074 0.25695786 0.37592068 -0.12009863 0.3950576 -0.5094143 0.023974633 0.09444974 -0.115281 0.52590334 -0.0008098967
83 -0.16773203 -0.05575319 0.041029476 0.30343735 0.24431594 0.43216565 -0.3164401 -0.9516569 -0.07446766 0.20969434 0.028567817 -0.7721881 -0.27704751 -0.3687309 -0.10007651 -0.73748034 0.05136212 0.11299198 0.5502833 0.47141558 0.055985563 -0.20303443 -0.6636852 0.05900717 -0.36388087 -0.05823105 0.0005848838 -0.2219635 -0.4474912 0.11879209 0.26854044 0.10090063 0.33574215 0.87412846 0.31305483 0.20178027 0.282787 0.102288865 0.25267196 0.008788041 -0.1347742 0.26430786 -0.007935938 -0.2602462 -0.32432964 0.33253315 0.549021 0.1438202 -0.5012701 -0.38950786 0.39336547 -0.067747116 -0.34408656 -0.23270103 0.3073464 0.17976934 -0.5584902 -0.4825168 0.18802096 0.017172586 0.47417554 -0.83647126 -0.2987895 0.0830341
28 -0.55545294 -0.3630449 0.41988423 -0.5099881 -0.050048225 -0.42009056 0.2778344 0.63617593 -0.25262487 0.07281265 0.044037715 -0.22118005 0.23297384 -0.06761726 -0.18321042 -0.13875148 0.59070015 0.010727253 0.16642427 0.23746225 0.46250188 -0.5065421 0.18157268 -0.6919387 -0.33063766 0.039808042 -0.0567538 -0.47715348 0.23586413 0.73941225 0.22899716 0.020260848 0.042400755 -0.44321737 0.096667446 -0.25151598 -0.2489565 0.3259105 0.37784088 0.3213583 -0.060195178 0.38329136 -0.7745521 0.18218453 0.5751348 0.0715663 -0.2860235 -0.06284719 -0.14194386 0.23070395 0.7828255 -0.29468706 0.44959182 0.22421926 0.24312739 0.38440925 0.12369235 -0.39060435 0.632723 -0.050948963 0.2131868 -0.4123034 -0.10978737 -0.5328086
20 -0.16151857 -0.516574 0.0861398 -0.47955722 -0.22399662 0.64120734 0.22877458 -0.48114485 0.22698872 0.092033155 -0.13033493 0.58293796 -0.10981276 -0.489993 0.40165475 -0.6913218 0.15480085 0.13873312 0.22901405 0.31676793 -0.39528027 0.1951082 -0.8844189 0.03025986 0.023685064 0.2730884 -0.19732451 -0.26245767 -0.2762581 0.20109513 0.81801355 -0.17937656 -0.0034436544 0.4312852 0.26468584 0.41803432 0.25321603 -0.1861713 -0.02122464 0.53857124 -0.009186066 0.12341191 -0.21074855 0.34771743 0.041532647 -0.107256606 0.7550721 -0.48324054 -0.37636104 -0.31080133 0.104453996 0.0407938 0.7224516 0.041105643 0.2970623 0.1685205 -0.49705458 -0.5347324 0.74009824 0.37109295 0.12343576 -0.7700375 -0.1401056 -0.16455987
85 -0.46398258 0.11084704 0.11504449 0.8041544 0.08100018 0.19801486 -0.4638143 0.007467066 0.15868282 0.6409603 -0.010669357 0.15185091 -0.20536067 0.2610712 0.07131871 -0.37325963 -0.23086774 -0.17842716 0.60285234 0.34210032 0.56580716 -0.37253898 0.19204909 0.36336988 -0.056815997 -0.220331 -0.5847881 0.553065 -0.6391633 -0.2193892 0.22550048 -0.24836321 -0.038356148 0.3255581 0.06353931 -0.1615668 -0.49988437 0.30252215 -0.17378785 0.21473245 0.25918615 -0.13272478 0.36986783 -0.39212656 -0.08829057 0.19609408 0.4289179 -0.2422324 0.18309684 0.22002931 0.3670967 -0.088913076 -0.594873 -0.03451229 0.17772187 -0.24928533 0.096431136 0.08527969 0.5913893 -0.6115864 -0.0025065793 -0.31276447 -0.105894044 -0.28509533
89 -0.0044509396 0.18960685 -0.18766654 -0.22703661 0.76722777 -0.043215785 0.03420676 0.43360454 -0.07314082 -0.44082978 0.2403593 0.46463767 -0.057256706 0.64585394 0.43562323 0.07679357 -0.28149915 -0.25213313 0.41508013 0.21881486 -0.14168626 -0.5249637 -0.71920043 -0.09086915 -0.14592455 0.2526517 0.13001966 0.54191667 0.10956633 -0.08869701 -0.5197133 0.3227752 -0.045284342 -0.20759982 -0.745544 0.6611794 -0.64427483 -0.2920193 0.27708662 0.19143213 0.05897576 -0.26560986 -0.5431921 0.32428235 -0.3407218 0.28013882 -0.075169675 0.3696719 -0.3381854 -0.1861911 0.06175917 0.26195657 -0.25220603 0.04062036 -0.80028236 0.121961504 -0.08068343 0.65127534 0.6372473 -0.008810174 -0.28245535 0.15158176 0.11374571 -0.15882866
47 0.1560715 0.3435969 -0.2772241 -0.2144681 0.049490422 -0.7497519 0.13617875 -0.10984648 0.623865 -0.2072117 -0.09176788 0.16902567 -0.33408272 -0.057490338 0.6804045 -0.12336065 0.39910784 -0.08063897 -0.04237544 -0.20536642 -0.044949293 -0.83992773 -0.07827702 0.13851 -0.16208749 0.2515541 -0.3567175 -0.25310448 -0.40364304 0.5036324 0.1769002 -0.028784055 0.092667446 0.34207973 -0.23102435 0.017699834 -0.3268006 0.18862909 0.13798082 0.11327579 -0.37252092 -0.37994152 -0.07761825 0.35184714 0.29530147 -0.27355996 -0.117291905 0.20399424 -0.29653978 -0.36746478 0.52826357 0.19806519 -0.27775517 -0.46305552 0.07363423 0.99663407 0.07229265 -0.036132146 0.25330827 -0.5354748 0.16423422 0.08474713 0.26857218 0.24002479
53 0.2485538 0.42573586 0.009429811 0.12979057 0.16754816 -0.2774523 -0.6613321 -0.18986392 0.07009585 -0.16200025 0.32138702 0.21483555 0.055356987 0.64985085 0.37324634 0.02222153 0.23292322 0.10243867 -0.31852832 0.413372 -0.3341753 -0.24208944 -0.14343266 -0.70449626 0.21595067 -0.2855477 -0.076281935 0.32246307 -0.12289538 0.14347313 0.22585838 0.29486275 -0.0127510065 -0.1671824 -0.034107495 -0.3870773 0.2514371 -0.06647426 0.7050139 -0.0053705936 -0.13445997 -0.6401984 0.26024407 0.3139969 0.051776092 -0.21481743 0.03911523 -0.35185707 -0.6542451 0.07674149 0.055128306 0.072276995 -0.049744915 -0.45152092 0.37041965 0.7156272 0.030143242 0.7720135 -0.5418263 -0.26098865 -0.5445752 0.68719137 0.80355144 0.3934198
86 0.058173556 0.827697 -0.5488479 0.3651345 0.12136479 -0.48677948 -0.5347579 -0.4171448 -0.05367987 0.008434115 0.41958308 -0.15539776 -0.5448968 0.18050414 -0.019125568 -0.40182605 0.17889474 -0.039905153 -0.23011573 -0.05404093 0.5370507 -0.20567179 -0.17993343 0.059228744 0.1913793 -0.19773214 -0.12964168 0.22042155 -0.5033607 -0.0793736 0.23885766 -0.33788767 0.36998206 0.09206 0.06571065 -0.035905838 -0.4220451 -0.1299666 0.42535344 0.43343326 0.43981212 -0.24713975 0.37533993 -0.3847235 -0.42065206 0.15823019 0.52159345 0.2469899 -0.50787336 -0.25614148 0.65324634 -0.31476966 0.03398405 0.34919268 0.5009754 -0.1593981 0.16053468 -0.081641436 0.06594062 -0.20260735 -0.09488202 -0.18686113 0.10003992 0.40220296
35 -0.3637629 0.27387166 -0.39698076 0.10407527 -0.33679813 -0.33670232 -0.22464111 0.31218323 -0.09246876 -0.6985639 0.2894168 0.8607175 -0.15280654 0.29472166 -0.11002773 -0.43028474 0.39568898 0.06917345 -0.14044616 0.7175917 0.0007078088 -0.4794282 -0.39535862 -0.37279198 0.3728428 0.19696559 0.1820719 0.8048421 -0.0066566514 0.05501052 0.7136681 -0.4721898 0.10146831 0.27879652 -0.5511516 -0.19969893 -0.25908872 -0.5689083 -0.13316 0.36523932 0.005771408 -0.3344913 -0.36871803 -0.065583654 -0.18126698 -0.09455937 -0.07515035 0.30042762 0.35947353 -0.21695748 -0.14178555 -0.6236977 0.49925366 0.5436565 -0.422576 -0.63635254 -0.44159225 -0.54470974 0.3149373 0.302829 -0.055713985 0.028336318 0.16656968 -0.13730565
43 -0.34087247 -0.2433648 0.11321843 0.42351046 0.015634133 0.17645462 -0.24992429 0.075659476 0.1025213 0.10084221 -0.13084917 -0.15275116 0.70282054 0.13282225 0.5597037 -0.42438957 0.2069456 0.2616011 -0.75600123 0.03570496 0.46743098 -0.26026332 -0.5433455 -0.51137924 0.342043 -0.22646195 0.47876647 -0.3635142 -0.7385426 0.23567113 0.35368615 -0.30649805 -0.12887676 -0.30322754 -0.29345235 -0.17295821 -0.02791573 -0.010683545 0.022395082 -0.1911414 0.040538225 0.57619494 -0.051879443 0.16282938 -0.0065616723 0.06289685 0.47558782 -0.21655197 -0.20450157 0.07475463 0.159923 -0.04502144 -0.082476765 0.17897405 -0.32262525 -0.014674045 -0.51420254 -0.32996917 0.13109155 0.12275513 -0.7526605 -0.11839166 -0.108456336 0.25532714
9 -0.45689267 0.39988196 -0.11055039 0.5762693 0.035583753 -0.2420065 0.047322202 -0.09518062 -0.4065689 -0.61859375 0.40500093 -0.36605895 0.21197528 0.06342518 0.33392915 -0.75094396 -0.20977901 -0.47318128 -0.17592898 -0.10866482 -0.32734472 -0.39432085 -0.38681826 -0.84983927 0.38012812 -0.3460273 0.21557081 0.8452145 1.106566 -0.27364478 0.2090839 -0.082249165 0.18297724 -0.36551213 -0.49025652 0.087865554 0.00035682708 0.23202439 -0.662775 0.18361175 0.48885435 -0.3127431 0.06965331 -0.10529616 0.0036893538 0.39598978 0.10921086 -0.246193 0.009267363 0.08187266 -0.07944549 -0.38032565 0.52499026 0.5922676 0.16517241 -0.24588716 -0.5537985 0.5623784 0.018519096 0.38690326 -0.30096918 -0.48652267 0.103381366 -0.10476793
58 0.01656629 -0.15960482 -0.5512227 -0.6177032 -0.013421304 0.19548388 -0.52647066 -0.6798327 0.06116253 -0.3066798 0.009558522 0.03416804 -0.24769028 -0.3698445 -0.23996589 0.08081931 -0.33144197 -0.2173213 0.3737453 0.58373463 0.14702643 -0.1747042 -0.8766802 0.65800446 -0.23317908 0.4630062 0.39976728 0.16886386 -0.6083335 0.51400936 0.06822778 -0.13479815 -0.25038278 -0.028433142 0.84288055 -0.68078196 -0.39894328 -0.1590694 0.27919295 0.21023089 -0.8830703 0.15305805 0.13392115 0.22536273 -0.370757 0.04390312 0.45920995 -0.37863868 -0.28665218 -0.83924437 -0.056605194 0.3457808 -0.21513346 0.086929046 0.3417818 -0.19102387 0.60853183 -0.3488708 0.034549385 0.20775218 -0.2107333 0.6017609 0.395367 0.32391578
3 0.004926476 -0.48248416 0.18547645 -0.08281993 0.25064752 -0.18250115 -0.020277997 -0.1928469 0.53279305 -0.041352097 -0.20903514 -0.68096036 0.37170595 -0.030692693 -0.089206964 -0.7876773 -0.15547715 0.24730775 -0.18896304 -0.35001215 0.0014986361 0.32734594 -0.68394506 -0.15515089 0.16566281 0.67583334 -0.37216073 0.28083828 -0.45120656 -0.103428304 0.030652596 -0.51938355 -0.24959259 -0.5352435 0.01651625 -0.10914736 -0.09106901 -0.28605962 -0.010594094 -0.2791278 -0.32340464 0.12424797 -0.25039062 -0.06339754 -0.10973488 0.17965806 0.27649173 -0.52928305 -0.8734722 -0.2548234 -0.39549074 0.16046466 0.06561751 0.0974079 0.33732992 0.2826958 0.32665187 0.40341944 0.21860266 0.058840327 0.39329982 0.005215931 0.5995089 0.62941885
87 -0.008830612 0.37478805 0.5252602 -0.09540941 -0.034480985 -0.5870004 -0.67883956 0.058138832 0.58905023 0.2324747 -0.037030037 0.11074631 0.48335242 -0.25523514 0.83066434 -0.48516014 0.228159 0.05346713 -0.48982677 0.040310893 0.15695144 -0.8036364 0.37900445 -0.16524102 0.68900603 -0.055528104 0.20399241 0.12593494 0.4870236 -0.6585594 -0.2668616 0.06398478 0.693892 -0.7085423 0.019426867 -0.027509894 0.08255278 -0.6476223 0.70891875 -0.012756189 0.34045646 -0.16814548 0.0697697 0.06316453 -0.12839474 0.7928832 -0.011754787 0.0946871 0.13946068 0.26449373 -0.6763099 0.2972166 -0.5536481 0.46184188 -0.616163 -0.46605453 0.11660958 -0.7474769 0.18809927 0.23622085 -0.25070542 0.1090928 -0.37626913 -0.093525715
79 -0.47743076 1.014912 -0.08837048 -0.43399915 -0.6927755 0.021544935 -0.29616982 0.30241236 -0.41182432 0.1927564 0.4682216 -0.41535404 0.10610491 -0.29503614 0.0355087 0.038271703 0.0358845 0.44455606 0.21728654 0.40737683 0.5840758 -0.7489474 0.52232313 -0.08197876 -0.62809277 -0.066663034 0.13519506 0.13802178 -0.42800137 0.4737987 0.042866297 -0.038639504 0.1545057 -0.569682 -0.024164556 -1.0546725 -0.88021827 0.004018867 0.13456345 0.19883609 -0.050496846 0.21700603 0.14408202 0.23992924 0.091084726 0.1840899 -0.38576972 -0.2629576 0.49042583 -0.04788523 0.7096779 0.2657807 -0.6988178 0.23825994 -0.18836507 0.0030677998 0.4283831 -0.5351007 0.41290268 0.24705765 -0.24588029 0.35285437 -0.21188426 -0.19091667
30 -0.36232927 0.21579143 0.65392536 -0.4155656 -0.089330845 0.42073593 -0.5268571 -0.73259366 -0.4737843 -0.21092148 -0.015652526 0.1749976 0.50849885 -0.4499164 0.45614788 -0.32434598 0.10594406 0.35196844 -0.31824797 -0.5997315 -0.40168858 0.14154665 0.72523105 0.3589321 0.052271135 0.17894447 -0.14812769 0.24681048 -0.46455768 0.17515309 0.52080005 -0.38712338 -0.5944976 0.0753438 -0.08093204 -0.11336999 -0.77914417 0.22191477 -0.050842978 0.062732235 0.5819039 0.528706 0.4961027 0.58727837 -0.15170549 -0.27992815 -0.5942212 -0.5488982 -0.06178114 0.1960042 0.8476061 0.050891876 -0.5616236 -0.35792673 -0.21874517 -0.23722447 -0.006272877 0.22438565 -0.12875219 -0.48498544 0.46703368 0.76112235 -0.17397584 -0.4509155
29 0.028424008 -0.40782753 -0.47763327 0.05251948 -0.129233 0.26144996 -0.4721145 0.21976429 -0.07661232 0.36565623 0.50991577 0.30210707 0.2206985 -0.034539778 -0.05182814 -0.6182446 -0.18315926 0.8129181 0.15950239 -0.065087244 -0.16176447 -0.31466845 0.24107881 0.18831912 -0.13473958 -0.046621885 -0.21210833 0.75109124 0.2882631 0.56716096 0.21210626 0.597085 -0.29580814 0.113403335 -0.029072877 -0.3344819 -0.25628328 0.14767252 -0.15418784 0.41078934 0.37260473 -0.49678183 0.15361677 -0.3097146 -0.09171193 0.1408062 -0.55760324 -0.4637335 -0.15784968 0.27015933 -0.08680536 0.5306793 0.36734366 -0.20711549 -0.27934942 -0.04907348 0.055908225 0.91683453 -0.015711088 -0.3601606 0.08399166 0.049879428 0.39157325 0.07618477
18 0.0152699435 0.47040522 0.24489363 -0.07999943 -0.43719968 0.802384 0.68950266 0.24064097 0.24945378 -0.29505867 0.30246145 0.38338366 -0.03215802 0.066108346 0.6402805 -0.58867437 0.032790896 -0.16337475 -0.076569855 -0.4410456 0.016815823 -0.2626485 0.44074407 -0.3631198 0.08524966 0.76351315 -0.16827892 0.3545876 -0.21432082 -0.15264566 -0.18507634 -0.79254985 -0.15056403 0.22711089 0.7974294 -0.19436648 -0.33129683 -0.22353178 -0.14946745 0.049719293 -0.022769159 0.50970775 0.06626908 -0.07572657 0.50730485 -0.68472016 -0.29235137 -0.25976726 -0.4276941 -0.71865386 -0.26235428 0.66362387 -0.6910954 0.20299296 -0.06606737 -0.31094036 6.556895e-05 -0.30811003 0.4817159 -0.1671732 0.43099663 -0.15236 -0.0041162916 0.17862397
32 0.5702149 -0.42310408 -0.4289268 -0.052505117 0.07248196 -0.2990447 0.1353569 0.18218021 0.30088988 -0.48395306 0.2166252 0.21907409 0.053644408 -0.058951426 0.2066703 -0.17727505 -0.28241926 0.10550902 0.06171124 0.09619618 0.25549147 -0.915171 -0.54226696 0.101035394 0.41943994 0.20350356 0.04924673 -0.16155453 0.29352376 0.41095 -0.20586461 0.0146383215 0.14504915 0.18939337 0.3155804 0.29808155 0.47967568 0.7231872 0.69255257 0.34357688 -0.45868996 -0.21444245 0.18388158 -0.09879908 0.009324885 -0.014551928 0.4467976 -0.09881557 -1.0613656 -0.12004703 0.48463887 0.5160057 -0.18994081 -0.41803142 -0.2745603 0.55513805 -0.07983558 0.26119307 -0.8115929 -0.20371315 -0.47369704 0.049047433 0.35162473 0.14497316
68 -0.13065688 0.31857473 -0.14809258 0.26208246 -0.6002813 0.5562804 -0.09015742 -0.4917782 0.19028075 -0.651662 0.33655846 -0.54426557 0.049400795 -0.14793187 -0.14778751 -0.5551358 0.11437809 0.41741866 -0.33426094 -0.26119608 0.10146572 -0.47617963 0.57922965 -0.6071562 -0.20391977 0.48169288 0.42605138 0.5719954 -0.19954981 0.178348 0.15773119 -0.877873 0.047805205 -0.11562249 0.15129341 -0.36860058 -0.29980066 0.45551 -0.0146211665 -0.16193472 0.32328987 0.16010955 -0.2891415 0.014122772 0.0723814 -0.5646278 -0.33166373 0.22365245 -0.1200329 -0.33731207 0.22844431 -0.15328395 0.2979737 -0.08529137 0.66612095 -0.035523664 0.2011303 -0.006776458 0.028157804 -0.56563455 0.014856358 0.4336543 0.3326073 0.1486075
26 0.3894486 0.5447964 0.11041333 0.31657493 -0.44233358 -0.20614946 -0.40674388 0.11162081 -0.21759795 0.28087896 -0.009744374 -0.25080013 0.27239707 -0.09753143 0.24739757 -1.1175331 -0.012134563 -0.32043853 -0.23566185 -0.25890177 -0.5391108 -0.054507855 -0.35318613 0.23778066 -0.180824 -0.116347134 -0.4109596 -0.46040535 -0.068886094 -0.54027724 0.372887 -0.05906625 0.28785926 0.20444931 0.21059829 0.10569736 0.07905446 -0.5573042 0.23736052 -0.44321373 0.49226284 -0.12409309 0.20681474 0.13568422 -0.27065262 0.30481958 0.16728379 -0.44924784 -0.6660447 0.019306988 -0.3258902 0.63103807 -0.11835939 -0.08538478 -0.4402089 0.24318549 -0.89741534 -0.42913675 0.15455967 0.104027286 -0.0074120765 -0.9292357 0.14049122 0.12819724
31 -0.12613438 -0.16978139 0.061550625 0.3645322 0.14819089 0.40669295 -0.5827405 0.0796508 -0.08010339 0.09750285 -0.17748351 -0.362582 -0.103228405 0.019519776 -0.4239435 -0.36455032 -0.0898964 -0.24895814 -0.3438086 0.4596479 0.19559866 -0.5451779 -0.1117412 -0.18087158 0.37748918 -0.18355724 0.79247946 0.46146837 0.28350437 0.15938984 -0.21486929 -0.39649597 -0.3055324 -0.4525948 0.274273 -0.12981573 0.13966334 0.35393456 0.42137694 -0.101073764 -0.15885577 0.16827221 -0.10366831 0.10642651 -0.5991475 -0.085241854 0.1769697 -0.265628 -0.11910348 0.32177117 -0.22200698 -0.20750085 -0.32620314 -0.48134544 0.073425405 0.1753862 -0.16025674 0.32865646 -0.56091213 -0.6921476 -0.28904048 0.7217357 0.24681169 -0.58724374
76 -0.010073563 -0.41398877 -0.5328064 -0.02888387 0.5008522 -0.32909253 -0.6361857 -0.21618041 0.43937773 0.14385954 -0.21047154 -0.059737813 -0.11745884 0.21080784 0.34334922 0.46207088 0.11748113 0.135861 -0.13354312 0.054653343 0.37054172 -0.93198097 -0.24427333 -0.031547196 0.21975487 -0.06914505 0.23329367 0.33039 -0.19564992 0.5036435 0.07410377 0.28772667 0.5238854 0.7562472 -0.18598428 -0.056013543 -0.08681251 0.5286608 0.43796295 -0.37870157 -0.14000994 -0.25773254 -0.1762108 -0.040904954 -0.54225796 0.07953879 0.026047058 0.67051303 -0.43962654 -0.12778565 0.32900903 -0.105477884 0.19305716 -0.12333564 -0.036138546 -0.15659392 -0.20334563 0.39334443 -0.108774506 -0.86390394 -0.60581213 0.90176255 0.3805703 0.11524696
22 0.3143965 0.06736252 -0.23048325 -0.04377303 -0.33121553 0.10615744 -0.5332848 0.04068674 -0.17412521 0.18758121 0.06379684 0.11523112 -0.56570464 -0.19802287 -0.4468569 -0.32022452 0.16821526 -0.13941792 0.48030764 0.42638204 -0.44313854 -0.6106461 0.4412301 0.21548243 0.1425604 -0.14361483 0.00944092 0.86751246 0.75001734 0.23673438 0.08854607 0.3237386 -0.3513485 -0.014207338 0.16893351 0.1915609 0.08582737 -0.16008301 0.04890175 0.58929724 -0.00019129332 -0.3353062 -0.9278535 0.12720595 -0.46236438 0.58178216 -0.6368318 -0.40565664 -0.048884768 -0.033345968 -0.17805552 0.20164254 0.3370586 -0.44102162 0.041262027 0.09777999 0.17694584 0.19249585 0.31492925 -0.354055 0.5014705 -0.10328241 0.46683148 -0.4748934
80 -0.746011 -0.20670079 0.43891573 -0.16079676 0.4487183 0.22827728 -0.5379631 -1.182809 -0.10501493 0.10621693 0.39184132 -0.38266203 -0.08256222 0.10442904 0.11837417 0.48137757 0.38558877 0.27512094 0.45050383 -0.22471154 -0.15874495 -0.054911066 0.22251835 -0.21610321 0.11786238 -0.20754874 -0.014700013 -0.04405683 -0.10244563 0.58984375 0.210515 -0.012810881 0.27161935 0.16708545 0.18784733 0.25426784 -0.38808292 -0.08360747 0.856635 -0.023523618 0.8441469 0.42269206 -0.4581783 0.33874568 -0.017052783 0.15392072 -0.3522297 0.3800039 -0.28552887 -0.2560938 0.945753 -0.44604164 -0.36812967 -0.28412467 0.18364799 -0.52597237 0.12509696 0.124091305 -0.04466284 -0.4613778 0.17734098 0.51000345 -0.04562422 0.16578723
10 0.039215334 0.010554795 0.011620435 0.018918578 -0.2875618 -0.8415875 -0.0020369568 -0.65287465 -0.17580763 -0.4107486 -0.15104866 -0.5151166 0.099795416 0.28778479 0.34776825 -0.66642255 0.01764761 0.28407416 0.73453474 -0.062319152 0.22119816 -0.060959194 -0.050272014 -0.09210558 -0.3964164 0.3496412 -0.18270445 0.33633178 0.28179318 -0.108458236 0.117553286 -0.3668055 0.43767804 0.2989016 -0.5034769 -0.101056606 0.24023703 -0.7395045 0.32917964 0.009100379 -0.025914526 -0.46265778 -0.5506118 0.20963323 0.24746175 0.9360525 -0.07474293 0.4899094 -0.39425084 -0.17073438 0.2776456 0.2137729 0.2006951 -0.0010154784 -0.5446201 0.08752785 0.42958677 -0.44695103 0.29467282 -0.2524024 0.15124644 -0.6210466 0.18299176 0.31003508
14 -0.33054814 0.018331159 -0.24074346 -0.24894685 0.67910594 -0.4567234 -0.07416823 0.36715192 -0.1499243 0.7672592 -0.43111342 0.17304543 -0.6565913 -0.10275482 0.037087373 -0.47384217 -0.42703983 0.17586225 -0.1448289 0.4991859 0.1218107 0.12971982 -1.1798806 -0.082704626 0.21548612 -0.081732966 -0.32667753 0.11194317 -0.10620558 0.08551644 0.123992376 0.26927003 0.29445383 0.29230875 0.2022771 -0.3379539 -0.036796134 -0.13226989 0.27700147 0.29120514 -0.34553513 -0.36840978 0.43566412 -0.21107337 -0.29197323 0.22387674 0.4569164 -0.60072714 -0.70651686 0.21561585 -0.28460088 -0.36547613 0.17304485 0.16820548 0.5050191 0.6212055 -0.11961634 0.31738824 -0.018616473 0.3797973 0.18589316 0.06937233 0.348528 0.14806919
34 -0.41745624 0.4647441 0.39722762 0.678796 -0.070755884 -0.6848998 -0.34695914 -0.33101678 0.053434014 -0.47817236 -0.34405324 0.5630266 0.3623686 0.52004486 0.25563422 -0.30541795 0.21540384 -0.59884953 0.4458854 -0.32592338 0.19623931 -0.5832883 -0.09477649 0.5802051 -0.12746593 0.69667214 -0.71584046 0.7933151 0.39063805 0.050635155 -0.09004883 -0.21330674 -0.012942476 0.9760448 -0.013930153 -0.40999952 -0.27878484 0.48162237 -0.37201843 -0.1660446 -0.41535065 -0.85045063 0.28077334 -0.72137827 0.4242311 -0.08194823 -0.023130871 0.19441919 -0.22657414 -0.34328872 0.16537009 0.107547596 -0.7369798 0.3236185 -0.44346717 -0.12903269 -0.006703006 -0.18105334 -0.15809336 0.30880505 0.1780019 0.3662629 0.28158343 -0.07647014
63 -0.2540802 0.61333746 0.42780706 -1.1011399 -0.6542071 -0.099601865 0.14713125 0.23528354 -0.119565405 0.35669205 -0.52444255 1.0768527 -0.24788268 0.21167016 0.3781778 0.48000035 0.57228047 -0.07240612 0.15492637 0.19678667 -0.13387917 -0.08252055 0.0029516001 -0.19683929 -0.106374666 0.7252597 -0.5619058 0.5956194 0.2958784 -0.15279958 0.37040162 -0.28767028 0.31759226 0.43265474 0.056179337 -0.9255155 0.011265931 -0.55917794 0.6593708 -0.20151174 0.17962654 -0.10978789 -0.5145451 1.0358174 -0.5631561 0.1756245 -0.24020405 0.0525898 -0.14064425 0.04869467 -0.115110435 -0.31693155 0.15386234 0.14533705 0.19039877 -0.39346293 0.31595373 -0.29163218 0.8608159 -0.047983777 0.08810083 0.54852736 0.058613833 -0.53136265
65 -1.1966764 -0.40713942 -0.22687562 0.12159575 0.47866654 -0.63945657 -0.41641468 -0.25466028 0.1115942 -0.029120859 0.28047964 -0.88986725 0.02171743 0.3392605 -0.011467751 -0.09367496 0.14260699 -0.10127424 -0.08791625 -0.3370003 -0.6388298 -0.7053828 -0.7991559 0.19488473 -0.49906674 -0.026846014 0.48102522 -0.13105787 -0.18007219 1.1093446 -0.056468733 0.26445735 0.4679084 0.25347248 -0.64984864 0.26356548 -0.5676452 0.16601406 0.32777375 -0.5066566 0.27553535 -0.6808101 -0.014277466 0.046182174 0.62768716 -0.39672762 -0.1333055 0.4080721 -0.044945575 -0.15572149 0.07821957 -0.09073883 -0.4785464 -0.3131186 -0.75774395 0.74646014 -0.20948718 0.052912198 0.26078665 -0.5826916 0.21607132 -0.1629247 -0.010055077 -0.06318054
27 -1.051811 -0.35917482 0.15485486 -0.052768912 0.3713473 -0.395556 -0.024625082 0.6457086 0.6805022 -0.113701336 -0.09905012 0.29477206 0.36651036 -0.008932382 0.70477337 -0.39799833 -0.11845394 -0.43809682 0.6252564 0.49429727 -0.78920317 -0.5392879 -0.21527956 0.15851463 0.16745582 0.3128746 -0.3856123 0.53628373 -0.10599175 0.46110877 -0.26144913 -0.68066716 0.030105012 -0.13853852 -0.29318425 -0.17128901 0.074454136 -0.18683161 -0.43374082 0.177054 -0.6848471 -0.46333238 0.27131823 0.08532157 0.1351241 -0.47360513 0.16963927 -0.23172516 0.42523924 0.26817104 -0.41732234 0.5213122 -1.0300841 0.060211368 -0.73153454 -0.07614223 0.13305712 -0.615758 0.5270969 -0.024874894 0.35454306 -0.08659371 -0.14015514 -0.31195962
33 0.2005161 0.4266006 -0.14174919 0.28685647 -0.24517941 0.11300174 -0.22435378 0.5957762 0.26746082 0.8982083 0.3668256 0.14515947 0.032912638 -0.00900352 -0.72107315 0.10260648 -0.15991792 0.056525204 0.3837335 0.29026577 0.16096364 -0.6059744 -0.20942006 -0.15518735 -0.28720427 -0.066775054 -0.07958495 0.055173393 -0.17622186 -0.0576324 -0.28296852 0.332094 0.29351845 -0.090524 0.18724433 0.24750495 -0.33551362 -0.29414505 1.1015034 0.01664822 0.44355273 0.5118171 -0.29299983 0.22673778 -0.5614787 0.8290695 0.23447931 -0.063685246 -0.26039955 0.088068046 0.08065901 0.23670079 0.25035813 -0.17773393 -0.004029673 0.43996727 0.4602388 0.6198388 0.18626186 -0.051198952 -0.40134764 -0.92056304 -0.013999423 -0.00040879648
48 -0.4678609 0.4897933 -0.18307756 -0.14067031 -0.5585834 -0.13357212 0.09132381 0.405161 -0.26800936 -0.2550438 -0.22455934 0.025738155 0.2545061 -0.2173866 0.5496587 -0.1063524 -0.033599276 0.057541795 0.27291372 0.43283537 -0.036105745 -0.7702411 0.48972246 -0.6265285 -0.7761535 -0.46049964 -0.39579785 -0.5411868 0.022102758 0.13348894 0.09555167 0.032940656 0.059572488 0.51530576 -0.12685226 -0.7392685 0.029215237 0.64341587 -0.6043441 -0.15224417 -0.19114816 -0.09587765 0.069688156 0.45484588 0.22722729 0.13851513 0.014056808 -0.58441275 0.14171024 -0.00024017226 0.27664647 0.5177155 0.54104626 0.39019316 0.4607319 0.35890856 -0.47474694 0.061741162 0.41168544 0.015867265 -0.373172 -0.48163173 0.30294433 -0.117065676
92 0.063618556 -1.0869057 0.20050572 0.040058017 -0.03686563 -0.15090962 -0.21210374 0.11323356 -0.3467841 -0.18502821 0.4122125 0.46803704 0.5142141 -0.04739711 0.598192 -0.07363215 -0.087094076 -0.080828816 -0.014588155 -0.22228147 -0.7708176 -0.023113914 0.06849939 -0.093764216 0.060541414 0.08183339 0.050838873 -0.042082287 0.50006837 0.83142084 0.4636901 0.08879087 -0.4390597 -0.44849807 -0.22794591 0.10399268 -0.25731137 -0.47984353 0.23285958 0.250433 0.11422668 -0.23357663 -0.027870733 0.5666991 0.19228509 0.045399077 -0.43126723 -0.66359615 0.031293895 0.13693266 0.31263676 0.5059258 0.1885603 -0.35940436 -0.89139163 0.031316612 -0.73213804 0.39589137 -0.104447 -0.6947462 -0.5111017 0.034221843 0.54803735 0.07595687
82 -0.59464025 0.09329448 0.26213986 -0.6194194 -0.068317585 -0.6908779 -0.45597976 0.62991756 0.27580243 0.24567491 0.49489793 -0.2620518 0.4623477 -0.20843686 -0.12855178 -0.15748186 0.6513681 -0.21978018 -0.34039357 0.15772037 -0.65666693 -0.3412953 -0.53316885 -0.3260189 -0.08382412 0.39807424 -0.14322214 0.4640398 0.46983492 0.38919562 -0.01594311 0.018109903 0.76699936 -0.2510999 -0.09362188 -0.39296362 -0.14228313 -0.19548613 0.37745064 -0.6540624 0.26957056 -0.5019043 0.3655479 -0.2240632 -0.12926237 -0.21003093 -0.68258387 -0.0048437794 -0.34030592 -0.11387911 -0.34782594 0.32853243 -0.29652914 0.10921498 -0.6867677 -0.09379538 -0.35987356 -0.21332939 0.07159366 0.7775763 -0.0153165115 -0.11592083 0.4165118 0.08623371
97 -0.3803079 0.15730445 -0.54950964 0.85924715 0.2041666 0.96598613 -0.07388509 0.5688388 -0.00045384406 0.30040514 0.57041186 0.21532395 -0.082703374 0.51261616 -0.0064521437 -0.83826536 0.26580143 0.31169534 -0.06741719 0.777501 0.17476591 -0.14002144 -0.04401034 -0.7616325 0.0037506353 -0.526247 0.32148033 -0.031451855 -0.5111833 0.5822661 -0.16781259 -0.008233257 -0.17559195 0.37952015 0.6909723 -0.51309526 0.09721729 -0.046059947 -0.19794917 0.41038543 0.23856483 0.048223197 0.11997127 -0.4328258 0.056328665 -0.72924 0.3534182 -0.0782587 -0.11173198 -0.17287096 -0.18233034 0.20583113 0.13858402 0.045202438 0.24518166 0.089736775 -0.32706818 -0.15878949 0.1058252 -0.51827914 0.007961895 -0.60817164 0.27942255 0.369069
6 -0.43693495 0.04009544 0.45788074 -0.46107262 -0.4645946 -0.1699887 0.5736556 0.34362027 0.008558209 0.121587686 -0.6892347 0.66951495 0.45121416 -0.088872574 -0.036908787 0.14292923 0.5096649 -0.07008728 -0.39603585 -0.27568543 0.06341605 -0.15037546 0.04834294 -0.4215938 0.35063198 0.06648527 -0.28718552 -0.27591935 0.56155294 0.1206886 0.011524091 -0.029223062 -0.77728915 0.049497925 0.08866737 -0.28680292 -0.4865748 -0.06850507 0.018765083 0.16497543 -0.04219655 0.11270903 -0.7060656 0.83178043 0.15209499 0.31597003 -0.49759835 -0.391996 -0.26026782 -0.036980625 0.097241454 -0.3749093 0.6206347 0.17543262 0.24134521 0.19555216 0.36359152 0.67548 -0.36523074 -0.22377586 0.34021986 0.0632399 0.35990784 0.042831834
72 -0.18742608 -0.053714078 0.031865507 0.39948067 -0.37125632 0.91491616 -0.28647804 -0.76454633 0.20034157 -0.09382277 -0.39134243 -0.0054834276 0.116845116 -0.35930032 0.5118169 -0.3670224 -0.10653936 0.72310024 0.16908129 -0.16428897 -0.17336683 -0.21960942 0.12736893 0.5199092 0.49832666 -0.051929135 -0.31096426 0.5792476 -0.30754378 -0.10256801 0.5459384 -0.43812147 -0.59605736 0.17341538 -0.07430128 0.080347754 -0.07816799 -0.13570136 -0.6539418 -0.014313755 0.40804917 0.63430333 -0.48722115 -0.03858707 -0.77713406 0.40125334 -0.1879945 -0.367084 -0.15540683 -0.25932863 0.16974594 -0.05609285 -0.3976733 -0.23183192 -0.43159297 -0.65597284 -0.55691886 0.21154965 -0.03763286 0.06100787 -0.26008886 0.4614402 -0.18370333 0.024303002
40 -0.29995662 -0.06888156 0.3338459 -0.44887543 -0.36030218 0.16671704 -0.4201064 -0.06404955 0.028553117 0.21965483 -0.27819416 -0.11972307 -0.3321587 -0.8540932 -0.12657122 -1.1251899 -0.12705272 -0.42104894 -0.456441 -0.47360438 -0.38110283 -0.15654513 0.31666866 0.32047915 0.13807635 0.27295268 0.2788926 0.75363255 0.74494475 -0.15983993 -0.0806774 -0.6171217 -0.22550349 -0.3736651 0.083526656 0.13525058 0.009569096 -0.09432241 0.13722312 -0.4605486 0.169595 0.3039413 0.6223936 -0.074875005 -0.37715745 -0.103728004 -0.21540943 -0.5995817 -0.33078685 0.72262245 -0.76432514 0.11935502 0.10314698 -0.33670846 -0.23720132 0.43734795 -0.01862539 0.1856322 0.03793108 -0.2863936 0.19162278 0.30539858 0.13601469 -1.0084523
94 0.07726265 0.10575324 0.0077498783 0.78807944 -0.6135091 -0.34033102 -0.015854094 0.18781234 0.45244265 0.3525797 0.21382229 0.8662692 0.19035779 0.014657088 -0.33026648 0.030219607 0.28379664 -0.5171817 0.56070995 -0.12341853 0.8287369 -1.4115344 0.29274088 0.17756535 0.4179017 0.17639458 -0.2767534 0.14616595 0.89771014 -0.05200838 0.11347106 0.14714617 -0.23462798 0.5226528 0.45961723 -0.35341313 0.028077606 0.040823538 0.7003375 0.715924 0.20472962 -0.20189928 0.19745274 -0.33738253 0.11882597 0.555894 0.043899644 -0.038890883 0.19423018 0.30251047 -0.08925968 -0.22507858 -0.47541603 0.39088395 0.17218933 -0.52228844 0.41013587 -0.33804998 -0.12970415 -0.26334107 -0.37795886 -0.29176474 -0.17184627 0.2153549
8 -0.082337774 0.92015815 0.21199712 -0.13151783 -0.1665149 -0.5523438 0.09176025 -0.086432055 -0.25728983 -0.31119683 0.1332843 0.5732325 -0.319972 -0.22169763 0.15449512 -0.4953043 -0.09715262 -0.51002926 -0.30829465 0.14357813 0.9991172 -0.16981897 -0.037980903 -0.0750247 -0.1455514 -0.13401677 -0.27593377 0.0034209043 -0.433709 -0.3893502 0.14206763 -0.6539966 0.11677671 0.05433487 -0.359686 0.5872832 -0.6598523 0.25572255 0.21220872 -0.33974335 -0.13589065 0.5849046 0.45751268 0.17765231 -0.2566221 0.31702113 0.61759657 -0.16474018 -0.17362688 0.09406668 0.89980537 -0.25410816 0.10067967 -0.059885852 0.13786644 0.38438416 -0.3707619 0.42171505 -0.13806455 -0.15373623 -0.25258762 -0.21428531 0.06538991 -0.7894738
56 -0.1787642 -1.0641543 0.07954638 0.62710875 -0.12272665 0.44476825 -0.13692096 -0.12140126 -0.38493544 -0.119069755 -0.51673216 0.6838294 0.18997134 0.37237108 -0.2672408 -0.8416662 -0.37661248 0.4329645 0.42803034 0.36458465 -0.19931175 0.3284946 -0.2951242 0.1471004 -0.3655479 0.1792941 -0.17646034 -0.10580263 -0.24707861 0.031409048 0.63935417 -0.3531545 -0.7396706 0.7815598 -0.24765588 0.13165234 -0.1577278 -0.44612122 0.018555278 0.5468141 0.20545946 -0.47630182 -0.23507166 0.16103078 0.17686832 -0.031105801 0.16227464 -0.68569624 0.0053276885 -0.0048779575 -0.16904856 0.07822023 0.57349277 0.15796876 -0.36380556 -0.24707653 -0.486078 -0.047296412 0.3873228 -0.7216332 0.28389317 -0.55716866 0.33987996 0.07385552
17 -1.3270408 -0.11461254 -0.018466651 -0.08096239 0.78988206 -0.09850399 -0.41866255 -0.28685293 -0.2218802 0.58109874 -0.34476152 -0.19513893 -0.20005119 -0.1563819 0.14586182 -0.12151 0.30934545 -0.5954239 0.4021254 0.50085634 -0.24467751 0.2524111 -0.00741489 -0.12714387 -0.0519845 -0.5345873 -0.45065752 -0.57466626 0.15497115 0.49834445 -0.015245515 -0.23941867 -0.42884377 -0.18805888 0.11732962 -0.31211376 -0.3102177 -0.058508914 -0.09487393 0.62522906 0.088283196 -0.29218 0.026994217 0.3261313 -0.5723378 -0.3354445 0.16422665 0.108196996 0.28809226 0.47035098 0.52998513 -0.4407635 -0.11201934 0.3519441 0.7089587 -0.06434385 -0.4796471 -0.08821721 0.249254 -0.4619015 0.39538422 0.098688066 0.07840895 -0.27376986
98 -0.028866703 -0.020508194 -0.56037307 0.18920554 -0.08517296 -0.235852 -0.571766 0.05237482 0.2055443 -0.7228385 0.06690358 0.6126818 -0.19764414 0.33721656 0.48723632 0.19943076 -0.23268788 0.11064457 0.0070744213 0.7110203 -0.36330965 -0.8203394 0.21675304 -0.061456606 0.3676116 -0.37769404 -0.011131458 -0.2739102 -0.06423151 0.14885245 -0.13447316 -0.23155376 0.46115726 -0.42846212 0.04560154 0.10677606 0.25553373 0.1653895 0.6720486 0.065716416 -0.2353668 -0.24244034 -0.13946858 0.3198951 -0.25309378 -0.12329201 0.7424115 -0.2021184 -0.47275603 0.16551003 0.5010302 0.13001023 0.22048374 0.03662827 0.17545012 0.40078267 -0.068192005 -0.018484885 -0.38510194 -0.089592546 -1.0024103 0.33198273 0.314936 -0.21001938
49 -0.9500067 -0.113609694 0.5314368 0.3299123 0.7979624 0.072872594 0.2922376 -0.21014476 0.029004969 0.017745616 -0.56047493 -0.5859478 0.24091692 0.09166321 0.5572018 0.23442958 0.32376608 -1.0157367 -0.067437515 -0.15880342 -0.19658588 -0.3232259 -0.15544285 -0.43685028 0.38524234 -0.26942077 0.5398258 -0.3769588 0.036638733 0.43281606 -0.69269043 -0.3351757 -0.35941595 0.0028186261 0.05556083 0.50675744 -0.3955339 0.14117253 -0.049550552 -0.2423123 -0.2987309 0.7824273 -0.65289783 0.5032895 0.086207114 0.040760137 0.09870925 0.33213443 -0.26604155 -0.09073769 0.6368203 -0.4434517 -0.5309475 -0.10595374 -0.11332622 0.33450386 -0.11956017 0.058033444 -0.09804465 -0.76507264 0.083275 0.083080456 -0.13340029 -0.210561
45 -0.21529362 0.50715077 -0.20531021 0.19586024 -0.5135698 -0.45692444 0.4235241 -0.32115886 0.013203353 0.06035583 -0.09202104 0.6259011 0.016747484 0.1717867 0.8850761 0.033087064 -0.21979699 0.08607971 -0.19297165 -0.6231982 -0.6619881 0.36722252 -0.754042 -0.21487515 0.64549345 0.21284705 -0.45942524 -0.4259696 0.3091798 0.15432766 0.33134133 -0.19232875 0.22584926 0.24655443 0.21747671 -0.22382477 -0.22123817 -1.0737319 0.58219355 0.130873 0.5968615 -0.02536411 0.15242268 0.67459476 0.2771933 0.3552585 0.18021545 0.0478927 -0.6967106 -0.32399374 -0.019094402 -0.48785862 0.20026901 0.16463925 -0.29077005 0.17429891 -0.1315481 0.06433348 -0.6966203 0.06455317 -0.16437887 -0.3124168 0.2617527 0.8485967
67 -0.49488705 -0.353559 0.29425696 -0.30596977 0.15965767 0.32402572 0.039247833 0.20528626 -0.2033393 0.4906724 0.38111508 0.40451983 0.35439873 -0.18160261 0.4483517 0.11471225 0.3530141 0.2733265 -0.19280748 -0.05165222 -0.020530961 0.007544364 0.38257116 -0.469083 -0.024468997 -0.15722194 -0.0027741685 -0.2608204 -0.43709835 0.61538166 0.26296443 -0.5517925 -0.23387833 -0.022987261 -0.29463065 -0.5552001 -0.3454284 -0.3006133 0.66491526 0.6646688 0.2184323 0.00086829596 0.77250606 0.7996191 -0.40603015 -0.63053894 -0.31334245 -0.47136408 0.03592323 0.6578466 0.8284686 0.27238044 -0.60405856 0.20496207 -0.18422897 -0.6171381 -0.15325344 -0.13166784 0.109250575 -0.9380533 -0.4564979 0.5229319 -0.106504284 0.26126245
75 0.19465029 -0.07659585 -0.49660227 0.73850185 -0.62446123 0.05954441 -1.2109647 -0.33518735 -0.2188277 -0.3710087 0.1553906 -0.30670127 0.20851432 -0.0036639548 -0.6640904 -0.5632012 0.11117184 0.06933325 -0.23136438 -0.09079465 0.07330375 -0.43093085 0.84358734 0.25701934 -0.02292887 -0.0009568277 0.45977354 0.61829257 -0.16636327 0.2231371 0.122680746 -0.5329694 -0.6053968 0.024820317 0.3231428 -0.5957893 -0.64635944 -0.29030728 -0.31944114 -0.37918836 0.13272268 0.06437525 -0.16446313 -0.4895777 -0.41248912 0.2233394 -0.6421914 0.09297285 -0.044275563 -0.22531101 0.028307764 0.06371785 0.5087246 -0.25193027 -0.3687998 -0.2729499 0.27241376 0.29907063 -0.7501866 -0.77679586 -0.13273728 0.5169126 0.87623733 0.373773
51 -0.6890938 0.11688514 -0.41809785 0.7697893 0.19361067 -0.47121027 0.04497711 0.07672344 -0.2337025 -0.11602026 0.32331687 -0.27052224 0.44568297 0.04406387 0.38787377 -0.44086802 -1.1486378 -0.509968 0.5643504 0.26784557 0.12720574 -0.472964 -0.0073264805 -0.345947 0.49411696 -0.7157628 0.14444765 0.50215256 0.29216045 -0.13179469 -0.16612594 -0.33447134 -0.26555246 -0.7801346 -0.21726976 0.008135187 -0.00430104 -0.2501541 0.1764927 0.50488067 0.05308607 0.511438 0.5357578 0.3687353 0.23903106 0.91823804 0.74093074 -0.6370455 0.5357915 0.77653474 -0.020328645 -0.14449552 -0.59405917 0.40367553 0.040140115 -0.17020312 0.72205144 0.3486432 -0.28928548 -0.42157862 -0.5077417 -0.6266448 -0.33511207 -0.18376124
62 -0.036467098 0.2741555 -0.14727153 -0.09724344 0.30189437 0.49492717 0.29721597 -0.2792009 -0.21272932 0.7013263 -0.6808976 -0.5509439 0.34017807 0.350026 1.2106321 -0.86285466 -0.41733465 -0.12163718 0.014207118 -0.0849239 0.58793545 0.44468707 0.19573921 -0.6367848 -0.6500392 0.4387378 0.5377927 -0.28317383 0.17529745 -0.14834097 -0.42445475 -0.43618077 -0.2023409 -0.024543362 0.30187073 0.28386408 -0.045514215 -0.24448803 0.4477034 0.28083572 0.7803926 -0.19357243 -0.0926894 0.37709135 -0.17518292 -0.2953908 0.03506738 0.6498314 0.116676256 -0.0078709265 0.06459844 1.0775696 -0.18064868 -0.3389388 -0.20913863 0.5316509 -0.26899305 -0.21195893 0.3789526 -0.76114756 -0.25901365 -0.51092196 -0.038622342 -0.21216851
41 0.16485977 0.6392611 -0.17015722 -0.33190206 -0.5356426 -0.3908946 -0.10112242 0.06705016 0.041097824 -0.0052972883 -0.42370406 0.13305143 0.15862127 0.025636792 0.12641212 -0.2085777 0.09050367 -0.1376594 -0.025057172 0.41138485 0.18731934 -0.34571475 0.30819246 0.16374083 -0.22493245 -0.19418685 -0.24286394 -0.7961856 -0.64322394 -0.017086074 -0.2272433 -0.11853309 -0.544516 0.14902446 0.70683193 -0.35349545 0.0145355305 -0.3787616 0.5507215 -0.3562851 -0.18460344 0.27269933 0.20874071 0.5146386 0.13458136 0.21451469 0.11011804 -0.2265783 -0.41794387 -0.041849878 0.14482854 0.62577486 -0.39267305 -0.86717385 -0.4126338 1.1610099 0.101823375 0.041831072 -0.6667666 -0.8537276 0.20064262 -0.06573419 0.435445 -0.33088908
52 -0.5570336 0.1383946 0.103432775 0.089796394 -0.55362517 0.22501124 0.49771658 0.42208362 0.55797255 -0.38531718 0.056305174 0.27736676 0.17080116 0.101671346 -0.040836457 -0.2643062 0.43369249 0.2860309 -0.7526259 0.31924847 0.3373968 -0.36404678 -0.23391894 -1.1652989 0.3286517 0.45839447 0.23365568 0.10542594 -0.046340927 -0.07511885 0.12080656 -1.0073513 -0.3406791 -1.0834512 0.118792534 -0.25234294 -0.05419261 -0.28636348 0.1208534 0.5044612 0.31943902 -0.1271247 -0.53169596 -0.0028350453 0.08330324 -0.4936877 -0.11110978 -0.17576766 0.13059963 -0.4325572 -0.45278233 -0.47064534 0.27616742 0.5312318 0.13881344 -0.31026432 -0.3221594 -0.14214177 0.275044 0.16036367 -0.15966223 0.3482399 -0.04522353 0.22483331
70 -0.2884168 -0.048397116 0.43745646 0.541309 0.7975647 0.08255451 -0.061853714 -0.664333 0.6544377 0.5249616 0.03848012 -0.35547733 -0.35062814 -0.03892228 0.75967085 -0.40967116 0.1797724 -0.2597611 0.9809937 0.26909348 -0.17956726 -0.35933572 -0.4301345 -0.80469245 0.59150755 -0.5003723 -0.051872354 0.4415017 0.43013814 0.06755339 -0.030050842 -0.05683735 -0.2778194 -0.22282729 -0.6995241 0.7085963 0.9065626 -0.7738005 0.6439149 0.75662065 -0.06388855 0.05683363 -0.07788232 0.11387211 -0.35486376 0.5528468 0.11004445 0.08064715 -0.13316146 0.73363054 -0.18859275 -0.246599 -0.8460055 -0.45938677 -0.008082276 0.2552828 -0.08772743 -0.210625 0.33442628 -0.0727484 -0.1457114 0.21726015 -0.18922591 0.27850822
23 -0.5628293 0.38963345 -0.3951227 -0.40855026 -0.29774985 0.06391713 0.30054894 0.39823765 0.10402251 -0.18065462 0.17079674 -0.18625684 -0.38809836 -0.66357315 0.1378762 -0.17658791 -0.31134474 0.3870081 -0.4228414 0.73476034 0.2483105 -0.5017176 -0.016708082 -0.7467277 0.182729 -0.5904667 0.5541159 -0.06376452 -0.6168894 -0.076983385 -0.21732788 -0.42709708 0.11644117 -0.4258075 0.16819654 -0.22719374 -0.37753704 -0.537717 0.27483186 0.5129079 -0.52892023 0.53353274 -0.32328647 0.3465495 0.034182716 0.16266662 -0.47825038 -0.1841498 0.120697394 -0.4099213 -0.19875818 0.35644367 -0.064139925 0.38714916 -0.054147188 -0.04788786 0.13297032 -0.25084454 0.22546399 0.45109385 -0.28232002 -0.15963112 -0.17325872 0.08290175
71 0.3075594 -0.2458848 0.46186244 0.72453034 0.07455244 -0.07961679 -0.22680506 0.57823503 -1.1253297 0.21006906 0.38942504 0.10698076 -0.34013453 0.4589098 -0.16338184 -0.44450653 -0.71502274 -0.474798 -0.5062785 -0.8165649 0.93976325 -0.07488477 0.20501138 -0.0071341987 -0.43284088 0.84106493 0.19799408 0.6714489 -0.10063706 -0.14080818 0.0010616368 -0.38330597 0.0028812976 -0.17322935 -0.086949356 -0.2365328 -1.4085374 0.40480107 0.42069185 0.08111408 0.17327158 0.12626912 -0.20904379 -0.14927481 0.21071206 0.11528891 -0.13002487 -0.1313162 -0.18766445 0.0075796843 0.7106884 -0.21245365 0.07741145 0.33346963 -0.1292049 -0.21608296 -0.1798007 0.4913935 0.8141297 -0.93696916 -0.2521287 0.20921259 0.31680962 -0.37570524
73 0.23217538 0.2334141 0.4056852 0.15810339 -0.4930014 0.19598277 -0.4805032 -0.91163534 0.6410213 -0.06575785 0.1016972 0.23973566 0.1103614 -0.25613305 -0.24968217 -0.5591827 0.5402915 -0.12052996 0.58451027 -0.69216025 -0.17197174 -0.6461013 0.96694005 -0.13379055 -0.56200737 -0.008019378 -0.8255565 0.14127141 0.3300541 -0.29481745 0.6992983 -0.29258463 0.13270918 0.71736395 0.2352526 0.19684888 0.5416187 0.53078055 0.38935065 -0.3994102 1.329512 0.24863257 1.0313735 -0.25126565 -0.07387974 -0.11856617 0.16999497 -0.77547586 -0.45431873 0.35060364 -0.017899906 0.38896558 0.4037592 0.001975198 0.76393366 -0.28505453 -0.18695754 0.33304182 0.41171706 -0.616298 -0.12062081 -0.47300458 0.19712956 -0.42963523
69 0.3665352 0.016455254 0.06561652 0.17523605 -0.33950913 -0.49463466 0.16496044 0.6964698 -0.9034433 -0.09515612 0.28722215 0.103719555 0.10711475 -0.3241322 -0.25789005 -0.27830294 -0.9970415 -0.15632579 0.44220427 0.05561173 0.8379015 -0.72945726 0.44324598 0.08291049 -0.45245498 0.5935261 -0.29856336 0.27932787 0.89272153 -0.50644 -0.49218482 0.19799256 0.29049557 -0.41184625 0.25318843 -0.43020788 -0.86235654 0.2654572 0.34065273 0.63800204 -0.44061232 -0.20965278 -0.29502037 -0.26471654 0.07402003 1.192525 -0.40386575 -0.5369337 -0.1421667 -0.014905872 0.4592812 0.36523098 0.081910126 1.0724066 0.034952752 -0.4853194 0.07563442 0.13055338 0.33601496 0.4297861 -0.15011498 -0.33562788 0.12149428 -0.009798245
59 -0.78484285 0.5891304 -0.35961908 -0.0975811 -0.083892055 0.82146704 0.5217264 -0.008505194 -0.85341316 0.8820038 -0.8013455 -0.13298707 -0.24203767 -0.333318 1.1277679 -0.50822705 -0.650081 0.6221727 -0.11548812 0.26423833 0.45363787 0.61445475 -0.013143082 -0.63779384 0.024703955 -0.4155214 -0.64406955 -0.34099683 0.2536982 0.06917929 -0.23234898 0.12255864 -0.4924767 0.5967083 0.94777715 -0.8912066 -0.032045543 0.1449567 -0.21292208 0.8275159 -0.06992785 -0.082729414 0.47824532 -0.15343711 -0.39998487 -0.3322433 -0.28235087 -0.06115638 -0.35395625 -0.094044626 0.39750266 0.5549147 -0.46769488 0.040742498 0.29555488 0.40672866 -0.8093892 0.4405512 -0.53387254 0.7934183 -0.046543803 0.07192981 -0.14245471 0.21034771
93 -0.7263867 -0.026249113 -0.15289089 -0.3629558 -0.7365281 0.24353383 0.2640929 -0.7980067 0.22135802 0.10513267 -0.21685913 -0.49189797 -0.31593153 -0.75591224 -0.3476277 -0.34354433 0.3420989 0.3394196 0.028306695 -0.24576688 0.060900725 -0.36572593 0.5388085 -0.24545923 -0.12396387 -0.11856591 0.5794015 -0.029837199 0.8524231 0.3519859 -0.039706543 -0.17145881 -0.343868 -0.26616904 0.6351213 0.42912173 -0.36734453 -0.66643983 0.56744725 0.54860944 0.93868816 0.06438176 -0.7074909 -0.03967365 0.3124977 0.2809312 -0.9995743 0.32059172 0.41568527 -0.58617824 -0.3514579 -0.07429881 0.3944152 -0.07117214 -0.28046682 -0.2292885 0.121260315 -0.21110179 -0.1567895 -0.60574275 0.564301 -0.10684454 -0.3000962 -0.17611378
